<?xml version="1.0"?>
<opencv_storage>
<stage5>
  <maxWeakCount>6</maxWeakCount>
  <stageThreshold>-4.0056109428405762e-01</stageThreshold>
  <weakClassifiers>
    <_>
      <internalNodes>
        0 -1 10 -1071319294 564406880 75259702 1377903104 80748472
        298073464 342956003 1655129221</internalNodes>
      <leafValues>
        -3.3333334326744080e-01 7.5956284999847412e-01</leafValues></_>
    <_>
      <internalNodes>
        0 -1 657 6558980 67117345 1744056289 1611116033 -1504684796
        -402579520 -180286328 8619146</internalNodes>
      <leafValues>
        -5.1929575204849243e-01 6.5756571292877197e-01</leafValues></_>
    <_>
      <internalNodes>
        0 -1 1595 -712921408 1074425696 -327413984 -939512319 610075997
        -2007470192 -2075794144 -1199371053</internalNodes>
      <leafValues>
        -3.5515692830085754e-01 9.1230279207229614e-01</leafValues></_>
    <_>
      <internalNodes>
        0 -1 1425 -970333695 335586905 543306776 -533712349 351575080
        409999669 1077006345 818782723</internalNodes>
      <leafValues>
        -4.4306576251983643e-01 7.4774110317230225e-01</leafValues></_>
    <_>
      <internalNodes>
        0 -1 655 -1073708928 1090519040 131072 -2097151678 -2147483615
        -2113732600 33608 172884520</internalNodes>
      <leafValues>
        -6.1085617542266846e-01 5.8833396434783936e-01</leafValues></_>
    <_>
      <internalNodes>
        0 -1 491 -2144955247 -1539890648 805081066 -924506388 1156945235
        -1938811566 165414154 -456703871</internalNodes>
      <leafValues>
        -4.0861073136329651e-01 8.8963699340820312e-01</leafValues></_></weakClassifiers></stage5>
</opencv_storage>
