<?xml version="1.0"?>
<opencv_storage>
<stage4>
  <maxWeakCount>10</maxWeakCount>
  <stageThreshold>-6.9076526165008545e-01</stageThreshold>
  <weakClassifiers>
    <_>
      <internalNodes>
        0 -1 1131 -803216508 811790246 -1398514046 -2136896533
        -453474042 -2076622913 -2136308604 9430889</internalNodes>
      <leafValues>
        -2.1082949638366699e-01 6.7510855197906494e-01</leafValues></_>
    <_>
      <internalNodes>
        0 -1 110 -957631386 -600798151 788307648 -1823953374 1080263937
        108306292 605234436 -722221662</internalNodes>
      <leafValues>
        -2.8195381164550781e-01 6.9089150428771973e-01</leafValues></_>
    <_>
      <internalNodes>
        0 -1 1460 -280105161 -2134578068 -50401590 1208675839 1757865448
        556257 -559438612 -521412509</internalNodes>
      <leafValues>
        -2.6894545555114746e-01 7.4751150608062744e-01</leafValues></_>
    <_>
      <internalNodes>
        0 -1 1565 -747654390 320945802 620654114 1881826880 1179058698
        -603499148 -285825786 -207371222</internalNodes>
      <leafValues>
        -3.0281654000282288e-01 6.9586610794067383e-01</leafValues></_>
    <_>
      <internalNodes>
        0 -1 250 -1736181086 673446568 -2106481710 322690691 360135768
        70746061 1440044320 -910521842</internalNodes>
      <leafValues>
        -3.5026216506958008e-01 5.9818530082702637e-01</leafValues></_>
    <_>
      <internalNodes>
        0 -1 381 -939333632 -258965501 671089032 -854325246 1073846401
        -2130673263 -904724344 -1476130556</internalNodes>
      <leafValues>
        -4.9278223514556885e-01 4.6794888377189636e-01</leafValues></_>
    <_>
      <internalNodes>
        0 -1 420 -389357334 -961597782 654215472 -1044020574 -2079585112
        1978957687 -680063616 -337688671</internalNodes>
      <leafValues>
        -3.3105292916297913e-01 6.5901374816894531e-01</leafValues></_>
    <_>
      <internalNodes>
        0 -1 1479 855896172 26378264 -2147483624 612565126 83919003
        293838850 -2147188600 500109563</internalNodes>
      <leafValues>
        -6.2245190143585205e-01 3.7562888860702515e-01</leafValues></_>
    <_>
      <internalNodes>
        0 -1 1034 1176812742 876848965 -1314575104 -776655249 -732580046
        1425129365 -717906535 -1412849629</internalNodes>
      <leafValues>
        -3.6059656739234924e-01 6.7336142063140869e-01</leafValues></_>
    <_>
      <internalNodes>
        0 -1 94 1694540203 611956344 -336973856 -510137853 611531023
        -836862716 -462395988 -1243106009</internalNodes>
      <leafValues>
        -3.1382408738136292e-01 7.2775352001190186e-01</leafValues></_></weakClassifiers></stage4>
</opencv_storage>
