<?xml version="1.0"?>
<opencv_storage>
<stage6>
  <maxWeakCount>11</maxWeakCount>
  <stageThreshold>-1.3462616205215454e+00</stageThreshold>
  <weakClassifiers>
    <_>
      <internalNodes>
        0 -1 35337 -1.4640984591096640e-03</internalNodes>
      <leafValues>
        8.4295612573623657e-01 -3.3847001194953918e-01</leafValues></_>
    <_>
      <internalNodes>
        0 -1 28186 -2.1852787584066391e-02</internalNodes>
      <leafValues>
        8.8619756698608398e-01 -2.0100294053554535e-01</leafValues></_>
    <_>
      <internalNodes>
        0 -1 31679 -6.9224587641656399e-03</internalNodes>
      <leafValues>
        -5.8275461196899414e-01 3.4750923514366150e-01</leafValues></_>
    <_>
      <internalNodes>
        0 -1 27561 -9.1282948851585388e-03</internalNodes>
      <leafValues>
        9.2303210496902466e-01 -2.2781194746494293e-01</leafValues></_>
    <_>
      <internalNodes>
        0 -1 40356 -1.7832648009061813e-02</internalNodes>
      <leafValues>
        8.0902832746505737e-01 -1.8470807373523712e-01</leafValues></_>
    <_>
      <internalNodes>
        0 -1 48444 -6.8581430241465569e-04</internalNodes>
      <leafValues>
        6.5875262022018433e-01 -2.8533902764320374e-01</leafValues></_>
    <_>
      <internalNodes>
        0 -1 50179 6.3611306250095367e-03</internalNodes>
      <leafValues>
        -2.2499763965606689e-01 7.4475288391113281e-01</leafValues></_>
    <_>
      <internalNodes>
        0 -1 4218 -1.1664759367704391e-02</internalNodes>
      <leafValues>
        8.9492225646972656e-01 -1.8339298665523529e-01</leafValues></_>
    <_>
      <internalNodes>
        0 -1 3631 5.3131789900362492e-03</internalNodes>
      <leafValues>
        -3.2055717706680298e-01 6.1789798736572266e-01</leafValues></_>
    <_>
      <internalNodes>
        0 -1 30001 2.2946589160710573e-03</internalNodes>
      <leafValues>
        4.3145233392715454e-01 -4.4894975423812866e-01</leafValues></_>
    <_>
      <internalNodes>
        0 -1 44641 -5.8061801828444004e-03</internalNodes>
      <leafValues>
        8.2327800989151001e-01 -2.1699641644954681e-01</leafValues></_></weakClassifiers></stage6>
</opencv_storage>
