<?xml version="1.0"?>
<opencv_storage>
<stage2>
  <maxWeakCount>20</maxWeakCount>
  <stageThreshold>-1.5105756521224976e+00</stageThreshold>
  <weakClassifiers>
    <_>
      <internalNodes>
        0 -1 4663 -7.3351422324776649e-03</internalNodes>
      <leafValues>
        5.7625722885131836e-01 -3.6477029323577881e-01</leafValues></_>
    <_>
      <internalNodes>
        0 -1 5054 -2.1683447062969208e-02</internalNodes>
      <leafValues>
        6.1954760551452637e-01 -2.4610370397567749e-01</leafValues></_>
    <_>
      <internalNodes>
        0 -1 35823 -5.9997495263814926e-02</internalNodes>
      <leafValues>
        1.8462425470352173e-01 -6.6113859415054321e-01</leafValues></_>
    <_>
      <internalNodes>
        0 -1 914 -1.5684682130813599e-01</internalNodes>
      <leafValues>
        5.0804668664932251e-01 -2.3867957293987274e-01</leafValues></_>
    <_>
      <internalNodes>
        0 -1 9463 -3.7484876811504364e-02</internalNodes>
      <leafValues>
        3.3661592006683350e-01 -2.9900375008583069e-01</leafValues></_>
    <_>
      <internalNodes>
        0 -1 50630 1.5650631394237280e-04</internalNodes>
      <leafValues>
        -3.0551433563232422e-01 3.4527969360351562e-01</leafValues></_>
    <_>
      <internalNodes>
        0 -1 49238 -1.0694807395339012e-02</internalNodes>
      <leafValues>
        5.3525608777999878e-01 -1.5201710164546967e-01</leafValues></_>
    <_>
      <internalNodes>
        0 -1 50086 1.3856224715709686e-02</internalNodes>
      <leafValues>
        -1.2395561486482620e-01 6.0995000600814819e-01</leafValues></_>
    <_>
      <internalNodes>
        0 -1 25361 1.1979915201663971e-02</internalNodes>
      <leafValues>
        -3.0705127120018005e-01 2.8132104873657227e-01</leafValues></_>
    <_>
      <internalNodes>
        0 -1 1238 -1.0581899434328079e-02</internalNodes>
      <leafValues>
        6.0860759019851685e-01 -1.1683722585439682e-01</leafValues></_>
    <_>
      <internalNodes>
        0 -1 45937 -9.3760453164577484e-03</internalNodes>
      <leafValues>
        4.2434993386268616e-01 -1.6067013144493103e-01</leafValues></_>
    <_>
      <internalNodes>
        0 -1 14594 2.5333371013402939e-03</internalNodes>
      <leafValues>
        1.4662332832813263e-01 -5.8645123243331909e-01</leafValues></_>
    <_>
      <internalNodes>
        0 -1 14425 -2.8328105807304382e-02</internalNodes>
      <leafValues>
        5.6810033321380615e-01 -1.3714310526847839e-01</leafValues></_>
    <_>
      <internalNodes>
        0 -1 35411 1.9933460280299187e-03</internalNodes>
      <leafValues>
        1.1515298485755920e-01 -5.8684438467025757e-01</leafValues></_>
    <_>
      <internalNodes>
        0 -1 44487 7.1150274015963078e-04</internalNodes>
      <leafValues>
        -2.2848011553287506e-01 3.5691043734550476e-01</leafValues></_>
    <_>
      <internalNodes>
        0 -1 19154 -8.7349209934473038e-03</internalNodes>
      <leafValues>
        3.1777858734130859e-01 -2.1374773979187012e-01</leafValues></_>
    <_>
      <internalNodes>
        0 -1 45797 -5.4947547614574432e-03</internalNodes>
      <leafValues>
        1.4668628573417664e-01 -4.8307558894157410e-01</leafValues></_>
    <_>
      <internalNodes>
        0 -1 3419 -8.4201991558074951e-02</internalNodes>
      <leafValues>
        -6.0688620805740356e-01 9.8753079771995544e-02</leafValues></_>
    <_>
      <internalNodes>
        0 -1 32855 -2.5238800793886185e-02</internalNodes>
      <leafValues>
        3.6710181832313538e-01 -1.8416446447372437e-01</leafValues></_>
    <_>
      <internalNodes>
        0 -1 9600 -8.8748671114444733e-03</internalNodes>
      <leafValues>
        2.9647475481033325e-01 -2.0308266580104828e-01</leafValues></_></weakClassifiers></stage2>
</opencv_storage>
