<?xml version="1.0"?>
<opencv_storage>
<cascade>
  <stageType>BOOST</stageType>
  <featureType>HAAR</featureType>
  <height>16</height>
  <width>16</width>
  <stageParams>
    <boostType>GAB</boostType>
    <minHitRate>9.9500000476837158e-01</minHitRate>
    <maxFalseAlarm>2.0000000298023224e-01</maxFalseAlarm>
    <weightTrimRate>9.4999999999999996e-01</weightTrimRate>
    <maxDepth>1</maxDepth>
    <maxWeakCount>100</maxWeakCount></stageParams>
  <featureParams>
    <maxCatCount>0</maxCatCount>
    <featSize>1</featSize>
    <mode>BASIC</mode></featureParams>
  <stageNum>5</stageNum>
  <stages>
    <!-- stage 0 -->
    <_>
      <maxWeakCount>30</maxWeakCount>
      <stageThreshold>-1.1681857109069824e+00</stageThreshold>
      <weakClassifiers>
        <_>
          <internalNodes>
            0 -1 97 6.8712746724486351e-03</internalNodes>
          <leafValues>
            -3.8001042604446411e-01 6.7655235528945923e-01</leafValues></_>
        <_>
          <internalNodes>
            0 -1 2 -1.4388895034790039e-01</internalNodes>
          <leafValues>
            3.7018251419067383e-01 -6.7707467079162598e-01</leafValues></_>
        <_>
          <internalNodes>
            0 -1 46 -2.0273188129067421e-03</internalNodes>
          <leafValues>
            3.1834769248962402e-01 -5.1080626249313354e-01</leafValues></_>
        <_>
          <internalNodes>
            0 -1 24 -6.6749453544616699e-03</internalNodes>
          <leafValues>
            6.6584956645965576e-01 -1.9628652930259705e-01</leafValues></_>
        <_>
          <internalNodes>
            0 -1 137 5.6798253208398819e-03</internalNodes>
          <leafValues>
            -2.3985508084297180e-01 6.1985051631927490e-01</leafValues></_>
        <_>
          <internalNodes>
            0 -1 26 -3.5344868898391724e-02</internalNodes>
          <leafValues>
            4.8617655038833618e-01 -2.4408589303493500e-01</leafValues></_>
        <_>
          <internalNodes>
            0 -1 48 1.3129228726029396e-02</internalNodes>
          <leafValues>
            -3.4728655219078064e-01 2.3990376293659210e-01</leafValues></_>
        <_>
          <internalNodes>
            0 -1 17 -3.5559460520744324e-02</internalNodes>
          <leafValues>
            6.1498427391052246e-01 -1.3815587759017944e-01</leafValues></_>
        <_>
          <internalNodes>
            0 -1 94 -7.5749978423118591e-02</internalNodes>
          <leafValues>
            5.2760893106460571e-01 -1.3591477274894714e-01</leafValues></_>
        <_>
          <internalNodes>
            0 -1 83 -5.7678958401083946e-03</internalNodes>
          <leafValues>
            3.4546127915382385e-01 -1.9594889879226685e-01</leafValues></_>
        <_>
          <internalNodes>
            0 -1 76 -2.4874746799468994e-02</internalNodes>
          <leafValues>
            5.3815847635269165e-01 -1.2008310854434967e-01</leafValues></_>
        <_>
          <internalNodes>
            0 -1 45 2.3880465887486935e-03</internalNodes>
          <leafValues>
            1.3147351145744324e-01 -6.1613684892654419e-01</leafValues></_>
        <_>
          <internalNodes>
            0 -1 56 2.7595885097980499e-02</internalNodes>
          <leafValues>
            -1.1423612385988235e-01 6.1297196149826050e-01</leafValues></_>
        <_>
          <internalNodes>
            0 -1 115 -1.1171778663992882e-02</internalNodes>
          <leafValues>
            2.0986056327819824e-01 -3.3325830101966858e-01</leafValues></_>
        <_>
          <internalNodes>
            0 -1 9 -7.7046193182468414e-02</internalNodes>
          <leafValues>
            3.9874124526977539e-01 -1.9089226424694061e-01</leafValues></_>
        <_>
          <internalNodes>
            0 -1 123 -3.0494840815663338e-02</internalNodes>
          <leafValues>
            5.2659022808074951e-01 -1.2080354243516922e-01</leafValues></_>
        <_>
          <internalNodes>
            0 -1 59 -2.2069737315177917e-02</internalNodes>
          <leafValues>
            -7.2350198030471802e-01 9.4497367739677429e-02</leafValues></_>
        <_>
          <internalNodes>
            0 -1 84 2.8602525591850281e-02</internalNodes>
          <leafValues>
            -1.0673264414072037e-01 7.0800989866256714e-01</leafValues></_>
        <_>
          <internalNodes>
            0 -1 20 -7.0096075534820557e-02</internalNodes>
          <leafValues>
            -4.5396840572357178e-01 1.3942448794841766e-01</leafValues></_>
        <_>
          <internalNodes>
            0 -1 128 -3.2673618989065289e-04</internalNodes>
          <leafValues>
            -3.9887648820877075e-01 1.2727619707584381e-01</leafValues></_>
        <_>
          <internalNodes>
            0 -1 68 -9.7167426720261574e-03</internalNodes>
          <leafValues>
            3.7916636466979980e-01 -1.4595223963260651e-01</leafValues></_>
        <_>
          <internalNodes>
            0 -1 111 -3.0789285898208618e-02</internalNodes>
          <leafValues>
            4.0841794013977051e-01 -1.1788062006235123e-01</leafValues></_>
        <_>
          <internalNodes>
            0 -1 74 -3.5933624021708965e-03</internalNodes>
          <leafValues>
            -5.5917716026306152e-01 9.7569599747657776e-02</leafValues></_>
        <_>
          <internalNodes>
            0 -1 11 4.1850693523883820e-02</internalNodes>
          <leafValues>
            -1.2600532174110413e-01 4.3927803635597229e-01</leafValues></_>
        <_>
          <internalNodes>
            0 -1 113 1.4606324955821037e-02</internalNodes>
          <leafValues>
            -1.1572540551424026e-01 4.3578320741653442e-01</leafValues></_>
        <_>
          <internalNodes>
            0 -1 19 -3.0872616916894913e-02</internalNodes>
          <leafValues>
            3.6511984467506409e-01 -1.1629926413297653e-01</leafValues></_>
        <_>
          <internalNodes>
            0 -1 82 3.2527400180697441e-03</internalNodes>
          <leafValues>
            1.0701373964548111e-01 -4.1357576847076416e-01</leafValues></_>
        <_>
          <internalNodes>
            0 -1 38 1.1668537557125092e-01</internalNodes>
          <leafValues>
            4.1625581681728363e-02 -8.6250358819961548e-01</leafValues></_>
        <_>
          <internalNodes>
            0 -1 105 8.6125507950782776e-03</internalNodes>
          <leafValues>
            -1.4229004085063934e-01 2.9826003313064575e-01</leafValues></_>
        <_>
          <internalNodes>
            0 -1 121 -8.0148056149482727e-03</internalNodes>
          <leafValues>
            3.7208652496337891e-01 -1.2594319880008698e-01</leafValues></_></weakClassifiers></_>
    <!-- stage 1 -->
    <_>
      <maxWeakCount>60</maxWeakCount>
      <stageThreshold>-1.1201969385147095e+00</stageThreshold>
      <weakClassifiers>
        <_>
          <internalNodes>
            0 -1 31 3.9312068838626146e-04</internalNodes>
          <leafValues>
            -3.8632535934448242e-01 3.7842297554016113e-01</leafValues></_>
        <_>
          <internalNodes>
            0 -1 29 -6.9638760760426521e-03</internalNodes>
          <leafValues>
            6.6679048538208008e-01 -1.6042004525661469e-01</leafValues></_>
        <_>
          <internalNodes>
            0 -1 135 9.3099726364016533e-03</internalNodes>
          <leafValues>
            -1.5038189291954041e-01 5.7993972301483154e-01</leafValues></_>
        <_>
          <internalNodes>
            0 -1 112 1.7233993858098984e-02</internalNodes>
          <leafValues>
            1.3349875807762146e-01 -6.3499051332473755e-01</leafValues></_>
        <_>
          <internalNodes>
            0 -1 119 7.7363551827147603e-04</internalNodes>
          <leafValues>
            -3.4708225727081299e-01 2.2456784546375275e-01</leafValues></_>
        <_>
          <internalNodes>
            0 -1 53 -3.9111394435167313e-02</internalNodes>
          <leafValues>
            2.9516562819480896e-01 -3.0857649445533752e-01</leafValues></_>
        <_>
          <internalNodes>
            0 -1 28 -2.4239456281065941e-02</internalNodes>
          <leafValues>
            6.2989127635955811e-01 -9.4729006290435791e-02</leafValues></_>
        <_>
          <internalNodes>
            0 -1 32 4.7540096566081047e-03</internalNodes>
          <leafValues>
            1.2966497242450714e-01 -5.5439829826354980e-01</leafValues></_>
        <_>
          <internalNodes>
            0 -1 70 -4.0573321282863617e-02</internalNodes>
          <leafValues>
            3.2991027832031250e-01 -1.8715868890285492e-01</leafValues></_>
        <_>
          <internalNodes>
            0 -1 90 -5.4583516903221607e-03</internalNodes>
          <leafValues>
            2.9549348354339600e-01 -1.8186078965663910e-01</leafValues></_>
        <_>
          <internalNodes>
            0 -1 44 2.8085216879844666e-02</internalNodes>
          <leafValues>
            -1.2269043177366257e-01 5.9456551074981689e-01</leafValues></_>
        <_>
          <internalNodes>
            0 -1 15 -2.5937700271606445e-01</internalNodes>
          <leafValues>
            2.2283481061458588e-01 -3.0472722649574280e-01</leafValues></_>
        <_>
          <internalNodes>
            0 -1 37 -1.0656742751598358e-01</internalNodes>
          <leafValues>
            3.2945573329925537e-01 -1.7495673894882202e-01</leafValues></_>
        <_>
          <internalNodes>
            0 -1 42 2.2220781072974205e-02</internalNodes>
          <leafValues>
            -9.0773873031139374e-02 5.6801486015319824e-01</leafValues></_>
        <_>
          <internalNodes>
            0 -1 10 4.6468549408018589e-03</internalNodes>
          <leafValues>
            -1.2113441526889801e-01 4.3088373541831970e-01</leafValues></_>
        <_>
          <internalNodes>
            0 -1 134 -1.0248592123389244e-02</internalNodes>
          <leafValues>
            4.8569798469543457e-01 -8.7382882833480835e-02</leafValues></_>
        <_>
          <internalNodes>
            0 -1 114 -1.3304829597473145e-02</internalNodes>
          <leafValues>
            3.6245530843734741e-01 -1.2725469470024109e-01</leafValues></_>
        <_>
          <internalNodes>
            0 -1 67 -4.7164554707705975e-03</internalNodes>
          <leafValues>
            2.5079932808876038e-01 -1.8552985787391663e-01</leafValues></_>
        <_>
          <internalNodes>
            0 -1 129 -1.2378823012113571e-02</internalNodes>
          <leafValues>
            4.2303180694580078e-01 -1.0742203146219254e-01</leafValues></_>
        <_>
          <internalNodes>
            0 -1 85 1.6433025011792779e-03</internalNodes>
          <leafValues>
            1.2088178098201752e-01 -4.0564244985580444e-01</leafValues></_>
        <_>
          <internalNodes>
            0 -1 91 -4.5024938881397247e-03</internalNodes>
          <leafValues>
            -5.7828104496002197e-01 7.3341600596904755e-02</leafValues></_>
        <_>
          <internalNodes>
            0 -1 23 -4.9656489863991737e-03</internalNodes>
          <leafValues>
            4.3386423587799072e-01 -1.2271010130643845e-01</leafValues></_>
        <_>
          <internalNodes>
            0 -1 108 -1.9957911223173141e-02</internalNodes>
          <leafValues>
            5.3303003311157227e-01 -8.5447058081626892e-02</leafValues></_>
        <_>
          <internalNodes>
            0 -1 107 -2.6975739747285843e-03</internalNodes>
          <leafValues>
            -4.5079886913299561e-01 1.1136952042579651e-01</leafValues></_>
        <_>
          <internalNodes>
            0 -1 63 -1.2407377362251282e-02</internalNodes>
          <leafValues>
            2.8463274240493774e-01 -1.5000422298908234e-01</leafValues></_>
        <_>
          <internalNodes>
            0 -1 62 -2.1346973255276680e-02</internalNodes>
          <leafValues>
            2.1868962049484253e-01 -1.8690688908100128e-01</leafValues></_>
        <_>
          <internalNodes>
            0 -1 1 2.8883527964353561e-02</internalNodes>
          <leafValues>
            8.0931581556797028e-02 -4.8914861679077148e-01</leafValues></_>
        <_>
          <internalNodes>
            0 -1 40 -3.6937523633241653e-02</internalNodes>
          <leafValues>
            7.5277012586593628e-01 -6.3809379935264587e-02</leafValues></_>
        <_>
          <internalNodes>
            0 -1 77 -3.5161504056304693e-03</internalNodes>
          <leafValues>
            -6.5713852643966675e-01 7.3235876858234406e-02</leafValues></_>
        <_>
          <internalNodes>
            0 -1 35 2.6266351342201233e-02</internalNodes>
          <leafValues>
            -7.2311706840991974e-02 6.6923576593399048e-01</leafValues></_>
        <_>
          <internalNodes>
            0 -1 71 -1.9246280193328857e-02</internalNodes>
          <leafValues>
            3.5957407951354980e-01 -1.1040679365396500e-01</leafValues></_>
        <_>
          <internalNodes>
            0 -1 0 3.4203998744487762e-02</internalNodes>
          <leafValues>
            -7.3265135288238525e-02 5.0857084989547729e-01</leafValues></_>
        <_>
          <internalNodes>
            0 -1 57 -7.2881411761045456e-03</internalNodes>
          <leafValues>
            2.6099309325218201e-01 -1.4831864833831787e-01</leafValues></_>
        <_>
          <internalNodes>
            0 -1 7 1.8521118909120560e-02</internalNodes>
          <leafValues>
            6.0271609574556351e-02 -6.3049858808517456e-01</leafValues></_>
        <_>
          <internalNodes>
            0 -1 93 3.9176709949970245e-02</internalNodes>
          <leafValues>
            -8.3374239504337311e-02 4.8282599449157715e-01</leafValues></_>
        <_>
          <internalNodes>
            0 -1 66 5.0900746136903763e-03</internalNodes>
          <leafValues>
            -1.3068291544914246e-01 2.8499117493629456e-01</leafValues></_>
        <_>
          <internalNodes>
            0 -1 66 -2.1141722798347473e-02</internalNodes>
          <leafValues>
            4.4068205356597900e-01 -1.0746517032384872e-01</leafValues></_>
        <_>
          <internalNodes>
            0 -1 128 -2.4981987662613392e-03</internalNodes>
          <leafValues>
            -5.4263842105865479e-01 7.3628805577754974e-02</leafValues></_>
        <_>
          <internalNodes>
            0 -1 106 1.4809764921665192e-02</internalNodes>
          <leafValues>
            -1.2324252724647522e-01 3.4001195430755615e-01</leafValues></_>
        <_>
          <internalNodes>
            0 -1 39 -3.6632321774959564e-02</internalNodes>
          <leafValues>
            -4.5767891407012939e-01 9.3975134193897247e-02</leafValues></_>
        <_>
          <internalNodes>
            0 -1 117 -8.2158530130982399e-03</internalNodes>
          <leafValues>
            3.4441915154457092e-01 -1.2998214364051819e-01</leafValues></_>
        <_>
          <internalNodes>
            0 -1 21 -2.3134896764531732e-04</internalNodes>
          <leafValues>
            1.9465886056423187e-01 -1.9882521033287048e-01</leafValues></_>
        <_>
          <internalNodes>
            0 -1 36 -2.3924529552459717e-01</internalNodes>
          <leafValues>
            9.0818297863006592e-01 -4.3418627232313156e-02</leafValues></_>
        <_>
          <internalNodes>
            0 -1 51 1.2219083309173584e-01</internalNodes>
          <leafValues>
            6.0054574161767960e-02 -7.6929366588592529e-01</leafValues></_>
        <_>
          <internalNodes>
            0 -1 136 -1.7532895435579121e-04</internalNodes>
          <leafValues>
            2.6231488585472107e-01 -1.4418466389179230e-01</leafValues></_>
        <_>
          <internalNodes>
            0 -1 132 3.2009566202759743e-03</internalNodes>
          <leafValues>
            -1.1888045817613602e-01 3.1141254305839539e-01</leafValues></_>
        <_>
          <internalNodes>
            0 -1 109 9.8491157405078411e-04</internalNodes>
          <leafValues>
            -1.6490297019481659e-01 2.1871912479400635e-01</leafValues></_>
        <_>
          <internalNodes>
            0 -1 98 1.1478218948468566e-04</internalNodes>
          <leafValues>
            1.2974581122398376e-01 -2.8880921006202698e-01</leafValues></_>
        <_>
          <internalNodes>
            0 -1 32 -4.7282996820285916e-04</internalNodes>
          <leafValues>
            1.6761350631713867e-01 -2.4786841869354248e-01</leafValues></_>
        <_>
          <internalNodes>
            0 -1 69 1.1650215834379196e-02</internalNodes>
          <leafValues>
            -1.1226122081279755e-01 3.9163255691528320e-01</leafValues></_>
        <_>
          <internalNodes>
            0 -1 96 -2.0678583532571793e-03</internalNodes>
          <leafValues>
            -5.6995540857315063e-01 6.9444969296455383e-02</leafValues></_>
        <_>
          <internalNodes>
            0 -1 12 -1.6795307397842407e-02</internalNodes>
          <leafValues>
            2.8621196746826172e-01 -1.4728750288486481e-01</leafValues></_>
        <_>
          <internalNodes>
            0 -1 127 3.4964997321367264e-03</internalNodes>
          <leafValues>
            -7.7957190573215485e-02 4.7370234131813049e-01</leafValues></_>
        <_>
          <internalNodes>
            0 -1 89 -2.7116059791296721e-03</internalNodes>
          <leafValues>
            -3.8679802417755127e-01 9.7494654357433319e-02</leafValues></_>
        <_>
          <internalNodes>
            0 -1 81 -2.9407842084765434e-03</internalNodes>
          <leafValues>
            -4.5781391859054565e-01 7.6397724449634552e-02</leafValues></_>
        <_>
          <internalNodes>
            0 -1 8 3.2046129927039146e-03</internalNodes>
          <leafValues>
            -1.4694292843341827e-01 2.7503192424774170e-01</leafValues></_>
        <_>
          <internalNodes>
            0 -1 52 1.6994820907711983e-03</internalNodes>
          <leafValues>
            -1.0914976149797440e-01 3.6219775676727295e-01</leafValues></_>
        <_>
          <internalNodes>
            0 -1 124 -3.6093443632125854e-03</internalNodes>
          <leafValues>
            3.3329558372497559e-01 -9.7633890807628632e-02</leafValues></_>
        <_>
          <internalNodes>
            0 -1 124 2.1905107423663139e-03</internalNodes>
          <leafValues>
            -1.2772388756275177e-01 3.0989825725555420e-01</leafValues></_>
        <_>
          <internalNodes>
            0 -1 122 5.3781643509864807e-03</internalNodes>
          <leafValues>
            9.2003516852855682e-02 -3.9879333972930908e-01</leafValues></_></weakClassifiers></_>
    <!-- stage 2 -->
    <_>
      <maxWeakCount>39</maxWeakCount>
      <stageThreshold>-1.0767583847045898e+00</stageThreshold>
      <weakClassifiers>
        <_>
          <internalNodes>
            0 -1 116 -4.8240097239613533e-03</internalNodes>
          <leafValues>
            5.3014081716537476e-01 -2.2272188961505890e-01</leafValues></_>
        <_>
          <internalNodes>
            0 -1 5 -2.4466775357723236e-02</internalNodes>
          <leafValues>
            6.5410280227661133e-01 -1.5300400555133820e-01</leafValues></_>
        <_>
          <internalNodes>
            0 -1 102 7.2718434967100620e-04</internalNodes>
          <leafValues>
            -2.8200685977935791e-01 3.7475404143333435e-01</leafValues></_>
        <_>
          <internalNodes>
            0 -1 30 -1.4779251068830490e-04</internalNodes>
          <leafValues>
            3.3757317066192627e-01 -2.5161162018775940e-01</leafValues></_>
        <_>
          <internalNodes>
            0 -1 64 -3.1145220994949341e-01</internalNodes>
          <leafValues>
            4.5422843098640442e-01 -1.9133469462394714e-01</leafValues></_>
        <_>
          <internalNodes>
            0 -1 131 -2.5494815781712532e-03</internalNodes>
          <leafValues>
            4.6154388785362244e-01 -1.7636090517044067e-01</leafValues></_>
        <_>
          <internalNodes>
            0 -1 4 -9.5872916281223297e-03</internalNodes>
          <leafValues>
            4.9359482526779175e-01 -1.4865033328533173e-01</leafValues></_>
        <_>
          <internalNodes>
            0 -1 92 -4.9761822447180748e-03</internalNodes>
          <leafValues>
            -7.3240900039672852e-01 1.5892921388149261e-01</leafValues></_>
        <_>
          <internalNodes>
            0 -1 95 -7.2935954667627811e-03</internalNodes>
          <leafValues>
            3.0177545547485352e-01 -3.2292583584785461e-01</leafValues></_>
        <_>
          <internalNodes>
            0 -1 41 -2.6465523988008499e-02</internalNodes>
          <leafValues>
            5.6099212169647217e-01 -1.3513852655887604e-01</leafValues></_>
        <_>
          <internalNodes>
            0 -1 78 -7.3157943785190582e-02</internalNodes>
          <leafValues>
            6.4346313476562500e-01 -1.3080105185508728e-01</leafValues></_>
        <_>
          <internalNodes>
            0 -1 103 1.2359346728771925e-03</internalNodes>
          <leafValues>
            1.2937118113040924e-01 -5.8746540546417236e-01</leafValues></_>
        <_>
          <internalNodes>
            0 -1 3 1.7073057591915131e-02</internalNodes>
          <leafValues>
            -6.9454535841941833e-02 1.</leafValues></_>
        <_>
          <internalNodes>
            0 -1 72 -5.9030897915363312e-02</internalNodes>
          <leafValues>
            3.0230695009231567e-01 -2.2457002103328705e-01</leafValues></_>
        <_>
          <internalNodes>
            0 -1 25 3.1172875314950943e-02</internalNodes>
          <leafValues>
            1.2529805302619934e-01 -5.8776408433914185e-01</leafValues></_>
        <_>
          <internalNodes>
            0 -1 60 -4.9563165754079819e-02</internalNodes>
          <leafValues>
            6.9126826524734497e-01 -1.1406634002923965e-01</leafValues></_>
        <_>
          <internalNodes>
            0 -1 54 -1.2265851255506277e-03</internalNodes>
          <leafValues>
            5.0371462106704712e-01 -1.2605051696300507e-01</leafValues></_>
        <_>
          <internalNodes>
            0 -1 55 9.7368017304688692e-04</internalNodes>
          <leafValues>
            -1.5747576951980591e-01 4.1464376449584961e-01</leafValues></_>
        <_>
          <internalNodes>
            0 -1 110 -1.4705688226968050e-03</internalNodes>
          <leafValues>
            -5.5557322502136230e-01 1.3744781911373138e-01</leafValues></_>
        <_>
          <internalNodes>
            0 -1 126 -1.2847876176238060e-02</internalNodes>
          <leafValues>
            6.9842427968978882e-01 -1.0562458634376526e-01</leafValues></_>
        <_>
          <internalNodes>
            0 -1 16 2.4869972839951515e-03</internalNodes>
          <leafValues>
            -1.2051656097173691e-01 4.6882110834121704e-01</leafValues></_>
        <_>
          <internalNodes>
            0 -1 73 3.3904340118169785e-02</internalNodes>
          <leafValues>
            -9.3650028109550476e-02 6.0635262727737427e-01</leafValues></_>
        <_>
          <internalNodes>
            0 -1 22 -5.9454575181007385e-02</internalNodes>
          <leafValues>
            -8.4650576114654541e-01 8.9173354208469391e-02</leafValues></_>
        <_>
          <internalNodes>
            0 -1 120 1.4488026499748230e-01</internalNodes>
          <leafValues>
            5.9838473796844482e-02 -7.2273188829421997e-01</leafValues></_>
        <_>
          <internalNodes>
            0 -1 75 -9.2617934569716454e-03</internalNodes>
          <leafValues>
            2.3674277961254120e-01 -2.6482009887695312e-01</leafValues></_>
        <_>
          <internalNodes>
            0 -1 86 -7.8672787640243769e-04</internalNodes>
          <leafValues>
            -3.3253112435340881e-01 1.8391717970371246e-01</leafValues></_>
        <_>
          <internalNodes>
            0 -1 59 -3.7783734500408173e-02</internalNodes>
          <leafValues>
            -9.2591065168380737e-01 5.2717905491590500e-02</leafValues></_>
        <_>
          <internalNodes>
            0 -1 61 3.0371602624654770e-02</internalNodes>
          <leafValues>
            -1.0825736075639725e-01 6.1173123121261597e-01</leafValues></_>
        <_>
          <internalNodes>
            0 -1 6 -7.8559800982475281e-02</internalNodes>
          <leafValues>
            8.0484127998352051e-01 -6.6276125609874725e-02</leafValues></_>
        <_>
          <internalNodes>
            0 -1 133 8.7445173412561417e-03</internalNodes>
          <leafValues>
            -1.2810990214347839e-01 4.0578204393386841e-01</leafValues></_>
        <_>
          <internalNodes>
            0 -1 27 -1.8064900068566203e-03</internalNodes>
          <leafValues>
            3.7972119450569153e-01 -1.5654106438159943e-01</leafValues></_>
        <_>
          <internalNodes>
            0 -1 50 -5.6215841323137283e-03</internalNodes>
          <leafValues>
            1.4290314912796021e-01 -4.1077876091003418e-01</leafValues></_>
        <_>
          <internalNodes>
            0 -1 18 -8.2836210727691650e-02</internalNodes>
          <leafValues>
            -5.0624310970306396e-01 1.0778745263814926e-01</leafValues></_>
        <_>
          <internalNodes>
            0 -1 13 1.3441191986203194e-03</internalNodes>
          <leafValues>
            -1.3012780249118805e-01 4.6518743038177490e-01</leafValues></_>
        <_>
          <internalNodes>
            0 -1 14 -3.6147157516097650e-05</internalNodes>
          <leafValues>
            2.9921472072601318e-01 -2.0301803946495056e-01</leafValues></_>
        <_>
          <internalNodes>
            0 -1 58 -4.1014803573489189e-03</internalNodes>
          <leafValues>
            -5.7542413473129272e-01 1.1310808360576630e-01</leafValues></_>
        <_>
          <internalNodes>
            0 -1 43 -1.1203042231500149e-02</internalNodes>
          <leafValues>
            5.1253938674926758e-01 -1.3659402728080750e-01</leafValues></_>
        <_>
          <internalNodes>
            0 -1 33 5.2487254142761230e-03</internalNodes>
          <leafValues>
            -1.4601138234138489e-01 4.4447165727615356e-01</leafValues></_>
        <_>
          <internalNodes>
            0 -1 118 -1.5618886100128293e-03</internalNodes>
          <leafValues>
            3.3807778358459473e-01 -1.6690424084663391e-01</leafValues></_></weakClassifiers></_>
    <!-- stage 3 -->
    <_>
      <maxWeakCount>13</maxWeakCount>
      <stageThreshold>-1.2330631017684937e+00</stageThreshold>
      <weakClassifiers>
        <_>
          <internalNodes>
            0 -1 47 -2.5870692916214466e-03</internalNodes>
          <leafValues>
            1. -2.8040972352027893e-01</leafValues></_>
        <_>
          <internalNodes>
            0 -1 104 -1.2137115001678467e-02</internalNodes>
          <leafValues>
            1. -1.6157154738903046e-01</leafValues></_>
        <_>
          <internalNodes>
            0 -1 80 -1.7705906182527542e-02</internalNodes>
          <leafValues>
            1. -1.6273894906044006e-01</leafValues></_>
        <_>
          <internalNodes>
            0 -1 130 3.1341801513917744e-04</internalNodes>
          <leafValues>
            -2.0098133385181427e-01 8.5474210977554321e-01</leafValues></_>
        <_>
          <internalNodes>
            0 -1 99 -1.3205474242568016e-03</internalNodes>
          <leafValues>
            8.5994011163711548e-01 -1.9717442989349365e-01</leafValues></_>
        <_>
          <internalNodes>
            0 -1 49 -9.4380453228950500e-03</internalNodes>
          <leafValues>
            5.4049444198608398e-01 -3.8829210400581360e-01</leafValues></_>
        <_>
          <internalNodes>
            0 -1 34 -1.8890001811087132e-03</internalNodes>
          <leafValues>
            1. -1.9941876828670502e-01</leafValues></_>
        <_>
          <internalNodes>
            0 -1 65 3.7336506647989154e-04</internalNodes>
          <leafValues>
            -1.8346500396728516e-01 8.1921434402465820e-01</leafValues></_>
        <_>
          <internalNodes>
            0 -1 101 1.2841161806136370e-03</internalNodes>
          <leafValues>
            -2.1989217400550842e-01 7.7225267887115479e-01</leafValues></_>
        <_>
          <internalNodes>
            0 -1 79 4.9043153412640095e-03</internalNodes>
          <leafValues>
            -1.8520982563495636e-01 9.0576130151748657e-01</leafValues></_>
        <_>
          <internalNodes>
            0 -1 87 9.2835053801536560e-03</internalNodes>
          <leafValues>
            -1.9882892072200775e-01 7.9889720678329468e-01</leafValues></_>
        <_>
          <internalNodes>
            0 -1 125 -3.8895014673471451e-02</internalNodes>
          <leafValues>
            -5.9771347045898438e-01 3.4382477402687073e-01</leafValues></_>
        <_>
          <internalNodes>
            0 -1 100 -2.9126652516424656e-03</internalNodes>
          <leafValues>
            -6.1835712194442749e-01 3.6892545223236084e-01</leafValues></_></weakClassifiers></_>
    <!-- stage 4 -->
    <_>
      <maxWeakCount>1</maxWeakCount>
      <stageThreshold>1.</stageThreshold>
      <weakClassifiers>
        <_>
          <internalNodes>
            0 -1 88 -5.6062197685241699e-01</internalNodes>
          <leafValues>
            -9.9733686447143555e-01 1.</leafValues></_></weakClassifiers></_></stages>
  <features>
    <_>
      <rects>
        <_>
          0 0 4 10 -1.</_>
        <_>
          0 0 2 5 2.</_>
        <_>
          2 5 2 5 2.</_></rects>
      <tilted>0</tilted></_>
    <_>
      <rects>
        <_>
          0 0 4 16 -1.</_>
        <_>
          0 8 4 8 2.</_></rects>
      <tilted>0</tilted></_>
    <_>
      <rects>
        <_>
          0 0 15 16 -1.</_>
        <_>
          0 8 15 8 2.</_></rects>
      <tilted>0</tilted></_>
    <_>
      <rects>
        <_>
          0 1 2 10 -1.</_>
        <_>
          0 1 1 5 2.</_>
        <_>
          1 6 1 5 2.</_></rects>
      <tilted>0</tilted></_>
    <_>
      <rects>
        <_>
          0 1 2 12 -1.</_>
        <_>
          0 1 1 6 2.</_>
        <_>
          1 7 1 6 2.</_></rects>
      <tilted>0</tilted></_>
    <_>
      <rects>
        <_>
          0 1 6 3 -1.</_>
        <_>
          3 1 3 3 2.</_></rects>
      <tilted>0</tilted></_>
    <_>
      <rects>
        <_>
          0 1 6 10 -1.</_>
        <_>
          0 1 3 5 2.</_>
        <_>
          3 6 3 5 2.</_></rects>
      <tilted>0</tilted></_>
    <_>
      <rects>
        <_>
          0 1 4 2 -1.</_>
        <_>
          0 2 4 1 2.</_></rects>
      <tilted>0</tilted></_>
    <_>
      <rects>
        <_>
          0 2 2 13 -1.</_>
        <_>
          1 2 1 13 2.</_></rects>
      <tilted>0</tilted></_>
    <_>
      <rects>
        <_>
          0 2 15 6 -1.</_>
        <_>
          5 2 5 6 3.</_></rects>
      <tilted>0</tilted></_>
    <_>
      <rects>
        <_>
          0 3 3 3 -1.</_>
        <_>
          1 3 1 3 3.</_></rects>
      <tilted>0</tilted></_>
    <_>
      <rects>
        <_>
          0 3 9 8 -1.</_>
        <_>
          3 3 3 8 3.</_></rects>
      <tilted>0</tilted></_>
    <_>
      <rects>
        <_>
          0 3 15 3 -1.</_>
        <_>
          0 4 15 1 3.</_></rects>
      <tilted>0</tilted></_>
    <_>
      <rects>
        <_>
          0 4 2 1 -1.</_>
        <_>
          1 4 1 1 2.</_></rects>
      <tilted>0</tilted></_>
    <_>
      <rects>
        <_>
          0 4 4 1 -1.</_>
        <_>
          2 4 2 1 2.</_></rects>
      <tilted>0</tilted></_>
    <_>
      <rects>
        <_>
          0 4 16 12 -1.</_>
        <_>
          0 10 16 6 2.</_></rects>
      <tilted>0</tilted></_>
    <_>
      <rects>
        <_>
          0 6 2 10 -1.</_>
        <_>
          0 6 1 5 2.</_>
        <_>
          1 11 1 5 2.</_></rects>
      <tilted>0</tilted></_>
    <_>
      <rects>
        <_>
          0 6 6 10 -1.</_>
        <_>
          2 6 2 10 3.</_></rects>
      <tilted>0</tilted></_>
    <_>
      <rects>
        <_>
          0 6 3 8 -1.</_>
        <_>
          0 10 3 4 2.</_></rects>
      <tilted>0</tilted></_>
    <_>
      <rects>
        <_>
          0 6 9 8 -1.</_>
        <_>
          3 6 3 8 3.</_></rects>
      <tilted>0</tilted></_>
    <_>
      <rects>
        <_>
          0 6 16 8 -1.</_>
        <_>
          0 6 8 4 2.</_>
        <_>
          8 10 8 4 2.</_></rects>
      <tilted>0</tilted></_>
    <_>
      <rects>
        <_>
          0 7 1 2 -1.</_>
        <_>
          0 8 1 1 2.</_></rects>
      <tilted>0</tilted></_>
    <_>
      <rects>
        <_>
          0 7 10 4 -1.</_>
        <_>
          0 7 5 2 2.</_>
        <_>
          5 9 5 2 2.</_></rects>
      <tilted>0</tilted></_>
    <_>
      <rects>
        <_>
          0 8 3 5 -1.</_>
        <_>
          1 8 1 5 3.</_></rects>
      <tilted>0</tilted></_>
    <_>
      <rects>
        <_>
          0 9 3 7 -1.</_>
        <_>
          1 9 1 7 3.</_></rects>
      <tilted>0</tilted></_>
    <_>
      <rects>
        <_>
          0 9 5 6 -1.</_>
        <_>
          0 12 5 3 2.</_></rects>
      <tilted>0</tilted></_>
    <_>
      <rects>
        <_>
          0 10 12 6 -1.</_>
        <_>
          0 12 12 2 3.</_></rects>
      <tilted>0</tilted></_>
    <_>
      <rects>
        <_>
          0 11 3 3 -1.</_>
        <_>
          1 11 1 3 3.</_></rects>
      <tilted>0</tilted></_>
    <_>
      <rects>
        <_>
          0 11 6 4 -1.</_>
        <_>
          2 11 2 4 3.</_></rects>
      <tilted>0</tilted></_>
    <_>
      <rects>
        <_>
          0 12 3 4 -1.</_>
        <_>
          1 12 1 4 3.</_></rects>
      <tilted>0</tilted></_>
    <_>
      <rects>
        <_>
          0 14 2 1 -1.</_>
        <_>
          1 14 1 1 2.</_></rects>
      <tilted>0</tilted></_>
    <_>
      <rects>
        <_>
          0 14 2 2 -1.</_>
        <_>
          0 15 2 1 2.</_></rects>
      <tilted>0</tilted></_>
    <_>
      <rects>
        <_>
          0 15 12 1 -1.</_>
        <_>
          4 15 4 1 3.</_></rects>
      <tilted>0</tilted></_>
    <_>
      <rects>
        <_>
          1 0 2 11 -1.</_>
        <_>
          2 0 1 11 2.</_></rects>
      <tilted>0</tilted></_>
    <_>
      <rects>
        <_>
          1 1 2 4 -1.</_>
        <_>
          1 1 1 2 2.</_>
        <_>
          2 3 1 2 2.</_></rects>
      <tilted>0</tilted></_>
    <_>
      <rects>
        <_>
          1 1 4 4 -1.</_>
        <_>
          3 1 2 4 2.</_></rects>
      <tilted>0</tilted></_>
    <_>
      <rects>
        <_>
          1 1 8 13 -1.</_>
        <_>
          5 1 4 13 2.</_></rects>
      <tilted>0</tilted></_>
    <_>
      <rects>
        <_>
          1 2 15 9 -1.</_>
        <_>
          6 2 5 9 3.</_></rects>
      <tilted>0</tilted></_>
    <_>
      <rects>
        <_>
          1 5 10 8 -1.</_>
        <_>
          1 9 10 4 2.</_></rects>
      <tilted>0</tilted></_>
    <_>
      <rects>
        <_>
          1 8 14 4 -1.</_>
        <_>
          1 8 7 2 2.</_>
        <_>
          8 10 7 2 2.</_></rects>
      <tilted>0</tilted></_>
    <_>
      <rects>
        <_>
          1 9 6 5 -1.</_>
        <_>
          3 9 2 5 3.</_></rects>
      <tilted>0</tilted></_>
    <_>
      <rects>
        <_>
          1 11 14 3 -1.</_>
        <_>
          1 12 14 1 3.</_></rects>
      <tilted>0</tilted></_>
    <_>
      <rects>
        <_>
          1 12 11 3 -1.</_>
        <_>
          1 13 11 1 3.</_></rects>
      <tilted>0</tilted></_>
    <_>
      <rects>
        <_>
          1 13 9 3 -1.</_>
        <_>
          4 13 3 3 3.</_></rects>
      <tilted>0</tilted></_>
    <_>
      <rects>
        <_>
          1 13 12 3 -1.</_>
        <_>
          1 14 12 1 3.</_></rects>
      <tilted>0</tilted></_>
    <_>
      <rects>
        <_>
          1 15 6 1 -1.</_>
        <_>
          4 15 3 1 2.</_></rects>
      <tilted>0</tilted></_>
    <_>
      <rects>
        <_>
          1 15 15 1 -1.</_>
        <_>
          6 15 5 1 3.</_></rects>
      <tilted>0</tilted></_>
    <_>
      <rects>
        <_>
          2 2 3 5 -1.</_>
        <_>
          3 2 1 5 3.</_></rects>
      <tilted>0</tilted></_>
    <_>
      <rects>
        <_>
          2 2 9 9 -1.</_>
        <_>
          2 5 9 3 3.</_></rects>
      <tilted>0</tilted></_>
    <_>
      <rects>
        <_>
          2 5 1 8 -1.</_>
        <_>
          2 9 1 4 2.</_></rects>
      <tilted>0</tilted></_>
    <_>
      <rects>
        <_>
          2 6 2 8 -1.</_>
        <_>
          2 10 2 4 2.</_></rects>
      <tilted>0</tilted></_>
    <_>
      <rects>
        <_>
          2 7 14 6 -1.</_>
        <_>
          2 7 7 3 2.</_>
        <_>
          9 10 7 3 2.</_></rects>
      <tilted>0</tilted></_>
    <_>
      <rects>
        <_>
          2 10 2 5 -1.</_>
        <_>
          3 10 1 5 2.</_></rects>
      <tilted>0</tilted></_>
    <_>
      <rects>
        <_>
          2 10 12 6 -1.</_>
        <_>
          2 12 12 2 3.</_></rects>
      <tilted>0</tilted></_>
    <_>
      <rects>
        <_>
          2 12 3 2 -1.</_>
        <_>
          3 12 1 2 3.</_></rects>
      <tilted>0</tilted></_>
    <_>
      <rects>
        <_>
          2 12 2 3 -1.</_>
        <_>
          3 12 1 3 2.</_></rects>
      <tilted>0</tilted></_>
    <_>
      <rects>
        <_>
          2 12 14 3 -1.</_>
        <_>
          2 13 14 1 3.</_></rects>
      <tilted>0</tilted></_>
    <_>
      <rects>
        <_>
          2 13 7 3 -1.</_>
        <_>
          2 14 7 1 3.</_></rects>
      <tilted>0</tilted></_>
    <_>
      <rects>
        <_>
          2 15 6 1 -1.</_>
        <_>
          4 15 2 1 3.</_></rects>
      <tilted>0</tilted></_>
    <_>
      <rects>
        <_>
          2 15 12 1 -1.</_>
        <_>
          6 15 4 1 3.</_></rects>
      <tilted>0</tilted></_>
    <_>
      <rects>
        <_>
          3 0 10 3 -1.</_>
        <_>
          3 1 10 1 3.</_></rects>
      <tilted>0</tilted></_>
    <_>
      <rects>
        <_>
          3 4 13 2 -1.</_>
        <_>
          3 5 13 1 2.</_></rects>
      <tilted>0</tilted></_>
    <_>
      <rects>
        <_>
          3 6 7 9 -1.</_>
        <_>
          3 9 7 3 3.</_></rects>
      <tilted>0</tilted></_>
    <_>
      <rects>
        <_>
          3 6 13 3 -1.</_>
        <_>
          3 7 13 1 3.</_></rects>
      <tilted>0</tilted></_>
    <_>
      <rects>
        <_>
          3 6 13 10 -1.</_>
        <_>
          3 11 13 5 2.</_></rects>
      <tilted>0</tilted></_>
    <_>
      <rects>
        <_>
          3 7 2 6 -1.</_>
        <_>
          3 7 1 3 2.</_>
        <_>
          4 10 1 3 2.</_></rects>
      <tilted>0</tilted></_>
    <_>
      <rects>
        <_>
          3 10 8 3 -1.</_>
        <_>
          3 11 8 1 3.</_></rects>
      <tilted>0</tilted></_>
    <_>
      <rects>
        <_>
          3 12 6 3 -1.</_>
        <_>
          3 13 6 1 3.</_></rects>
      <tilted>0</tilted></_>
    <_>
      <rects>
        <_>
          3 12 8 2 -1.</_>
        <_>
          3 13 8 1 2.</_></rects>
      <tilted>0</tilted></_>
    <_>
      <rects>
        <_>
          3 13 11 3 -1.</_>
        <_>
          3 14 11 1 3.</_></rects>
      <tilted>0</tilted></_>
    <_>
      <rects>
        <_>
          4 0 6 6 -1.</_>
        <_>
          4 2 6 2 3.</_></rects>
      <tilted>0</tilted></_>
    <_>
      <rects>
        <_>
          4 0 8 3 -1.</_>
        <_>
          4 1 8 1 3.</_></rects>
      <tilted>0</tilted></_>
    <_>
      <rects>
        <_>
          4 4 10 12 -1.</_>
        <_>
          4 8 10 4 3.</_></rects>
      <tilted>0</tilted></_>
    <_>
      <rects>
        <_>
          4 8 12 7 -1.</_>
        <_>
          8 8 4 7 3.</_></rects>
      <tilted>0</tilted></_>
    <_>
      <rects>
        <_>
          4 10 4 1 -1.</_>
        <_>
          6 10 2 1 2.</_></rects>
      <tilted>0</tilted></_>
    <_>
      <rects>
        <_>
          4 12 12 4 -1.</_>
        <_>
          8 12 4 4 3.</_></rects>
      <tilted>0</tilted></_>
    <_>
      <rects>
        <_>
          4 12 9 3 -1.</_>
        <_>
          4 13 9 1 3.</_></rects>
      <tilted>0</tilted></_>
    <_>
      <rects>
        <_>
          5 0 2 1 -1.</_>
        <_>
          6 0 1 1 2.</_></rects>
      <tilted>0</tilted></_>
    <_>
      <rects>
        <_>
          5 0 4 9 -1.</_>
        <_>
          5 3 4 3 3.</_></rects>
      <tilted>0</tilted></_>
    <_>
      <rects>
        <_>
          5 4 6 8 -1.</_>
        <_>
          5 4 3 4 2.</_>
        <_>
          8 8 3 4 2.</_></rects>
      <tilted>0</tilted></_>
    <_>
      <rects>
        <_>
          5 6 9 6 -1.</_>
        <_>
          5 8 9 2 3.</_></rects>
      <tilted>0</tilted></_>
    <_>
      <rects>
        <_>
          5 8 2 2 -1.</_>
        <_>
          6 8 1 2 2.</_></rects>
      <tilted>0</tilted></_>
    <_>
      <rects>
        <_>
          5 11 6 1 -1.</_>
        <_>
          8 11 3 1 2.</_></rects>
      <tilted>0</tilted></_>
    <_>
      <rects>
        <_>
          5 13 7 3 -1.</_>
        <_>
          5 14 7 1 3.</_></rects>
      <tilted>0</tilted></_>
    <_>
      <rects>
        <_>
          5 13 8 3 -1.</_>
        <_>
          5 14 8 1 3.</_></rects>
      <tilted>0</tilted></_>
    <_>
      <rects>
        <_>
          5 15 9 1 -1.</_>
        <_>
          8 15 3 1 3.</_></rects>
      <tilted>0</tilted></_>
    <_>
      <rects>
        <_>
          6 0 2 1 -1.</_>
        <_>
          7 0 1 1 2.</_></rects>
      <tilted>0</tilted></_>
    <_>
      <rects>
        <_>
          6 3 10 1 -1.</_>
        <_>
          11 3 5 1 2.</_></rects>
      <tilted>0</tilted></_>
    <_>
      <rects>
        <_>
          6 3 10 12 -1.</_>
        <_>
          6 9 10 6 2.</_></rects>
      <tilted>0</tilted></_>
    <_>
      <rects>
        <_>
          6 10 4 2 -1.</_>
        <_>
          6 10 2 1 2.</_>
        <_>
          8 11 2 1 2.</_></rects>
      <tilted>0</tilted></_>
    <_>
      <rects>
        <_>
          6 13 9 3 -1.</_>
        <_>
          6 14 9 1 3.</_></rects>
      <tilted>0</tilted></_>
    <_>
      <rects>
        <_>
          6 15 6 1 -1.</_>
        <_>
          8 15 2 1 3.</_></rects>
      <tilted>0</tilted></_>
    <_>
      <rects>
        <_>
          6 15 6 1 -1.</_>
        <_>
          9 15 3 1 2.</_></rects>
      <tilted>0</tilted></_>
    <_>
      <rects>
        <_>
          7 0 8 3 -1.</_>
        <_>
          7 1 8 1 3.</_></rects>
      <tilted>0</tilted></_>
    <_>
      <rects>
        <_>
          7 2 9 14 -1.</_>
        <_>
          10 2 3 14 3.</_></rects>
      <tilted>0</tilted></_>
    <_>
      <rects>
        <_>
          7 12 9 4 -1.</_>
        <_>
          10 12 3 4 3.</_></rects>
      <tilted>0</tilted></_>
    <_>
      <rects>
        <_>
          7 14 3 1 -1.</_>
        <_>
          8 14 1 1 3.</_></rects>
      <tilted>0</tilted></_>
    <_>
      <rects>
        <_>
          7 14 9 2 -1.</_>
        <_>
          7 15 9 1 2.</_></rects>
      <tilted>0</tilted></_>
    <_>
      <rects>
        <_>
          7 15 2 1 -1.</_>
        <_>
          8 15 1 1 2.</_></rects>
      <tilted>0</tilted></_>
    <_>
      <rects>
        <_>
          8 0 1 2 -1.</_>
        <_>
          8 1 1 1 2.</_></rects>
      <tilted>0</tilted></_>
    <_>
      <rects>
        <_>
          8 9 2 7 -1.</_>
        <_>
          9 9 1 7 2.</_></rects>
      <tilted>0</tilted></_>
    <_>
      <rects>
        <_>
          8 13 6 2 -1.</_>
        <_>
          8 13 3 1 2.</_>
        <_>
          11 14 3 1 2.</_></rects>
      <tilted>0</tilted></_>
    <_>
      <rects>
        <_>
          8 14 1 2 -1.</_>
        <_>
          8 15 1 1 2.</_></rects>
      <tilted>0</tilted></_>
    <_>
      <rects>
        <_>
          8 15 2 1 -1.</_>
        <_>
          9 15 1 1 2.</_></rects>
      <tilted>0</tilted></_>
    <_>
      <rects>
        <_>
          9 0 6 5 -1.</_>
        <_>
          11 0 2 5 3.</_></rects>
      <tilted>0</tilted></_>
    <_>
      <rects>
        <_>
          9 6 6 7 -1.</_>
        <_>
          11 6 2 7 3.</_></rects>
      <tilted>0</tilted></_>
    <_>
      <rects>
        <_>
          9 6 6 10 -1.</_>
        <_>
          11 6 2 10 3.</_></rects>
      <tilted>0</tilted></_>
    <_>
      <rects>
        <_>
          9 9 2 4 -1.</_>
        <_>
          9 9 1 2 2.</_>
        <_>
          10 11 1 2 2.</_></rects>
      <tilted>0</tilted></_>
    <_>
      <rects>
        <_>
          9 11 6 4 -1.</_>
        <_>
          11 11 2 4 3.</_></rects>
      <tilted>0</tilted></_>
    <_>
      <rects>
        <_>
          9 14 3 2 -1.</_>
        <_>
          9 15 3 1 2.</_></rects>
      <tilted>0</tilted></_>
    <_>
      <rects>
        <_>
          9 15 3 1 -1.</_>
        <_>
          10 15 1 1 3.</_></rects>
      <tilted>0</tilted></_>
    <_>
      <rects>
        <_>
          10 1 6 14 -1.</_>
        <_>
          12 1 2 14 3.</_></rects>
      <tilted>0</tilted></_>
    <_>
      <rects>
        <_>
          10 2 6 12 -1.</_>
        <_>
          10 8 6 6 2.</_></rects>
      <tilted>0</tilted></_>
    <_>
      <rects>
        <_>
          10 5 6 4 -1.</_>
        <_>
          12 5 2 4 3.</_></rects>
      <tilted>0</tilted></_>
    <_>
      <rects>
        <_>
          10 6 6 5 -1.</_>
        <_>
          12 6 2 5 3.</_></rects>
      <tilted>0</tilted></_>
    <_>
      <rects>
        <_>
          10 7 3 6 -1.</_>
        <_>
          10 10 3 3 2.</_></rects>
      <tilted>0</tilted></_>
    <_>
      <rects>
        <_>
          10 10 6 2 -1.</_>
        <_>
          12 10 2 2 3.</_></rects>
      <tilted>0</tilted></_>
    <_>
      <rects>
        <_>
          10 11 6 4 -1.</_>
        <_>
          12 11 2 4 3.</_></rects>
      <tilted>0</tilted></_>
    <_>
      <rects>
        <_>
          10 12 6 1 -1.</_>
        <_>
          12 12 2 1 3.</_></rects>
      <tilted>0</tilted></_>
    <_>
      <rects>
        <_>
          10 14 6 2 -1.</_>
        <_>
          13 14 3 2 2.</_></rects>
      <tilted>0</tilted></_>
    <_>
      <rects>
        <_>
          11 1 5 9 -1.</_>
        <_>
          11 4 5 3 3.</_></rects>
      <tilted>0</tilted></_>
    <_>
      <rects>
        <_>
          11 4 3 11 -1.</_>
        <_>
          12 4 1 11 3.</_></rects>
      <tilted>0</tilted></_>
    <_>
      <rects>
        <_>
          11 4 4 12 -1.</_>
        <_>
          11 10 4 6 2.</_></rects>
      <tilted>0</tilted></_>
    <_>
      <rects>
        <_>
          12 1 4 14 -1.</_>
        <_>
          14 1 2 14 2.</_></rects>
      <tilted>0</tilted></_>
    <_>
      <rects>
        <_>
          12 2 3 2 -1.</_>
        <_>
          13 2 1 2 3.</_></rects>
      <tilted>0</tilted></_>
    <_>
      <rects>
        <_>
          12 2 3 9 -1.</_>
        <_>
          12 5 3 3 3.</_></rects>
      <tilted>0</tilted></_>
    <_>
      <rects>
        <_>
          12 8 4 6 -1.</_>
        <_>
          12 8 2 3 2.</_>
        <_>
          14 11 2 3 2.</_></rects>
      <tilted>0</tilted></_>
    <_>
      <rects>
        <_>
          12 12 3 2 -1.</_>
        <_>
          13 12 1 2 3.</_></rects>
      <tilted>0</tilted></_>
    <_>
      <rects>
        <_>
          12 15 4 1 -1.</_>
        <_>
          14 15 2 1 2.</_></rects>
      <tilted>0</tilted></_>
    <_>
      <rects>
        <_>
          13 2 3 14 -1.</_>
        <_>
          14 2 1 14 3.</_></rects>
      <tilted>0</tilted></_>
    <_>
      <rects>
        <_>
          13 10 2 1 -1.</_>
        <_>
          14 10 1 1 2.</_></rects>
      <tilted>0</tilted></_>
    <_>
      <rects>
        <_>
          13 11 3 4 -1.</_>
        <_>
          14 11 1 4 3.</_></rects>
      <tilted>0</tilted></_>
    <_>
      <rects>
        <_>
          14 2 2 6 -1.</_>
        <_>
          14 2 1 3 2.</_>
        <_>
          15 5 1 3 2.</_></rects>
      <tilted>0</tilted></_>
    <_>
      <rects>
        <_>
          14 2 2 14 -1.</_>
        <_>
          14 2 1 7 2.</_>
        <_>
          15 9 1 7 2.</_></rects>
      <tilted>0</tilted></_>
    <_>
      <rects>
        <_>
          14 3 2 10 -1.</_>
        <_>
          15 3 1 10 2.</_></rects>
      <tilted>0</tilted></_>
    <_>
      <rects>
        <_>
          14 8 2 8 -1.</_>
        <_>
          15 8 1 8 2.</_></rects>
      <tilted>0</tilted></_>
    <_>
      <rects>
        <_>
          14 9 2 1 -1.</_>
        <_>
          15 9 1 1 2.</_></rects>
      <tilted>0</tilted></_>
    <_>
      <rects>
        <_>
          14 10 2 6 -1.</_>
        <_>
          15 10 1 6 2.</_></rects>
      <tilted>0</tilted></_></features></cascade>
</opencv_storage>
