<?xml version="1.0"?>
<opencv_storage>
<cascade>
  <stageType>BOOST</stageType>
  <featureType>HAAR</featureType>
  <height>16</height>
  <width>16</width>
  <stageParams>
    <boostType>GAB</boostType>
    <minHitRate>9.9500000476837158e-01</minHitRate>
    <maxFalseAlarm>5.0000000000000000e-01</maxFalseAlarm>
    <weightTrimRate>9.4999999999999996e-01</weightTrimRate>
    <maxDepth>1</maxDepth>
    <maxWeakCount>100</maxWeakCount></stageParams>
  <featureParams>
    <maxCatCount>0</maxCatCount>
    <featSize>1</featSize>
    <mode>BASIC</mode></featureParams>
  <stageNum>8</stageNum>
  <stages>
    <!-- stage 0 -->
    <_>
      <maxWeakCount>6</maxWeakCount>
      <stageThreshold>-1.4113336801528931e+00</stageThreshold>
      <weakClassifiers>
        <_>
          <internalNodes>
            0 -1 22 -4.7794356942176819e-02</internalNodes>
          <leafValues>
            5.1269036531448364e-01 -7.4083131551742554e-01</leafValues></_>
        <_>
          <internalNodes>
            0 -1 69 8.8329277932643890e-03</internalNodes>
          <leafValues>
            -3.9997613430023193e-01 6.4565801620483398e-01</leafValues></_>
        <_>
          <internalNodes>
            0 -1 30 3.1175008043646812e-03</internalNodes>
          <leafValues>
            -4.8097321391105652e-01 4.8006036877632141e-01</leafValues></_>
        <_>
          <internalNodes>
            0 -1 5 -3.0742846429347992e-02</internalNodes>
          <leafValues>
            4.7897309064865112e-01 -3.5378861427307129e-01</leafValues></_>
        <_>
          <internalNodes>
            0 -1 18 -3.3512312918901443e-02</internalNodes>
          <leafValues>
            6.3754051923751831e-01 -2.6753488183021545e-01</leafValues></_>
        <_>
          <internalNodes>
            0 -1 50 7.6614022254943848e-03</internalNodes>
          <leafValues>
            -2.1386364102363586e-01 6.8962526321411133e-01</leafValues></_></weakClassifiers></_>
    <!-- stage 1 -->
    <_>
      <maxWeakCount>11</maxWeakCount>
      <stageThreshold>-1.3467922210693359e+00</stageThreshold>
      <weakClassifiers>
        <_>
          <internalNodes>
            0 -1 19 2.1462652832269669e-02</internalNodes>
          <leafValues>
            -3.5249620676040649e-01 6.8731564283370972e-01</leafValues></_>
        <_>
          <internalNodes>
            0 -1 64 -2.8577189892530441e-02</internalNodes>
          <leafValues>
            8.4377282857894897e-01 -2.2793897986412048e-01</leafValues></_>
        <_>
          <internalNodes>
            0 -1 15 -6.7863455042243004e-03</internalNodes>
          <leafValues>
            8.1647896766662598e-01 -1.9702345132827759e-01</leafValues></_>
        <_>
          <internalNodes>
            0 -1 7 -4.5374892652034760e-02</internalNodes>
          <leafValues>
            5.0258404016494751e-01 -2.8577166795730591e-01</leafValues></_>
        <_>
          <internalNodes>
            0 -1 34 -3.6833975464105606e-03</internalNodes>
          <leafValues>
            3.4119129180908203e-01 -5.3899323940277100e-01</leafValues></_>
        <_>
          <internalNodes>
            0 -1 27 4.2189531028270721e-02</internalNodes>
          <leafValues>
            -1.9885244965553284e-01 7.9514139890670776e-01</leafValues></_>
        <_>
          <internalNodes>
            0 -1 73 -2.7698227204382420e-03</internalNodes>
          <leafValues>
            5.8199745416641235e-01 -2.1435078978538513e-01</leafValues></_>
        <_>
          <internalNodes>
            0 -1 20 2.5342027656733990e-03</internalNodes>
          <leafValues>
            2.4204617738723755e-01 -6.3640475273132324e-01</leafValues></_>
        <_>
          <internalNodes>
            0 -1 29 -1.9896579906344414e-02</internalNodes>
          <leafValues>
            4.5088520646095276e-01 -2.9709783196449280e-01</leafValues></_>
        <_>
          <internalNodes>
            0 -1 33 -2.3895338177680969e-02</internalNodes>
          <leafValues>
            6.3618391752243042e-01 -1.8424107134342194e-01</leafValues></_>
        <_>
          <internalNodes>
            0 -1 68 -1.5482862479984760e-02</internalNodes>
          <leafValues>
            8.0275464057922363e-01 -1.3361823558807373e-01</leafValues></_></weakClassifiers></_>
    <!-- stage 2 -->
    <_>
      <maxWeakCount>7</maxWeakCount>
      <stageThreshold>-1.1492054462432861e+00</stageThreshold>
      <weakClassifiers>
        <_>
          <internalNodes>
            0 -1 31 9.5584208611398935e-04</internalNodes>
          <leafValues>
            -6.2820512056350708e-01 5.5263155698776245e-01</leafValues></_>
        <_>
          <internalNodes>
            0 -1 75 1.2121198233217001e-03</internalNodes>
          <leafValues>
            -4.1633111238479614e-01 5.0208050012588501e-01</leafValues></_>
        <_>
          <internalNodes>
            0 -1 4 -6.2348850071430206e-02</internalNodes>
          <leafValues>
            6.5663433074951172e-01 -2.2060765326023102e-01</leafValues></_>
        <_>
          <internalNodes>
            0 -1 41 -3.0745364725589752e-02</internalNodes>
          <leafValues>
            7.4436503648757935e-01 -1.9988545775413513e-01</leafValues></_>
        <_>
          <internalNodes>
            0 -1 28 -2.1516424603760242e-03</internalNodes>
          <leafValues>
            3.9507743716239929e-01 -5.3867089748382568e-01</leafValues></_>
        <_>
          <internalNodes>
            0 -1 54 3.2125297933816910e-02</internalNodes>
          <leafValues>
            2.4631309509277344e-01 -8.4627729654312134e-01</leafValues></_>
        <_>
          <internalNodes>
            0 -1 8 4.3682609684765339e-03</internalNodes>
          <leafValues>
            -3.2556667923927307e-01 6.0372108221054077e-01</leafValues></_></weakClassifiers></_>
    <!-- stage 3 -->
    <_>
      <maxWeakCount>11</maxWeakCount>
      <stageThreshold>-1.0662496089935303e+00</stageThreshold>
      <weakClassifiers>
        <_>
          <internalNodes>
            0 -1 80 9.0757329016923904e-03</internalNodes>
          <leafValues>
            -2.4147339165210724e-01 6.6292136907577515e-01</leafValues></_>
        <_>
          <internalNodes>
            0 -1 21 1.2353220023214817e-02</internalNodes>
          <leafValues>
            2.1826595067977905e-01 -6.8672311305999756e-01</leafValues></_>
        <_>
          <internalNodes>
            0 -1 52 9.4369947910308838e-03</internalNodes>
          <leafValues>
            -3.1039324402809143e-01 4.8162963986396790e-01</leafValues></_>
        <_>
          <internalNodes>
            0 -1 16 -4.7971396706998348e-03</internalNodes>
          <leafValues>
            6.2149167060852051e-01 -2.3237867653369904e-01</leafValues></_>
        <_>
          <internalNodes>
            0 -1 53 -1.5693608671426773e-02</internalNodes>
          <leafValues>
            5.3782898187637329e-01 -1.6433259844779968e-01</leafValues></_>
        <_>
          <internalNodes>
            0 -1 32 -2.3071702569723129e-02</internalNodes>
          <leafValues>
            -6.7934918403625488e-01 1.7567564547061920e-01</leafValues></_>
        <_>
          <internalNodes>
            0 -1 49 -3.1685885041952133e-02</internalNodes>
          <leafValues>
            5.9490853548049927e-01 -2.1562135219573975e-01</leafValues></_>
        <_>
          <internalNodes>
            0 -1 63 1.6067286953330040e-02</internalNodes>
          <leafValues>
            1.4829105138778687e-01 -8.7373703718185425e-01</leafValues></_>
        <_>
          <internalNodes>
            0 -1 6 -8.2200884819030762e-02</internalNodes>
          <leafValues>
            6.9557130336761475e-01 -2.1994142234325409e-01</leafValues></_>
        <_>
          <internalNodes>
            0 -1 44 1.3270408846437931e-02</internalNodes>
          <leafValues>
            1.9745738804340363e-01 -8.6151295900344849e-01</leafValues></_>
        <_>
          <internalNodes>
            0 -1 77 -2.9905450064688921e-03</internalNodes>
          <leafValues>
            4.5056304335594177e-01 -2.7945941686630249e-01</leafValues></_></weakClassifiers></_>
    <!-- stage 4 -->
    <_>
      <maxWeakCount>12</maxWeakCount>
      <stageThreshold>-9.7533488273620605e-01</stageThreshold>
      <weakClassifiers>
        <_>
          <internalNodes>
            0 -1 66 4.4206827878952026e-03</internalNodes>
          <leafValues>
            -3.2006633281707764e-01 4.8614609241485596e-01</leafValues></_>
        <_>
          <internalNodes>
            0 -1 10 -1.8623985350131989e-02</internalNodes>
          <leafValues>
            5.3024601936340332e-01 -2.6890236139297485e-01</leafValues></_>
        <_>
          <internalNodes>
            0 -1 79 7.5510451570153236e-03</internalNodes>
          <leafValues>
            -1.9575367867946625e-01 6.2059408426284790e-01</leafValues></_>
        <_>
          <internalNodes>
            0 -1 43 2.1202372387051582e-02</internalNodes>
          <leafValues>
            -2.2599968314170837e-01 5.6430226564407349e-01</leafValues></_>
        <_>
          <internalNodes>
            0 -1 40 1.6557252034544945e-02</internalNodes>
          <leafValues>
            -1.8028362095355988e-01 6.2289744615554810e-01</leafValues></_>
        <_>
          <internalNodes>
            0 -1 76 -1.0708155110478401e-02</internalNodes>
          <leafValues>
            6.3876861333847046e-01 -1.5655595064163208e-01</leafValues></_>
        <_>
          <internalNodes>
            0 -1 36 -2.2253606468439102e-02</internalNodes>
          <leafValues>
            6.6130155324935913e-01 -1.0562296211719513e-01</leafValues></_>
        <_>
          <internalNodes>
            0 -1 47 -7.1920696645975113e-03</internalNodes>
          <leafValues>
            4.3661069869995117e-01 -2.1954791247844696e-01</leafValues></_>
        <_>
          <internalNodes>
            0 -1 48 4.0289210155606270e-03</internalNodes>
          <leafValues>
            2.3041030764579773e-01 -4.4585621356964111e-01</leafValues></_>
        <_>
          <internalNodes>
            0 -1 2 3.0365150421857834e-02</internalNodes>
          <leafValues>
            -1.5248732268810272e-01 7.6873505115509033e-01</leafValues></_>
        <_>
          <internalNodes>
            0 -1 70 4.2645420762710273e-04</internalNodes>
          <leafValues>
            -3.8862952589988708e-01 3.3170920610427856e-01</leafValues></_>
        <_>
          <internalNodes>
            0 -1 14 -1.6746003180742264e-02</internalNodes>
          <leafValues>
            2.1780222654342651e-01 -4.6611317992210388e-01</leafValues></_></weakClassifiers></_>
    <!-- stage 5 -->
    <_>
      <maxWeakCount>14</maxWeakCount>
      <stageThreshold>-1.0630270242691040e+00</stageThreshold>
      <weakClassifiers>
        <_>
          <internalNodes>
            0 -1 13 -7.1751857176423073e-03</internalNodes>
          <leafValues>
            6.8821293115615845e-01 -2.4559022486209869e-01</leafValues></_>
        <_>
          <internalNodes>
            0 -1 62 3.8176901638507843e-02</internalNodes>
          <leafValues>
            -1.7381304502487183e-01 6.9662618637084961e-01</leafValues></_>
        <_>
          <internalNodes>
            0 -1 46 5.3151203319430351e-03</internalNodes>
          <leafValues>
            -3.1535214185714722e-01 4.0988454222679138e-01</leafValues></_>
        <_>
          <internalNodes>
            0 -1 35 -1.6821172088384628e-02</internalNodes>
          <leafValues>
            -6.4371812343597412e-01 1.8665930628776550e-01</leafValues></_>
        <_>
          <internalNodes>
            0 -1 9 -1.7249805852770805e-02</internalNodes>
          <leafValues>
            6.1526024341583252e-01 -1.6878721117973328e-01</leafValues></_>
        <_>
          <internalNodes>
            0 -1 61 9.5303251873701811e-04</internalNodes>
          <leafValues>
            -2.3689828813076019e-01 4.8054388165473938e-01</leafValues></_>
        <_>
          <internalNodes>
            0 -1 78 -1.1816781945526600e-02</internalNodes>
          <leafValues>
            -7.8094846010208130e-01 1.2091092765331268e-01</leafValues></_>
        <_>
          <internalNodes>
            0 -1 55 -3.7891934625804424e-03</internalNodes>
          <leafValues>
            -6.6230630874633789e-01 1.7448191344738007e-01</leafValues></_>
        <_>
          <internalNodes>
            0 -1 25 5.5959234014153481e-03</internalNodes>
          <leafValues>
            -3.3414718508720398e-01 3.9549714326858521e-01</leafValues></_>
        <_>
          <internalNodes>
            0 -1 56 -1.8461879342794418e-02</internalNodes>
          <leafValues>
            -6.8528449535369873e-01 1.9572098553180695e-01</leafValues></_>
        <_>
          <internalNodes>
            0 -1 71 4.5806621201336384e-03</internalNodes>
          <leafValues>
            -1.8743093311786652e-01 6.3455021381378174e-01</leafValues></_>
        <_>
          <internalNodes>
            0 -1 74 6.8497995380312204e-04</internalNodes>
          <leafValues>
            -2.2323624789714813e-01 4.4502294063568115e-01</leafValues></_>
        <_>
          <internalNodes>
            0 -1 72 -1.1288765817880630e-03</internalNodes>
          <leafValues>
            4.6526953577995300e-01 -2.4618099629878998e-01</leafValues></_>
        <_>
          <internalNodes>
            0 -1 11 -6.6956859081983566e-03</internalNodes>
          <leafValues>
            4.1948038339614868e-01 -2.5426605343818665e-01</leafValues></_></weakClassifiers></_>
    <!-- stage 6 -->
    <_>
      <maxWeakCount>13</maxWeakCount>
      <stageThreshold>-1.0662561655044556e+00</stageThreshold>
      <weakClassifiers>
        <_>
          <internalNodes>
            0 -1 12 -4.8505859449505806e-03</internalNodes>
          <leafValues>
            6.4492756128311157e-01 -2.4585635960102081e-01</leafValues></_>
        <_>
          <internalNodes>
            0 -1 23 -3.8411282002925873e-03</internalNodes>
          <leafValues>
            6.9980394840240479e-01 -1.8839992582798004e-01</leafValues></_>
        <_>
          <internalNodes>
            0 -1 24 -3.0385181307792664e-03</internalNodes>
          <leafValues>
            6.7803043127059937e-01 -2.1894420683383942e-01</leafValues></_>
        <_>
          <internalNodes>
            0 -1 42 -1.3299874030053616e-02</internalNodes>
          <leafValues>
            -6.3628834486007690e-01 2.4908609688282013e-01</leafValues></_>
        <_>
          <internalNodes>
            0 -1 65 -2.6166946627199650e-03</internalNodes>
          <leafValues>
            7.7296411991119385e-01 -1.8361739814281464e-01</leafValues></_>
        <_>
          <internalNodes>
            0 -1 45 3.5128286108374596e-03</internalNodes>
          <leafValues>
            -2.7144306898117065e-01 5.0487440824508667e-01</leafValues></_>
        <_>
          <internalNodes>
            0 -1 0 6.8162623792886734e-03</internalNodes>
          <leafValues>
            -2.4179688096046448e-01 6.9328743219375610e-01</leafValues></_>
        <_>
          <internalNodes>
            0 -1 39 8.6359912529587746e-04</internalNodes>
          <leafValues>
            -2.5353777408599854e-01 5.2710467576980591e-01</leafValues></_>
        <_>
          <internalNodes>
            0 -1 60 1.0589404031634331e-02</internalNodes>
          <leafValues>
            1.9641697406768799e-01 -8.9539396762847900e-01</leafValues></_>
        <_>
          <internalNodes>
            0 -1 59 -2.7122521772980690e-02</internalNodes>
          <leafValues>
            7.6719117164611816e-01 -2.8587096929550171e-01</leafValues></_>
        <_>
          <internalNodes>
            0 -1 26 9.6850134432315826e-03</internalNodes>
          <leafValues>
            -2.2452697157859802e-01 6.2959861755371094e-01</leafValues></_>
        <_>
          <internalNodes>
            0 -1 81 1.0385490022599697e-03</internalNodes>
          <leafValues>
            -1.5838633477687836e-01 7.2164297103881836e-01</leafValues></_>
        <_>
          <internalNodes>
            0 -1 3 -1.9611032679677010e-02</internalNodes>
          <leafValues>
            1. -9.3504972755908966e-02</leafValues></_></weakClassifiers></_>
    <!-- stage 7 -->
    <_>
      <maxWeakCount>8</maxWeakCount>
      <stageThreshold>-1.0911618471145630e+00</stageThreshold>
      <weakClassifiers>
        <_>
          <internalNodes>
            0 -1 51 1.8387380987405777e-03</internalNodes>
          <leafValues>
            -4.1176471114158630e-01 6.4948451519012451e-01</leafValues></_>
        <_>
          <internalNodes>
            0 -1 37 2.5906320661306381e-03</internalNodes>
          <leafValues>
            -3.7009024620056152e-01 7.6856565475463867e-01</leafValues></_>
        <_>
          <internalNodes>
            0 -1 58 3.6471970379352570e-03</internalNodes>
          <leafValues>
            3.4378287196159363e-01 -7.9187273979187012e-01</leafValues></_>
        <_>
          <internalNodes>
            0 -1 67 -6.1968027148395777e-04</internalNodes>
          <leafValues>
            7.9018878936767578e-01 -3.6898434162139893e-01</leafValues></_>
        <_>
          <internalNodes>
            0 -1 1 3.4599951468408108e-03</internalNodes>
          <leafValues>
            5.9388881921768188e-01 -4.3099436163902283e-01</leafValues></_>
        <_>
          <internalNodes>
            0 -1 57 7.0169940590858459e-03</internalNodes>
          <leafValues>
            -4.5104813575744629e-01 7.0328521728515625e-01</leafValues></_>
        <_>
          <internalNodes>
            0 -1 17 -1.1203059693798423e-03</internalNodes>
          <leafValues>
            9.3272233009338379e-01 -2.1505120396614075e-01</leafValues></_>
        <_>
          <internalNodes>
            0 -1 38 2.0740926265716553e-03</internalNodes>
          <leafValues>
            -2.4826103448867798e-01 9.3055415153503418e-01</leafValues></_></weakClassifiers></_></stages>
  <features>
    <_>
      <rects>
        <_>
          0 0 2 12 -1.</_>
        <_>
          1 0 1 12 2.</_></rects>
      <tilted>0</tilted></_>
    <_>
      <rects>
        <_>
          0 1 2 3 -1.</_>
        <_>
          0 2 2 1 3.</_></rects>
      <tilted>0</tilted></_>
    <_>
      <rects>
        <_>
          0 1 4 5 -1.</_>
        <_>
          2 1 2 5 2.</_></rects>
      <tilted>0</tilted></_>
    <_>
      <rects>
        <_>
          0 2 9 1 -1.</_>
        <_>
          3 2 3 1 3.</_></rects>
      <tilted>0</tilted></_>
    <_>
      <rects>
        <_>
          0 2 9 12 -1.</_>
        <_>
          3 2 3 12 3.</_></rects>
      <tilted>0</tilted></_>
    <_>
      <rects>
        <_>
          0 2 15 3 -1.</_>
        <_>
          5 2 5 3 3.</_></rects>
      <tilted>0</tilted></_>
    <_>
      <rects>
        <_>
          0 3 9 10 -1.</_>
        <_>
          3 3 3 10 3.</_></rects>
      <tilted>0</tilted></_>
    <_>
      <rects>
        <_>
          0 3 15 4 -1.</_>
        <_>
          5 3 5 4 3.</_></rects>
      <tilted>0</tilted></_>
    <_>
      <rects>
        <_>
          0 4 2 4 -1.</_>
        <_>
          1 4 1 4 2.</_></rects>
      <tilted>0</tilted></_>
    <_>
      <rects>
        <_>
          0 4 4 12 -1.</_>
        <_>
          0 4 2 6 2.</_>
        <_>
          2 10 2 6 2.</_></rects>
      <tilted>0</tilted></_>
    <_>
      <rects>
        <_>
          0 5 6 9 -1.</_>
        <_>
          2 5 2 9 3.</_></rects>
      <tilted>0</tilted></_>
    <_>
      <rects>
        <_>
          0 7 4 5 -1.</_>
        <_>
          2 7 2 5 2.</_></rects>
      <tilted>0</tilted></_>
    <_>
      <rects>
        <_>
          0 8 3 6 -1.</_>
        <_>
          1 8 1 6 3.</_></rects>
      <tilted>0</tilted></_>
    <_>
      <rects>
        <_>
          0 8 3 8 -1.</_>
        <_>
          1 8 1 8 3.</_></rects>
      <tilted>0</tilted></_>
    <_>
      <rects>
        <_>
          0 10 16 6 -1.</_>
        <_>
          0 12 16 2 3.</_></rects>
      <tilted>0</tilted></_>
    <_>
      <rects>
        <_>
          0 11 3 5 -1.</_>
        <_>
          1 11 1 5 3.</_></rects>
      <tilted>0</tilted></_>
    <_>
      <rects>
        <_>
          0 12 3 3 -1.</_>
        <_>
          1 12 1 3 3.</_></rects>
      <tilted>0</tilted></_>
    <_>
      <rects>
        <_>
          0 13 3 1 -1.</_>
        <_>
          1 13 1 1 3.</_></rects>
      <tilted>0</tilted></_>
    <_>
      <rects>
        <_>
          0 13 16 3 -1.</_>
        <_>
          0 14 16 1 3.</_></rects>
      <tilted>0</tilted></_>
    <_>
      <rects>
        <_>
          0 14 15 2 -1.</_>
        <_>
          0 15 15 1 2.</_></rects>
      <tilted>0</tilted></_>
    <_>
      <rects>
        <_>
          0 15 6 1 -1.</_>
        <_>
          3 15 3 1 2.</_></rects>
      <tilted>0</tilted></_>
    <_>
      <rects>
        <_>
          1 1 4 14 -1.</_>
        <_>
          1 8 4 7 2.</_></rects>
      <tilted>0</tilted></_>
    <_>
      <rects>
        <_>
          1 1 14 14 -1.</_>
        <_>
          1 8 14 7 2.</_></rects>
      <tilted>0</tilted></_>
    <_>
      <rects>
        <_>
          1 2 3 4 -1.</_>
        <_>
          2 2 1 4 3.</_></rects>
      <tilted>0</tilted></_>
    <_>
      <rects>
        <_>
          1 12 3 3 -1.</_>
        <_>
          2 12 1 3 3.</_></rects>
      <tilted>0</tilted></_>
    <_>
      <rects>
        <_>
          1 12 12 3 -1.</_>
        <_>
          5 12 4 3 3.</_></rects>
      <tilted>0</tilted></_>
    <_>
      <rects>
        <_>
          1 12 11 3 -1.</_>
        <_>
          1 13 11 1 3.</_></rects>
      <tilted>0</tilted></_>
    <_>
      <rects>
        <_>
          1 13 13 3 -1.</_>
        <_>
          1 14 13 1 3.</_></rects>
      <tilted>0</tilted></_>
    <_>
      <rects>
        <_>
          1 15 15 1 -1.</_>
        <_>
          6 15 5 1 3.</_></rects>
      <tilted>0</tilted></_>
    <_>
      <rects>
        <_>
          2 11 11 3 -1.</_>
        <_>
          2 12 11 1 3.</_></rects>
      <tilted>0</tilted></_>
    <_>
      <rects>
        <_>
          2 12 2 4 -1.</_>
        <_>
          2 14 2 2 2.</_></rects>
      <tilted>0</tilted></_>
    <_>
      <rects>
        <_>
          2 12 3 4 -1.</_>
        <_>
          2 14 3 2 2.</_></rects>
      <tilted>0</tilted></_>
    <_>
      <rects>
        <_>
          2 13 14 3 -1.</_>
        <_>
          9 13 7 3 2.</_></rects>
      <tilted>0</tilted></_>
    <_>
      <rects>
        <_>
          2 13 12 3 -1.</_>
        <_>
          2 14 12 1 3.</_></rects>
      <tilted>0</tilted></_>
    <_>
      <rects>
        <_>
          3 5 1 8 -1.</_>
        <_>
          3 9 1 4 2.</_></rects>
      <tilted>0</tilted></_>
    <_>
      <rects>
        <_>
          3 8 6 7 -1.</_>
        <_>
          6 8 3 7 2.</_></rects>
      <tilted>0</tilted></_>
    <_>
      <rects>
        <_>
          3 10 7 3 -1.</_>
        <_>
          3 11 7 1 3.</_></rects>
      <tilted>0</tilted></_>
    <_>
      <rects>
        <_>
          4 4 4 9 -1.</_>
        <_>
          6 4 2 9 2.</_></rects>
      <tilted>0</tilted></_>
    <_>
      <rects>
        <_>
          4 8 2 8 -1.</_>
        <_>
          5 8 1 8 2.</_></rects>
      <tilted>0</tilted></_>
    <_>
      <rects>
        <_>
          4 10 2 6 -1.</_>
        <_>
          5 10 1 6 2.</_></rects>
      <tilted>0</tilted></_>
    <_>
      <rects>
        <_>
          4 12 8 3 -1.</_>
        <_>
          4 13 8 1 3.</_></rects>
      <tilted>0</tilted></_>
    <_>
      <rects>
        <_>
          4 12 10 3 -1.</_>
        <_>
          4 13 10 1 3.</_></rects>
      <tilted>0</tilted></_>
    <_>
      <rects>
        <_>
          4 13 12 3 -1.</_>
        <_>
          10 13 6 3 2.</_></rects>
      <tilted>0</tilted></_>
    <_>
      <rects>
        <_>
          4 13 12 3 -1.</_>
        <_>
          4 14 12 1 3.</_></rects>
      <tilted>0</tilted></_>
    <_>
      <rects>
        <_>
          4 14 8 2 -1.</_>
        <_>
          8 14 4 2 2.</_></rects>
      <tilted>0</tilted></_>
    <_>
      <rects>
        <_>
          4 14 5 2 -1.</_>
        <_>
          4 15 5 1 2.</_></rects>
      <tilted>0</tilted></_>
    <_>
      <rects>
        <_>
          4 14 7 2 -1.</_>
        <_>
          4 15 7 1 2.</_></rects>
      <tilted>0</tilted></_>
    <_>
      <rects>
        <_>
          5 0 1 6 -1.</_>
        <_>
          5 2 1 2 3.</_></rects>
      <tilted>0</tilted></_>
    <_>
      <rects>
        <_>
          5 11 8 2 -1.</_>
        <_>
          9 11 4 2 2.</_></rects>
      <tilted>0</tilted></_>
    <_>
      <rects>
        <_>
          5 12 8 3 -1.</_>
        <_>
          5 13 8 1 3.</_></rects>
      <tilted>0</tilted></_>
    <_>
      <rects>
        <_>
          5 13 7 3 -1.</_>
        <_>
          5 14 7 1 3.</_></rects>
      <tilted>0</tilted></_>
    <_>
      <rects>
        <_>
          5 14 4 2 -1.</_>
        <_>
          5 15 4 1 2.</_></rects>
      <tilted>0</tilted></_>
    <_>
      <rects>
        <_>
          5 14 7 2 -1.</_>
        <_>
          5 15 7 1 2.</_></rects>
      <tilted>0</tilted></_>
    <_>
      <rects>
        <_>
          6 11 6 3 -1.</_>
        <_>
          6 12 6 1 3.</_></rects>
      <tilted>0</tilted></_>
    <_>
      <rects>
        <_>
          6 13 8 3 -1.</_>
        <_>
          10 13 4 3 2.</_></rects>
      <tilted>0</tilted></_>
    <_>
      <rects>
        <_>
          6 15 6 1 -1.</_>
        <_>
          9 15 3 1 2.</_></rects>
      <tilted>0</tilted></_>
    <_>
      <rects>
        <_>
          7 0 4 6 -1.</_>
        <_>
          9 0 2 6 2.</_></rects>
      <tilted>0</tilted></_>
    <_>
      <rects>
        <_>
          7 0 8 4 -1.</_>
        <_>
          7 0 4 2 2.</_>
        <_>
          11 2 4 2 2.</_></rects>
      <tilted>0</tilted></_>
    <_>
      <rects>
        <_>
          7 4 2 2 -1.</_>
        <_>
          7 4 1 1 2.</_>
        <_>
          8 5 1 1 2.</_></rects>
      <tilted>0</tilted></_>
    <_>
      <rects>
        <_>
          7 8 9 4 -1.</_>
        <_>
          10 8 3 4 3.</_></rects>
      <tilted>0</tilted></_>
    <_>
      <rects>
        <_>
          7 15 6 1 -1.</_>
        <_>
          10 15 3 1 2.</_></rects>
      <tilted>0</tilted></_>
    <_>
      <rects>
        <_>
          8 5 1 2 -1.</_>
        <_>
          8 6 1 1 2.</_></rects>
      <tilted>0</tilted></_>
    <_>
      <rects>
        <_>
          10 4 6 6 -1.</_>
        <_>
          13 4 3 6 2.</_></rects>
      <tilted>0</tilted></_>
    <_>
      <rects>
        <_>
          10 5 3 8 -1.</_>
        <_>
          10 9 3 4 2.</_></rects>
      <tilted>0</tilted></_>
    <_>
      <rects>
        <_>
          10 7 6 9 -1.</_>
        <_>
          12 7 2 9 3.</_></rects>
      <tilted>0</tilted></_>
    <_>
      <rects>
        <_>
          11 4 3 1 -1.</_>
        <_>
          12 4 1 1 3.</_></rects>
      <tilted>0</tilted></_>
    <_>
      <rects>
        <_>
          11 14 3 2 -1.</_>
        <_>
          11 15 3 1 2.</_></rects>
      <tilted>0</tilted></_>
    <_>
      <rects>
        <_>
          12 5 3 2 -1.</_>
        <_>
          13 5 1 2 3.</_></rects>
      <tilted>0</tilted></_>
    <_>
      <rects>
        <_>
          12 5 4 4 -1.</_>
        <_>
          14 5 2 4 2.</_></rects>
      <tilted>0</tilted></_>
    <_>
      <rects>
        <_>
          12 10 4 6 -1.</_>
        <_>
          14 10 2 6 2.</_></rects>
      <tilted>0</tilted></_>
    <_>
      <rects>
        <_>
          12 15 4 1 -1.</_>
        <_>
          14 15 2 1 2.</_></rects>
      <tilted>0</tilted></_>
    <_>
      <rects>
        <_>
          13 2 3 2 -1.</_>
        <_>
          14 2 1 2 3.</_></rects>
      <tilted>0</tilted></_>
    <_>
      <rects>
        <_>
          13 7 2 7 -1.</_>
        <_>
          14 7 1 7 2.</_></rects>
      <tilted>0</tilted></_>
    <_>
      <rects>
        <_>
          13 11 3 5 -1.</_>
        <_>
          14 11 1 5 3.</_></rects>
      <tilted>0</tilted></_>
    <_>
      <rects>
        <_>
          13 12 2 1 -1.</_>
        <_>
          14 12 1 1 2.</_></rects>
      <tilted>0</tilted></_>
    <_>
      <rects>
        <_>
          13 14 2 2 -1.</_>
        <_>
          13 15 2 1 2.</_></rects>
      <tilted>0</tilted></_>
    <_>
      <rects>
        <_>
          14 1 2 11 -1.</_>
        <_>
          15 1 1 11 2.</_></rects>
      <tilted>0</tilted></_>
    <_>
      <rects>
        <_>
          14 2 2 3 -1.</_>
        <_>
          15 2 1 3 2.</_></rects>
      <tilted>0</tilted></_>
    <_>
      <rects>
        <_>
          14 7 1 4 -1.</_>
        <_>
          14 9 1 2 2.</_></rects>
      <tilted>0</tilted></_>
    <_>
      <rects>
        <_>
          14 7 2 7 -1.</_>
        <_>
          15 7 1 7 2.</_></rects>
      <tilted>0</tilted></_>
    <_>
      <rects>
        <_>
          14 7 2 9 -1.</_>
        <_>
          15 7 1 9 2.</_></rects>
      <tilted>0</tilted></_>
    <_>
      <rects>
        <_>
          14 8 2 2 -1.</_>
        <_>
          14 8 1 1 2.</_>
        <_>
          15 9 1 1 2.</_></rects>
      <tilted>0</tilted></_></features></cascade>
</opencv_storage>
