<?xml version="1.0"?>
<opencv_storage>
<cascade>
  <stageType>BOOST</stageType>
  <featureType>HAAR</featureType>
  <height>16</height>
  <width>16</width>
  <stageParams>
    <boostType>GAB</boostType>
    <minHitRate>9.9500000476837158e-01</minHitRate>
    <maxFalseAlarm>5.0000000000000000e-01</maxFalseAlarm>
    <weightTrimRate>9.4999999999999996e-01</weightTrimRate>
    <maxDepth>1</maxDepth>
    <maxWeakCount>100</maxWeakCount></stageParams>
  <featureParams>
    <maxCatCount>0</maxCatCount>
    <featSize>1</featSize>
    <mode>ALL</mode></featureParams>
  <stageNum>8</stageNum>
  <stages>
    <!-- stage 0 -->
    <_>
      <maxWeakCount>3</maxWeakCount>
      <stageThreshold>-6.6805195808410645e-01</stageThreshold>
      <weakClassifiers>
        <_>
          <internalNodes>
            0 -1 9 -2.1308347582817078e-01</internalNodes>
          <leafValues>
            3.9344263076782227e-01 -8.3146065473556519e-01</leafValues></_>
        <_>
          <internalNodes>
            0 -1 32 3.0739109497517347e-03</internalNodes>
          <leafValues>
            -5.5891871452331543e-01 6.4924263954162598e-01</leafValues></_>
        <_>
          <internalNodes>
            0 -1 2 -1.3167816214263439e-02</internalNodes>
          <leafValues>
            7.2232741117477417e-01 -4.7731015086174011e-01</leafValues></_></weakClassifiers></_>
    <!-- stage 1 -->
    <_>
      <maxWeakCount>6</maxWeakCount>
      <stageThreshold>-1.0048227310180664e+00</stageThreshold>
      <weakClassifiers>
        <_>
          <internalNodes>
            0 -1 36 6.9395806640386581e-03</internalNodes>
          <leafValues>
            -6.5919280052185059e-01 6.1038959026336670e-01</leafValues></_>
        <_>
          <internalNodes>
            0 -1 7 3.6289356648921967e-03</internalNodes>
          <leafValues>
            -5.3626149892807007e-01 5.6416940689086914e-01</leafValues></_>
        <_>
          <internalNodes>
            0 -1 3 -3.8244454190135002e-03</internalNodes>
          <leafValues>
            7.2186326980590820e-01 -3.6843571066856384e-01</leafValues></_>
        <_>
          <internalNodes>
            0 -1 4 -3.1261771917343140e-02</internalNodes>
          <leafValues>
            7.8086864948272705e-01 -3.3311817049980164e-01</leafValues></_>
        <_>
          <internalNodes>
            0 -1 37 -1.5456125838682055e-03</internalNodes>
          <leafValues>
            -8.0131912231445312e-01 3.7224993109703064e-01</leafValues></_>
        <_>
          <internalNodes>
            0 -1 21 1.1131525039672852e-02</internalNodes>
          <leafValues>
            -3.9104586839675903e-01 6.0320550203323364e-01</leafValues></_></weakClassifiers></_>
    <!-- stage 2 -->
    <_>
      <maxWeakCount>5</maxWeakCount>
      <stageThreshold>-6.2621635198593140e-01</stageThreshold>
      <weakClassifiers>
        <_>
          <internalNodes>
            0 -1 24 -2.6080453768372536e-02</internalNodes>
          <leafValues>
            5.3246754407882690e-01 -6.3228696584701538e-01</leafValues></_>
        <_>
          <internalNodes>
            0 -1 39 7.8432916780002415e-05</internalNodes>
          <leafValues>
            -5.6738799810409546e-01 4.6478474140167236e-01</leafValues></_>
        <_>
          <internalNodes>
            0 -1 30 -9.5543023198843002e-03</internalNodes>
          <leafValues>
            8.4435087442398071e-01 -2.9432064294815063e-01</leafValues></_>
        <_>
          <internalNodes>
            0 -1 10 -1.4437765814363956e-02</internalNodes>
          <leafValues>
            -6.5089774131774902e-01 4.0773165225982666e-01</leafValues></_>
        <_>
          <internalNodes>
            0 -1 8 -9.7192754037678242e-04</internalNodes>
          <leafValues>
            4.8650422692298889e-01 -5.4074686765670776e-01</leafValues></_></weakClassifiers></_>
    <!-- stage 3 -->
    <_>
      <maxWeakCount>3</maxWeakCount>
      <stageThreshold>-7.8101766109466553e-01</stageThreshold>
      <weakClassifiers>
        <_>
          <internalNodes>
            0 -1 15 -3.4516253508627415e-03</internalNodes>
          <leafValues>
            -7.6165801286697388e-01 4.3925234675407410e-01</leafValues></_>
        <_>
          <internalNodes>
            0 -1 31 -1.4379531145095825e-02</internalNodes>
          <leafValues>
            4.8886767029762268e-01 -5.9557205438613892e-01</leafValues></_>
        <_>
          <internalNodes>
            0 -1 18 -2.9860395006835461e-03</internalNodes>
          <leafValues>
            5.7621240615844727e-01 -4.6926504373550415e-01</leafValues></_></weakClassifiers></_>
    <!-- stage 4 -->
    <_>
      <maxWeakCount>6</maxWeakCount>
      <stageThreshold>-8.9104974269866943e-01</stageThreshold>
      <weakClassifiers>
        <_>
          <internalNodes>
            0 -1 13 -5.3058460354804993e-02</internalNodes>
          <leafValues>
            7.2727274894714355e-01 -5.1562500000000000e-01</leafValues></_>
        <_>
          <internalNodes>
            0 -1 12 -1.4616962522268295e-02</internalNodes>
          <leafValues>
            4.0999892354011536e-01 -5.2819740772247314e-01</leafValues></_>
        <_>
          <internalNodes>
            0 -1 0 -7.3513150215148926e-02</internalNodes>
          <leafValues>
            5.1382142305374146e-01 -4.8840281367301941e-01</leafValues></_>
        <_>
          <internalNodes>
            0 -1 20 -7.7770873904228210e-03</internalNodes>
          <leafValues>
            -7.6084929704666138e-01 2.9356405138969421e-01</leafValues></_>
        <_>
          <internalNodes>
            0 -1 34 1.6651609912514687e-02</internalNodes>
          <leafValues>
            -2.6707625389099121e-01 8.1558352708816528e-01</leafValues></_>
        <_>
          <internalNodes>
            0 -1 29 2.9899743385612965e-03</internalNodes>
          <leafValues>
            -2.4171704053878784e-01 6.6687679290771484e-01</leafValues></_></weakClassifiers></_>
    <!-- stage 5 -->
    <_>
      <maxWeakCount>7</maxWeakCount>
      <stageThreshold>-1.1053093671798706e+00</stageThreshold>
      <weakClassifiers>
        <_>
          <internalNodes>
            0 -1 5 -1.0981226339936256e-02</internalNodes>
          <leafValues>
            6.3999998569488525e-01 -5.2799999713897705e-01</leafValues></_>
        <_>
          <internalNodes>
            0 -1 22 -1.3881796039640903e-02</internalNodes>
          <leafValues>
            6.8878406286239624e-01 -3.0058756470680237e-01</leafValues></_>
        <_>
          <internalNodes>
            0 -1 35 1.7762666102498770e-03</internalNodes>
          <leafValues>
            -2.8040018677711487e-01 6.0779100656509399e-01</leafValues></_>
        <_>
          <internalNodes>
            0 -1 26 -7.4116978794336319e-03</internalNodes>
          <leafValues>
            3.6918619275093079e-01 -5.0673323869705200e-01</leafValues></_>
        <_>
          <internalNodes>
            0 -1 6 6.0850926674902439e-03</internalNodes>
          <leafValues>
            2.6866704225540161e-01 -6.5055155754089355e-01</leafValues></_>
        <_>
          <internalNodes>
            0 -1 1 -4.3731965124607086e-03</internalNodes>
          <leafValues>
            7.1081930398941040e-01 -3.2813513278961182e-01</leafValues></_>
        <_>
          <internalNodes>
            0 -1 17 -1.8033768981695175e-02</internalNodes>
          <leafValues>
            6.1208492517471313e-01 -3.0603978037834167e-01</leafValues></_></weakClassifiers></_>
    <!-- stage 6 -->
    <_>
      <maxWeakCount>7</maxWeakCount>
      <stageThreshold>-1.3350608348846436e+00</stageThreshold>
      <weakClassifiers>
        <_>
          <internalNodes>
            0 -1 38 9.4098793342709541e-03</internalNodes>
          <leafValues>
            -5.4838711023330688e-01 6.9230771064758301e-01</leafValues></_>
        <_>
          <internalNodes>
            0 -1 25 -8.6904196068644524e-03</internalNodes>
          <leafValues>
            4.7888949513435364e-01 -4.5285370945930481e-01</leafValues></_>
        <_>
          <internalNodes>
            0 -1 16 -3.4640398807823658e-03</internalNodes>
          <leafValues>
            4.7688099741935730e-01 -4.6783649921417236e-01</leafValues></_>
        <_>
          <internalNodes>
            0 -1 28 -3.6229491233825684e-03</internalNodes>
          <leafValues>
            7.2729212045669556e-01 -3.2972210645675659e-01</leafValues></_>
        <_>
          <internalNodes>
            0 -1 26 -8.7390765547752380e-03</internalNodes>
          <leafValues>
            4.3453302979469299e-01 -5.0282800197601318e-01</leafValues></_>
        <_>
          <internalNodes>
            0 -1 14 -1.1357007548213005e-02</internalNodes>
          <leafValues>
            -9.3282753229141235e-01 2.6172506809234619e-01</leafValues></_>
        <_>
          <internalNodes>
            0 -1 11 -1.2975673889741302e-03</internalNodes>
          <leafValues>
            7.0262193679809570e-01 -3.5217264294624329e-01</leafValues></_></weakClassifiers></_>
    <!-- stage 7 -->
    <_>
      <maxWeakCount>4</maxWeakCount>
      <stageThreshold>-7.2492235898971558e-01</stageThreshold>
      <weakClassifiers>
        <_>
          <internalNodes>
            0 -1 33 6.6431877203285694e-03</internalNodes>
          <leafValues>
            -6.4609050750732422e-01 1.</leafValues></_>
        <_>
          <internalNodes>
            0 -1 27 -4.2186575010418892e-03</internalNodes>
          <leafValues>
            1. -3.9294195175170898e-01</leafValues></_>
        <_>
          <internalNodes>
            0 -1 19 -8.4338872693479061e-04</internalNodes>
          <leafValues>
            1. -3.1473174691200256e-01</leafValues></_>
        <_>
          <internalNodes>
            0 -1 23 -2.7192984707653522e-03</internalNodes>
          <leafValues>
            6.2884187698364258e-01 -5.6558954715728760e-01</leafValues></_></weakClassifiers></_></stages>
  <features>
    <_>
      <rects>
        <_>
          0 1 16 6 -1.</_>
        <_>
          4 1 8 6 2.</_></rects>
      <tilted>0</tilted></_>
    <_>
      <rects>
        <_>
          0 3 3 3 -1.</_>
        <_>
          1 3 1 3 3.</_></rects>
      <tilted>0</tilted></_>
    <_>
      <rects>
        <_>
          0 3 4 5 -1.</_>
        <_>
          2 3 2 5 2.</_></rects>
      <tilted>0</tilted></_>
    <_>
      <rects>
        <_>
          0 6 3 5 -1.</_>
        <_>
          1 6 1 5 3.</_></rects>
      <tilted>0</tilted></_>
    <_>
      <rects>
        <_>
          0 6 6 10 -1.</_>
        <_>
          2 6 2 10 3.</_></rects>
      <tilted>0</tilted></_>
    <_>
      <rects>
        <_>
          0 7 3 8 -1.</_>
        <_>
          1 7 1 8 3.</_></rects>
      <tilted>0</tilted></_>
    <_>
      <rects>
        <_>
          0 10 14 1 -1.</_>
        <_>
          7 10 7 1 2.</_></rects>
      <tilted>0</tilted></_>
    <_>
      <rects>
        <_>
          0 14 5 2 -1.</_>
        <_>
          0 15 5 1 2.</_></rects>
      <tilted>0</tilted></_>
    <_>
      <rects>
        <_>
          0 15 8 1 -1.</_>
        <_>
          4 15 4 1 2.</_></rects>
      <tilted>0</tilted></_>
    <_>
      <rects>
        <_>
          1 1 15 14 -1.</_>
        <_>
          1 8 15 7 2.</_></rects>
      <tilted>0</tilted></_>
    <_>
      <rects>
        <_>
          1 2 10 10 -1.</_>
        <_>
          1 2 5 5 2.</_>
        <_>
          6 7 5 5 2.</_></rects>
      <tilted>0</tilted></_>
    <_>
      <rects>
        <_>
          1 3 2 1 -1.</_>
        <_>
          1 3 1 1 2.</_></rects>
      <tilted>1</tilted></_>
    <_>
      <rects>
        <_>
          1 7 8 1 -1.</_>
        <_>
          3 9 4 1 2.</_></rects>
      <tilted>1</tilted></_>
    <_>
      <rects>
        <_>
          1 13 12 3 -1.</_>
        <_>
          1 14 12 1 3.</_></rects>
      <tilted>0</tilted></_>
    <_>
      <rects>
        <_>
          1 15 10 1 -1.</_>
        <_>
          6 15 5 1 2.</_></rects>
      <tilted>0</tilted></_>
    <_>
      <rects>
        <_>
          2 10 8 6 -1.</_>
        <_>
          2 13 8 3 2.</_></rects>
      <tilted>0</tilted></_>
    <_>
      <rects>
        <_>
          2 11 4 1 -1.</_>
        <_>
          3 12 2 1 2.</_></rects>
      <tilted>1</tilted></_>
    <_>
      <rects>
        <_>
          3 0 6 1 -1.</_>
        <_>
          5 2 2 1 3.</_></rects>
      <tilted>1</tilted></_>
    <_>
      <rects>
        <_>
          3 3 3 2 -1.</_>
        <_>
          3 3 3 1 2.</_></rects>
      <tilted>1</tilted></_>
    <_>
      <rects>
        <_>
          3 4 4 2 -1.</_>
        <_>
          3 4 2 1 2.</_>
        <_>
          5 5 2 1 2.</_></rects>
      <tilted>0</tilted></_>
    <_>
      <rects>
        <_>
          3 8 9 7 -1.</_>
        <_>
          6 8 3 7 3.</_></rects>
      <tilted>0</tilted></_>
    <_>
      <rects>
        <_>
          4 8 2 4 -1.</_>
        <_>
          4 8 1 4 2.</_></rects>
      <tilted>1</tilted></_>
    <_>
      <rects>
        <_>
          6 13 4 3 -1.</_>
        <_>
          6 14 4 1 3.</_></rects>
      <tilted>0</tilted></_>
    <_>
      <rects>
        <_>
          7 0 3 4 -1.</_>
        <_>
          6 1 3 2 2.</_></rects>
      <tilted>1</tilted></_>
    <_>
      <rects>
        <_>
          8 5 8 7 -1.</_>
        <_>
          10 5 4 7 2.</_></rects>
      <tilted>0</tilted></_>
    <_>
      <rects>
        <_>
          8 5 6 11 -1.</_>
        <_>
          10 5 2 11 3.</_></rects>
      <tilted>0</tilted></_>
    <_>
      <rects>
        <_>
          8 7 1 8 -1.</_>
        <_>
          6 9 1 4 2.</_></rects>
      <tilted>1</tilted></_>
    <_>
      <rects>
        <_>
          8 11 2 3 -1.</_>
        <_>
          8 12 2 1 3.</_></rects>
      <tilted>0</tilted></_>
    <_>
      <rects>
        <_>
          9 2 4 1 -1.</_>
        <_>
          10 3 2 1 2.</_></rects>
      <tilted>1</tilted></_>
    <_>
      <rects>
        <_>
          12 11 3 4 -1.</_>
        <_>
          13 11 1 4 3.</_></rects>
      <tilted>0</tilted></_>
    <_>
      <rects>
        <_>
          13 8 3 7 -1.</_>
        <_>
          14 8 1 7 3.</_></rects>
      <tilted>0</tilted></_>
    <_>
      <rects>
        <_>
          13 10 3 6 -1.</_>
        <_>
          14 12 1 2 9.</_></rects>
      <tilted>0</tilted></_>
    <_>
      <rects>
        <_>
          13 14 2 2 -1.</_>
        <_>
          13 15 2 1 2.</_></rects>
      <tilted>0</tilted></_>
    <_>
      <rects>
        <_>
          14 0 2 14 -1.</_>
        <_>
          14 0 1 7 2.</_>
        <_>
          15 7 1 7 2.</_></rects>
      <tilted>0</tilted></_>
    <_>
      <rects>
        <_>
          14 2 2 14 -1.</_>
        <_>
          14 2 1 7 2.</_>
        <_>
          15 9 1 7 2.</_></rects>
      <tilted>0</tilted></_>
    <_>
      <rects>
        <_>
          14 5 2 4 -1.</_>
        <_>
          14 5 1 2 2.</_>
        <_>
          15 7 1 2 2.</_></rects>
      <tilted>0</tilted></_>
    <_>
      <rects>
        <_>
          14 5 2 11 -1.</_>
        <_>
          15 5 1 11 2.</_></rects>
      <tilted>0</tilted></_>
    <_>
      <rects>
        <_>
          14 5 2 6 -1.</_>
        <_>
          14 5 2 3 2.</_></rects>
      <tilted>1</tilted></_>
    <_>
      <rects>
        <_>
          14 9 2 5 -1.</_>
        <_>
          15 9 1 5 2.</_></rects>
      <tilted>0</tilted></_>
    <_>
      <rects>
        <_>
          14 15 2 1 -1.</_>
        <_>
          15 15 1 1 2.</_></rects>
      <tilted>0</tilted></_></features></cascade>
</opencv_storage>
