<?xml version="1.0"?>
<opencv_storage>
<stage2>
  <maxWeakCount>5</maxWeakCount>
  <stageThreshold>-6.2621635198593140e-01</stageThreshold>
  <weakClassifiers>
    <_>
      <internalNodes>
        0 -1 37461 -2.6080453768372536e-02</internalNodes>
      <leafValues>
        5.3246754407882690e-01 -6.3228696584701538e-01</leafValues></_>
    <_>
      <internalNodes>
        0 -1 50630 7.8432916780002415e-05</internalNodes>
      <leafValues>
        -5.6738799810409546e-01 4.6478474140167236e-01</leafValues></_>
    <_>
      <internalNodes>
        0 -1 49615 -9.5543023198843002e-03</internalNodes>
      <leafValues>
        8.4435087442398071e-01 -2.9432064294815063e-01</leafValues></_>
    <_>
      <internalNodes>
        0 -1 6561 -1.4437765814363956e-02</internalNodes>
      <leafValues>
        -6.5089774131774902e-01 4.0773165225982666e-01</leafValues></_>
    <_>
      <internalNodes>
        0 -1 5128 -9.7192754037678242e-04</internalNodes>
      <leafValues>
        4.8650422692298889e-01 -5.4074686765670776e-01</leafValues></_></weakClassifiers></stage2>
</opencv_storage>
