<?xml version="1.0"?>
<opencv_storage>
<cascade>
  <stageType>BOOST</stageType>
  <featureType>LBP</featureType>
  <height>16</height>
  <width>16</width>
  <stageParams>
    <boostType>GAB</boostType>
    <minHitRate>9.9500000476837158e-01</minHitRate>
    <maxFalseAlarm>5.0000000000000000e-01</maxFalseAlarm>
    <weightTrimRate>9.4999999999999996e-01</weightTrimRate>
    <maxDepth>1</maxDepth>
    <maxWeakCount>100</maxWeakCount></stageParams>
  <featureParams>
    <maxCatCount>256</maxCatCount>
    <featSize>1</featSize></featureParams>
  <stageNum>7</stageNum>
  <stages>
    <!-- stage 0 -->
    <_>
      <maxWeakCount>6</maxWeakCount>
      <stageThreshold>-9.7224467992782593e-01</stageThreshold>
      <weakClassifiers>
        <_>
          <internalNodes>
            0 -1 19 -186845212 -665533804 1074053860 -728973246
            -1065038624 -260013760 -255528316 1879374016</internalNodes>
          <leafValues>
            -7.1002978086471558e-01 6.3412541151046753e-01</leafValues></_>
        <_>
          <internalNodes>
            0 -1 26 347896308 823238677 193273181 1035404167 243405239
            991535295 702486927 1006053615</internalNodes>
          <leafValues>
            -5.8374261856079102e-01 6.0049426555633545e-01</leafValues></_>
        <_>
          <internalNodes>
            0 -1 5 -446434510 -1065304046 -1073692672 -2147450304
            -1073692600 -1069498367 -800751616 -800001984</internalNodes>
          <leafValues>
            -5.4954671859741211e-01 4.1609618067741394e-01</leafValues></_>
        <_>
          <internalNodes>
            0 -1 41 -50338201 -800035709 -291176876 -1073566122
            1760033828 -800210827 -705198592 -530061725</internalNodes>
          <leafValues>
            -3.3776286244392395e-01 6.7798703908920288e-01</leafValues></_>
        <_>
          <internalNodes>
            0 -1 48 -352326837 170936868 -16880472 -2145335637 -17838644
            -2072707529 -319632348 -1066139717</internalNodes>
          <leafValues>
            -3.4234604239463806e-01 6.5349286794662476e-01</leafValues></_>
        <_>
          <internalNodes>
            0 -1 33 55354660 -774590401 -494823891 -1214077425
            -774018075 -252346069 -93912404 606079272</internalNodes>
          <leafValues>
            -6.4482647180557251e-01 3.6694645881652832e-01</leafValues></_></weakClassifiers></_>
    <!-- stage 1 -->
    <_>
      <maxWeakCount>8</maxWeakCount>
      <stageThreshold>-8.0382782220840454e-01</stageThreshold>
      <weakClassifiers>
        <_>
          <internalNodes>
            0 -1 32 15807604 75492733 805269119 1069530623 972897791
            1023252479 215954943 973016303</internalNodes>
          <leafValues>
            -4.3339830636978149e-01 7.3184734582901001e-01</leafValues></_>
        <_>
          <internalNodes>
            0 -1 14 836248864 1596985813 -1047062248 -1078975742 4530929
            1529881015 1017909755 1073420203</internalNodes>
          <leafValues>
            -4.8712289333343506e-01 4.6598297357559204e-01</leafValues></_>
        <_>
          <internalNodes>
            0 -1 1 -948983038 -1568636414 -1073724928 861995808 73875585
            1082228747 1407406148 1735876983</internalNodes>
          <leafValues>
            -4.9496948719024658e-01 4.2150133848190308e-01</leafValues></_>
        <_>
          <internalNodes>
            0 -1 44 -285744638 -1070292480 -2001819990 9086626
            1466368000 291921220 -161767136 -487063633</internalNodes>
          <leafValues>
            -3.9203888177871704e-01 5.1566898822784424e-01</leafValues></_>
        <_>
          <internalNodes>
            0 -1 31 -869224300 273973277 -1851741997 -1212841965
            -1809727489 413704595 -1949327169 16100540</internalNodes>
          <leafValues>
            -5.0066697597503662e-01 3.6397674679756165e-01</leafValues></_>
        <_>
          <internalNodes>
            0 -1 47 -498605106 -1038032698 1073742080 -1534558140
            -937721184 -801075168 -523649015 -928268236</internalNodes>
          <leafValues>
            -3.9595109224319458e-01 4.6259823441505432e-01</leafValues></_>
        <_>
          <internalNodes>
            0 -1 10 -25305306 -63897738 -71762140 1318113122 -1225484304
            1903198068 -25701104 -481823965</internalNodes>
          <leafValues>
            -3.0569991469383240e-01 5.6790018081665039e-01</leafValues></_>
        <_>
          <internalNodes>
            0 -1 24 1650894684 -33755457 -554914314 -671819009
            1750448045 -780873997 -704690499 -1344011828</internalNodes>
          <leafValues>
            -3.8853657245635986e-01 4.3366813659667969e-01</leafValues></_></weakClassifiers></_>
    <!-- stage 2 -->
    <_>
      <maxWeakCount>9</maxWeakCount>
      <stageThreshold>-7.6111823320388794e-01</stageThreshold>
      <weakClassifiers>
        <_>
          <internalNodes>
            0 -1 15 1013987312 2146860919 805185341 1065041787 905066935
            2128701431 1023227835 1064699703</internalNodes>
          <leafValues>
            -3.6778116226196289e-01 6.2311559915542603e-01</leafValues></_>
        <_>
          <internalNodes>
            0 -1 18 -169869401 -1261359553 820293421 908193287
            -118104159 877966837 -184731186 12055415</internalNodes>
          <leafValues>
            -3.4519189596176147e-01 5.0629401206970215e-01</leafValues></_>
        <_>
          <internalNodes>
            0 -1 37 380302845 299731167 234996126 -1113637221
            -1583245633 77148591 501321149 771747247</internalNodes>
          <leafValues>
            -4.4400182366371155e-01 4.3493562936782837e-01</leafValues></_>
        <_>
          <internalNodes>
            0 -1 9 -9175265 -80674958 -1208156227 -832504782 1920456660
            -816546460 -243925904 -780668349</internalNodes>
          <leafValues>
            -2.4677526950836182e-01 6.9540441036224365e-01</leafValues></_>
        <_>
          <internalNodes>
            0 -1 40 -92279036 1613800992 -868946926 -772758998
            -588676088 284744894 649352936 -265289729</internalNodes>
          <leafValues>
            -3.7228411436080933e-01 4.3270504474639893e-01</leafValues></_>
        <_>
          <internalNodes>
            0 -1 3 -395513290 -741293567 -2147483648 -611917568
            -520060800 -2138029952 -1064844159 -1060846046</internalNodes>
          <leafValues>
            -5.0178295373916626e-01 3.1533804535865784e-01</leafValues></_>
        <_>
          <internalNodes>
            0 -1 2 -27988238 1170335026 -988802752 -1622531322
            1090859505 -738041454 -212528700 645391235</internalNodes>
          <leafValues>
            -4.4848692417144775e-01 3.4760102629661560e-01</leafValues></_>
        <_>
          <internalNodes>
            0 -1 23 -1467831420 269521727 1124438338 -83326110 19942069
            1926333625 -108722135 1944331120</internalNodes>
          <leafValues>
            -5.5153822898864746e-01 2.8042030334472656e-01</leafValues></_>
        <_>
          <internalNodes>
            0 -1 12 54802980 4729163 1619132450 288100378 1114058787
            312557593 2024499744 1740589937</internalNodes>
          <leafValues>
            -7.6779747009277344e-01 1.8388126790523529e-01</leafValues></_></weakClassifiers></_>
    <!-- stage 3 -->
    <_>
      <maxWeakCount>10</maxWeakCount>
      <stageThreshold>-9.3658202886581421e-01</stageThreshold>
      <weakClassifiers>
        <_>
          <internalNodes>
            0 -1 16 309145712 905035121 788216049 1073101169 884873209
            871835135 721368254 922358771</internalNodes>
          <leafValues>
            -3.8299736380577087e-01 5.7665973901748657e-01</leafValues></_>
        <_>
          <internalNodes>
            0 -1 48 -92280117 -2111813088 1862233258 -1071479702
            -286290481 -1942684105 -1929687904 -1064829521</internalNodes>
          <leafValues>
            -2.3558712005615234e-01 7.1045809984207153e-01</leafValues></_>
        <_>
          <internalNodes>
            0 -1 4 -1055940094 -1427593310 1458286112 -2120483222
            -2122906191 -1061331338 1685130932 -218107913</internalNodes>
          <leafValues>
            -2.7293643355369568e-01 6.5356868505477905e-01</leafValues></_>
        <_>
          <internalNodes>
            0 -1 46 -1060643197 -1371364062 1723379248 -2078106058
            -867707648 74693824 -2064661469 -621809265</internalNodes>
          <leafValues>
            -2.4707645177841187e-01 7.7135175466537476e-01</leafValues></_>
        <_>
          <internalNodes>
            0 -1 0 1189937027 -34821532 92102527 -73190896 1708924835
            1374993787 -1258301466 1674016119</internalNodes>
          <leafValues>
            -3.5088175535202026e-01 4.7914189100265503e-01</leafValues></_>
        <_>
          <internalNodes>
            0 -1 6 -840503408 677432912 -1448755468 -360665102
            1284777232 141950935 1901589269 -81533325</internalNodes>
          <leafValues>
            -3.3174371719360352e-01 5.1170414686203003e-01</leafValues></_>
        <_>
          <internalNodes>
            0 -1 11 1180198144 -750779995 -2130165479 -1760473053
            2116240 -106888567 -1467643222 1031876128</internalNodes>
          <leafValues>
            -5.0118547677993774e-01 3.4635034203529358e-01</leafValues></_>
        <_>
          <internalNodes>
            0 -1 21 1918756612 -1337896423 -1072430716 343965735
            1506252817 1114779 -2088154690 546116289</internalNodes>
          <leafValues>
            -4.9718055129051208e-01 3.4692785143852234e-01</leafValues></_>
        <_>
          <internalNodes>
            0 -1 13 -1050397884 2116206459 -71324688 -1083687366
            736451579 1940733790 1862238075 -1209372790</internalNodes>
          <leafValues>
            -3.7252104282379150e-01 4.5794463157653809e-01</leafValues></_>
        <_>
          <internalNodes>
            0 -1 39 1179099308 23826701 654149642 -1518165102 1423269048
            905314204 74894444 -1297255893</internalNodes>
          <leafValues>
            -3.7826123833656311e-01 4.7250881791114807e-01</leafValues></_></weakClassifiers></_>
    <!-- stage 4 -->
    <_>
      <maxWeakCount>10</maxWeakCount>
      <stageThreshold>-6.9076526165008545e-01</stageThreshold>
      <weakClassifiers>
        <_>
          <internalNodes>
            0 -1 35 -803216508 811790246 -1398514046 -2136896533
            -453474042 -2076622913 -2136308604 9430889</internalNodes>
          <leafValues>
            -2.1082949638366699e-01 6.7510855197906494e-01</leafValues></_>
        <_>
          <internalNodes>
            0 -1 8 -957631386 -600798151 788307648 -1823953374
            1080263937 108306292 605234436 -722221662</internalNodes>
          <leafValues>
            -2.8195381164550781e-01 6.9089150428771973e-01</leafValues></_>
        <_>
          <internalNodes>
            0 -1 42 -280105161 -2134578068 -50401590 1208675839
            1757865448 556257 -559438612 -521412509</internalNodes>
          <leafValues>
            -2.6894545555114746e-01 7.4751150608062744e-01</leafValues></_>
        <_>
          <internalNodes>
            0 -1 45 -747654390 320945802 620654114 1881826880 1179058698
            -603499148 -285825786 -207371222</internalNodes>
          <leafValues>
            -3.0281654000282288e-01 6.9586610794067383e-01</leafValues></_>
        <_>
          <internalNodes>
            0 -1 20 -1736181086 673446568 -2106481710 322690691
            360135768 70746061 1440044320 -910521842</internalNodes>
          <leafValues>
            -3.5026216506958008e-01 5.9818530082702637e-01</leafValues></_>
        <_>
          <internalNodes>
            0 -1 25 -939333632 -258965501 671089032 -854325246
            1073846401 -2130673263 -904724344 -1476130556</internalNodes>
          <leafValues>
            -4.9278223514556885e-01 4.6794888377189636e-01</leafValues></_>
        <_>
          <internalNodes>
            0 -1 27 -389357334 -961597782 654215472 -1044020574
            -2079585112 1978957687 -680063616 -337688671</internalNodes>
          <leafValues>
            -3.3105292916297913e-01 6.5901374816894531e-01</leafValues></_>
        <_>
          <internalNodes>
            0 -1 43 855896172 26378264 -2147483624 612565126 83919003
            293838850 -2147188600 500109563</internalNodes>
          <leafValues>
            -6.2245190143585205e-01 3.7562888860702515e-01</leafValues></_>
        <_>
          <internalNodes>
            0 -1 34 1176812742 876848965 -1314575104 -776655249
            -732580046 1425129365 -717906535 -1412849629</internalNodes>
          <leafValues>
            -3.6059656739234924e-01 6.7336142063140869e-01</leafValues></_>
        <_>
          <internalNodes>
            0 -1 7 1694540203 611956344 -336973856 -510137853 611531023
            -836862716 -462395988 -1243106009</internalNodes>
          <leafValues>
            -3.1382408738136292e-01 7.2775352001190186e-01</leafValues></_></weakClassifiers></_>
    <!-- stage 5 -->
    <_>
      <maxWeakCount>6</maxWeakCount>
      <stageThreshold>-4.0056109428405762e-01</stageThreshold>
      <weakClassifiers>
        <_>
          <internalNodes>
            0 -1 0 -1071319294 564406880 75259702 1377903104 80748472
            298073464 342956003 1655129221</internalNodes>
          <leafValues>
            -3.3333334326744080e-01 7.5956284999847412e-01</leafValues></_>
        <_>
          <internalNodes>
            0 -1 30 6558980 67117345 1744056289 1611116033 -1504684796
            -402579520 -180286328 8619146</internalNodes>
          <leafValues>
            -5.1929575204849243e-01 6.5756571292877197e-01</leafValues></_>
        <_>
          <internalNodes>
            0 -1 49 -712921408 1074425696 -327413984 -939512319
            610075997 -2007470192 -2075794144 -1199371053</internalNodes>
          <leafValues>
            -3.5515692830085754e-01 9.1230279207229614e-01</leafValues></_>
        <_>
          <internalNodes>
            0 -1 38 -970333695 335586905 543306776 -533712349 351575080
            409999669 1077006345 818782723</internalNodes>
          <leafValues>
            -4.4306576251983643e-01 7.4774110317230225e-01</leafValues></_>
        <_>
          <internalNodes>
            0 -1 29 -1073708928 1090519040 131072 -2097151678
            -2147483615 -2113732600 33608 172884520</internalNodes>
          <leafValues>
            -6.1085617542266846e-01 5.8833396434783936e-01</leafValues></_>
        <_>
          <internalNodes>
            0 -1 28 -2144955247 -1539890648 805081066 -924506388
            1156945235 -1938811566 165414154 -456703871</internalNodes>
          <leafValues>
            -4.0861073136329651e-01 8.8963699340820312e-01</leafValues></_></weakClassifiers></_>
    <!-- stage 6 -->
    <_>
      <maxWeakCount>3</maxWeakCount>
      <stageThreshold>-1.8746751546859741e-01</stageThreshold>
      <weakClassifiers>
        <_>
          <internalNodes>
            0 -1 17 623461890 2108984 1861656352 1099957584 72650832
            71311216 376489180 524289</internalNodes>
          <leafValues>
            -5.6821745634078979e-01 1.</leafValues></_>
        <_>
          <internalNodes>
            0 -1 36 122880 268435457 0 -2130640896 128 0 134217728
            557056</internalNodes>
          <leafValues>
            -6.1925005912780762e-01 9.5391190052032471e-01</leafValues></_>
        <_>
          <internalNodes>
            0 -1 22 268509376 404794912 650407424 1610755776 -2067496692
            67135172 343150592 6332520</internalNodes>
          <leafValues>
            -5.5697810649871826e-01 1.</leafValues></_></weakClassifiers></_></stages>
  <features>
    <_>
      <rect>
        0 0 3 1</rect></_>
    <_>
      <rect>
        0 1 2 2</rect></_>
    <_>
      <rect>
        0 2 3 1</rect></_>
    <_>
      <rect>
        0 2 3 4</rect></_>
    <_>
      <rect>
        0 3 1 1</rect></_>
    <_>
      <rect>
        0 3 1 4</rect></_>
    <_>
      <rect>
        0 4 1 2</rect></_>
    <_>
      <rect>
        0 4 2 1</rect></_>
    <_>
      <rect>
        0 5 1 1</rect></_>
    <_>
      <rect>
        0 5 1 3</rect></_>
    <_>
      <rect>
        0 6 1 2</rect></_>
    <_>
      <rect>
        0 12 4 1</rect></_>
    <_>
      <rect>
        0 13 1 1</rect></_>
    <_>
      <rect>
        0 13 2 1</rect></_>
    <_>
      <rect>
        0 13 3 1</rect></_>
    <_>
      <rect>
        0 13 4 1</rect></_>
    <_>
      <rect>
        0 13 5 1</rect></_>
    <_>
      <rect>
        1 0 3 3</rect></_>
    <_>
      <rect>
        1 0 5 2</rect></_>
    <_>
      <rect>
        1 1 5 4</rect></_>
    <_>
      <rect>
        1 2 1 1</rect></_>
    <_>
      <rect>
        1 2 5 2</rect></_>
    <_>
      <rect>
        1 4 4 1</rect></_>
    <_>
      <rect>
        1 9 3 1</rect></_>
    <_>
      <rect>
        1 10 3 1</rect></_>
    <_>
      <rect>
        1 10 4 1</rect></_>
    <_>
      <rect>
        1 13 5 1</rect></_>
    <_>
      <rect>
        2 1 1 1</rect></_>
    <_>
      <rect>
        2 5 2 1</rect></_>
    <_>
      <rect>
        3 5 3 2</rect></_>
    <_>
      <rect>
        3 5 4 1</rect></_>
    <_>
      <rect>
        4 12 4 1</rect></_>
    <_>
      <rect>
        4 13 4 1</rect></_>
    <_>
      <rect>
        5 11 2 1</rect></_>
    <_>
      <rect>
        6 2 2 1</rect></_>
    <_>
      <rect>
        7 0 3 2</rect></_>
    <_>
      <rect>
        7 3 3 2</rect></_>
    <_>
      <rect>
        7 13 3 1</rect></_>
    <_>
      <rect>
        10 2 2 2</rect></_>
    <_>
      <rect>
        10 3 2 1</rect></_>
    <_>
      <rect>
        10 3 2 2</rect></_>
    <_>
      <rect>
        10 5 2 2</rect></_>
    <_>
      <rect>
        10 7 2 2</rect></_>
    <_>
      <rect>
        10 13 2 1</rect></_>
    <_>
      <rect>
        12 2 1 1</rect></_>
    <_>
      <rect>
        13 1 1 1</rect></_>
    <_>
      <rect>
        13 2 1 2</rect></_>
    <_>
      <rect>
        13 7 1 2</rect></_>
    <_>
      <rect>
        13 8 1 2</rect></_>
    <_>
      <rect>
        13 10 1 1</rect></_></features></cascade>
</opencv_storage>
