<?xml version="1.0"?>
<opencv_storage>
<stage3>
  <maxWeakCount>10</maxWeakCount>
  <stageThreshold>-9.3658202886581421e-01</stageThreshold>
  <weakClassifiers>
    <_>
      <internalNodes>
        0 -1 199 309145712 905035121 788216049 1073101169 884873209
        871835135 721368254 922358771</internalNodes>
      <leafValues>
        -3.8299736380577087e-01 5.7665973901748657e-01</leafValues></_>
    <_>
      <internalNodes>
        0 -1 1592 -92280117 -2111813088 1862233258 -1071479702
        -286290481 -1942684105 -1929687904 -1064829521</internalNodes>
      <leafValues>
        -2.3558712005615234e-01 7.1045809984207153e-01</leafValues></_>
    <_>
      <internalNodes>
        0 -1 70 -1055940094 -1427593310 1458286112 -2120483222
        -2122906191 -1061331338 1685130932 -218107913</internalNodes>
      <leafValues>
        -2.7293643355369568e-01 6.5356868505477905e-01</leafValues></_>
    <_>
      <internalNodes>
        0 -1 1571 -1060643197 -1371364062 1723379248 -2078106058
        -867707648 74693824 -2064661469 -621809265</internalNodes>
      <leafValues>
        -2.4707645177841187e-01 7.7135175466537476e-01</leafValues></_>
    <_>
      <internalNodes>
        0 -1 10 1189937027 -34821532 92102527 -73190896 1708924835
        1374993787 -1258301466 1674016119</internalNodes>
      <leafValues>
        -3.5088175535202026e-01 4.7914189100265503e-01</leafValues></_>
    <_>
      <internalNodes>
        0 -1 91 -840503408 677432912 -1448755468 -360665102 1284777232
        141950935 1901589269 -81533325</internalNodes>
      <leafValues>
        -3.3174371719360352e-01 5.1170414686203003e-01</leafValues></_>
    <_>
      <internalNodes>
        0 -1 193 1180198144 -750779995 -2130165479 -1760473053 2116240
        -106888567 -1467643222 1031876128</internalNodes>
      <leafValues>
        -5.0118547677993774e-01 3.4635034203529358e-01</leafValues></_>
    <_>
      <internalNodes>
        0 -1 267 1918756612 -1337896423 -1072430716 343965735 1506252817
        1114779 -2088154690 546116289</internalNodes>
      <leafValues>
        -4.9718055129051208e-01 3.4692785143852234e-01</leafValues></_>
    <_>
      <internalNodes>
        0 -1 196 -1050397884 2116206459 -71324688 -1083687366 736451579
        1940733790 1862238075 -1209372790</internalNodes>
      <leafValues>
        -3.7252104282379150e-01 4.5794463157653809e-01</leafValues></_>
    <_>
      <internalNodes>
        0 -1 1432 1179099308 23826701 654149642 -1518165102 1423269048
        905314204 74894444 -1297255893</internalNodes>
      <leafValues>
        -3.7826123833656311e-01 4.7250881791114807e-01</leafValues></_></weakClassifiers></stage3>
</opencv_storage>
