<?xml version="1.0"?>
<opencv_storage>
<cascade>
  <stageType>BOOST</stageType>
  <featureType>HAAR</featureType>
  <height>16</height>
  <width>16</width>
  <stageParams>
    <boostType>GAB</boostType>
    <minHitRate>9.9500000476837158e-01</minHitRate>
    <maxFalseAlarm>5.0000000000000000e-01</maxFalseAlarm>
    <weightTrimRate>9.4999999999999996e-01</weightTrimRate>
    <maxDepth>1</maxDepth>
    <maxWeakCount>100</maxWeakCount></stageParams>
  <featureParams>
    <maxCatCount>0</maxCatCount>
    <featSize>1</featSize>
    <mode>ALL</mode></featureParams>
  <stageNum>7</stageNum>
  <stages>
    <!-- stage 0 -->
    <_>
      <maxWeakCount>9</maxWeakCount>
      <stageThreshold>-1.6599700450897217e+00</stageThreshold>
      <weakClassifiers>
        <_>
          <internalNodes>
            0 -1 92 4.5591397210955620e-03</internalNodes>
          <leafValues>
            -5.1395267248153687e-01 5.7219892740249634e-01</leafValues></_>
        <_>
          <internalNodes>
            0 -1 1 -6.8454638123512268e-02</internalNodes>
          <leafValues>
            3.4597486257553101e-01 -7.5673574209213257e-01</leafValues></_>
        <_>
          <internalNodes>
            0 -1 14 -1.0026352480053902e-02</internalNodes>
          <leafValues>
            7.1921950578689575e-01 -3.0841481685638428e-01</leafValues></_>
        <_>
          <internalNodes>
            0 -1 105 5.9575894847512245e-03</internalNodes>
          <leafValues>
            -3.0001020431518555e-01 5.3943771123886108e-01</leafValues></_>
        <_>
          <internalNodes>
            0 -1 19 -3.5344868898391724e-02</internalNodes>
          <leafValues>
            4.5469692349433899e-01 -2.6485800743103027e-01</leafValues></_>
        <_>
          <internalNodes>
            0 -1 6 -6.9355338811874390e-02</internalNodes>
          <leafValues>
            5.8220326900482178e-01 -2.0159868896007538e-01</leafValues></_>
        <_>
          <internalNodes>
            0 -1 48 -2.4527497589588165e-01</internalNodes>
          <leafValues>
            4.9253877997398376e-01 -2.3814821243286133e-01</leafValues></_>
        <_>
          <internalNodes>
            0 -1 111 -7.0697190240025520e-03</internalNodes>
          <leafValues>
            6.4058905839920044e-01 -1.6413857042789459e-01</leafValues></_>
        <_>
          <internalNodes>
            0 -1 26 -2.5982642546296120e-04</internalNodes>
          <leafValues>
            2.5147953629493713e-01 -4.4752782583236694e-01</leafValues></_></weakClassifiers></_>
    <!-- stage 1 -->
    <_>
      <maxWeakCount>15</maxWeakCount>
      <stageThreshold>-1.7035796642303467e+00</stageThreshold>
      <weakClassifiers>
        <_>
          <internalNodes>
            0 -1 37 -3.0593860428780317e-03</internalNodes>
          <leafValues>
            5.4415583610534668e-01 -4.5202702283859253e-01</leafValues></_>
        <_>
          <internalNodes>
            0 -1 106 1.7868161667138338e-03</internalNodes>
          <leafValues>
            -4.3347871303558350e-01 4.3127244710922241e-01</leafValues></_>
        <_>
          <internalNodes>
            0 -1 82 -1.7616102471947670e-02</internalNodes>
          <leafValues>
            2.3198078572750092e-01 -6.4847093820571899e-01</leafValues></_>
        <_>
          <internalNodes>
            0 -1 92 2.3326580412685871e-03</internalNodes>
          <leafValues>
            -3.1898331642150879e-01 4.0697687864303589e-01</leafValues></_>
        <_>
          <internalNodes>
            0 -1 6 -7.5573325157165527e-02</internalNodes>
          <leafValues>
            4.8260855674743652e-01 -2.8349047899246216e-01</leafValues></_>
        <_>
          <internalNodes>
            0 -1 50 9.7502125427126884e-03</internalNodes>
          <leafValues>
            -2.4441586434841156e-01 3.9345064759254456e-01</leafValues></_>
        <_>
          <internalNodes>
            0 -1 110 -1.2036589905619621e-02</internalNodes>
          <leafValues>
            6.6434633731842041e-01 -1.5830506384372711e-01</leafValues></_>
        <_>
          <internalNodes>
            0 -1 80 -1.4060125686228275e-03</internalNodes>
          <leafValues>
            -5.6959033012390137e-01 2.0453192293643951e-01</leafValues></_>
        <_>
          <internalNodes>
            0 -1 89 -1.5510832890868187e-02</internalNodes>
          <leafValues>
            4.6224346756935120e-01 -2.3055885732173920e-01</leafValues></_>
        <_>
          <internalNodes>
            0 -1 118 -9.1372253373265266e-03</internalNodes>
          <leafValues>
            6.6064208745956421e-01 -1.1801087856292725e-01</leafValues></_>
        <_>
          <internalNodes>
            0 -1 15 -9.4072818756103516e-03</internalNodes>
          <leafValues>
            5.7784879207611084e-01 -1.3440392911434174e-01</leafValues></_>
        <_>
          <internalNodes>
            0 -1 36 -1.6322476789355278e-02</internalNodes>
          <leafValues>
            4.9772945046424866e-01 -1.6299268603324890e-01</leafValues></_>
        <_>
          <internalNodes>
            0 -1 31 -1.7830271273851395e-02</internalNodes>
          <leafValues>
            4.4987589120864868e-01 -2.0198136568069458e-01</leafValues></_>
        <_>
          <internalNodes>
            0 -1 51 -1.8510140944272280e-03</internalNodes>
          <leafValues>
            -6.1115145683288574e-01 1.5918569266796112e-01</leafValues></_>
        <_>
          <internalNodes>
            0 -1 7 4.6311136335134506e-02</internalNodes>
          <leafValues>
            -2.7088955044746399e-01 2.6631739735603333e-01</leafValues></_></weakClassifiers></_>
    <!-- stage 2 -->
    <_>
      <maxWeakCount>20</maxWeakCount>
      <stageThreshold>-1.5105756521224976e+00</stageThreshold>
      <weakClassifiers>
        <_>
          <internalNodes>
            0 -1 21 -7.3351422324776649e-03</internalNodes>
          <leafValues>
            5.7625722885131836e-01 -3.6477029323577881e-01</leafValues></_>
        <_>
          <internalNodes>
            0 -1 24 -2.1683447062969208e-02</internalNodes>
          <leafValues>
            6.1954760551452637e-01 -2.4610370397567749e-01</leafValues></_>
        <_>
          <internalNodes>
            0 -1 76 -5.9997495263814926e-02</internalNodes>
          <leafValues>
            1.8462425470352173e-01 -6.6113859415054321e-01</leafValues></_>
        <_>
          <internalNodes>
            0 -1 3 -1.5684682130813599e-01</internalNodes>
          <leafValues>
            5.0804668664932251e-01 -2.3867957293987274e-01</leafValues></_>
        <_>
          <internalNodes>
            0 -1 29 -3.7484876811504364e-02</internalNodes>
          <leafValues>
            3.3661592006683350e-01 -2.9900375008583069e-01</leafValues></_>
        <_>
          <internalNodes>
            0 -1 122 1.5650631394237280e-04</internalNodes>
          <leafValues>
            -3.0551433563232422e-01 3.4527969360351562e-01</leafValues></_>
        <_>
          <internalNodes>
            0 -1 109 -1.0694807395339012e-02</internalNodes>
          <leafValues>
            5.3525608777999878e-01 -1.5201710164546967e-01</leafValues></_>
        <_>
          <internalNodes>
            0 -1 117 1.3856224715709686e-02</internalNodes>
          <leafValues>
            -1.2395561486482620e-01 6.0995000600814819e-01</leafValues></_>
        <_>
          <internalNodes>
            0 -1 54 1.1979915201663971e-02</internalNodes>
          <leafValues>
            -3.0705127120018005e-01 2.8132104873657227e-01</leafValues></_>
        <_>
          <internalNodes>
            0 -1 5 -1.0581899434328079e-02</internalNodes>
          <leafValues>
            6.0860759019851685e-01 -1.1683722585439682e-01</leafValues></_>
        <_>
          <internalNodes>
            0 -1 96 -9.3760453164577484e-03</internalNodes>
          <leafValues>
            4.2434993386268616e-01 -1.6067013144493103e-01</leafValues></_>
        <_>
          <internalNodes>
            0 -1 39 2.5333371013402939e-03</internalNodes>
          <leafValues>
            1.4662332832813263e-01 -5.8645123243331909e-01</leafValues></_>
        <_>
          <internalNodes>
            0 -1 35 -2.8328105807304382e-02</internalNodes>
          <leafValues>
            5.6810033321380615e-01 -1.3714310526847839e-01</leafValues></_>
        <_>
          <internalNodes>
            0 -1 74 1.9933460280299187e-03</internalNodes>
          <leafValues>
            1.1515298485755920e-01 -5.8684438467025757e-01</leafValues></_>
        <_>
          <internalNodes>
            0 -1 91 7.1150274015963078e-04</internalNodes>
          <leafValues>
            -2.2848011553287506e-01 3.5691043734550476e-01</leafValues></_>
        <_>
          <internalNodes>
            0 -1 45 -8.7349209934473038e-03</internalNodes>
          <leafValues>
            3.1777858734130859e-01 -2.1374773979187012e-01</leafValues></_>
        <_>
          <internalNodes>
            0 -1 95 -5.4947547614574432e-03</internalNodes>
          <leafValues>
            1.4668628573417664e-01 -4.8307558894157410e-01</leafValues></_>
        <_>
          <internalNodes>
            0 -1 13 -8.4201991558074951e-02</internalNodes>
          <leafValues>
            -6.0688620805740356e-01 9.8753079771995544e-02</leafValues></_>
        <_>
          <internalNodes>
            0 -1 71 -2.5238800793886185e-02</internalNodes>
          <leafValues>
            3.6710181832313538e-01 -1.8416446447372437e-01</leafValues></_>
        <_>
          <internalNodes>
            0 -1 30 -8.8748671114444733e-03</internalNodes>
          <leafValues>
            2.9647475481033325e-01 -2.0308266580104828e-01</leafValues></_></weakClassifiers></_>
    <!-- stage 3 -->
    <_>
      <maxWeakCount>24</maxWeakCount>
      <stageThreshold>-1.3353205919265747e+00</stageThreshold>
      <weakClassifiers>
        <_>
          <internalNodes>
            0 -1 17 -6.9193262606859207e-03</internalNodes>
          <leafValues>
            5.0397455692291260e-01 -3.4978407621383667e-01</leafValues></_>
        <_>
          <internalNodes>
            0 -1 84 1.7462973482906818e-03</internalNodes>
          <leafValues>
            -4.2589458823204041e-01 3.5677260160446167e-01</leafValues></_>
        <_>
          <internalNodes>
            0 -1 107 -3.3327427809126675e-04</internalNodes>
          <leafValues>
            -5.2512830495834351e-01 1.6404232382774353e-01</leafValues></_>
        <_>
          <internalNodes>
            0 -1 52 -1.2715322896838188e-02</internalNodes>
          <leafValues>
            4.8593458533287048e-01 -1.8326379358768463e-01</leafValues></_>
        <_>
          <internalNodes>
            0 -1 116 1.1955564841628075e-02</internalNodes>
          <leafValues>
            -1.9116570055484772e-01 4.8270601034164429e-01</leafValues></_>
        <_>
          <internalNodes>
            0 -1 99 -7.1387439966201782e-03</internalNodes>
          <leafValues>
            6.4107489585876465e-01 -1.1522676795721054e-01</leafValues></_>
        <_>
          <internalNodes>
            0 -1 78 -2.0047719590365887e-03</internalNodes>
          <leafValues>
            -7.7888190746307373e-01 1.1454693228006363e-01</leafValues></_>
        <_>
          <internalNodes>
            0 -1 4 -2.7152508497238159e-01</internalNodes>
          <leafValues>
            4.5603787899017334e-01 -1.5415425598621368e-01</leafValues></_>
        <_>
          <internalNodes>
            0 -1 77 -5.2148826420307159e-02</internalNodes>
          <leafValues>
            4.9567463994026184e-01 -1.3521350920200348e-01</leafValues></_>
        <_>
          <internalNodes>
            0 -1 9 -2.4085304141044617e-01</internalNodes>
          <leafValues>
            1.9463431835174561e-01 -4.3434926867485046e-01</leafValues></_>
        <_>
          <internalNodes>
            0 -1 103 -1.7733603715896606e-02</internalNodes>
          <leafValues>
            6.2950164079666138e-01 -1.0788386315107346e-01</leafValues></_>
        <_>
          <internalNodes>
            0 -1 68 1.9172824919223785e-02</internalNodes>
          <leafValues>
            -9.4571098685264587e-02 6.4975380897521973e-01</leafValues></_>
        <_>
          <internalNodes>
            0 -1 57 -5.8990339748561382e-03</internalNodes>
          <leafValues>
            4.2472410202026367e-01 -2.5335711240768433e-01</leafValues></_>
        <_>
          <internalNodes>
            0 -1 34 6.7709232680499554e-03</internalNodes>
          <leafValues>
            -1.7879188060760498e-01 3.7824550271034241e-01</leafValues></_>
        <_>
          <internalNodes>
            0 -1 64 6.4886230975389481e-03</internalNodes>
          <leafValues>
            9.2916719615459442e-02 -6.5602868795394897e-01</leafValues></_>
        <_>
          <internalNodes>
            0 -1 25 -6.8787159398198128e-04</internalNodes>
          <leafValues>
            2.0474396646022797e-01 -2.9792264103889465e-01</leafValues></_>
        <_>
          <internalNodes>
            0 -1 53 -5.0143888220191002e-03</internalNodes>
          <leafValues>
            -4.7715422511100769e-01 1.3386039435863495e-01</leafValues></_>
        <_>
          <internalNodes>
            0 -1 75 -7.1101430803537369e-03</internalNodes>
          <leafValues>
            4.6652659773826599e-01 -1.4176447689533234e-01</leafValues></_>
        <_>
          <internalNodes>
            0 -1 69 1.0817856527864933e-03</internalNodes>
          <leafValues>
            1.3954602181911469e-01 -4.8471724987030029e-01</leafValues></_>
        <_>
          <internalNodes>
            0 -1 83 -3.0814398080110550e-02</internalNodes>
          <leafValues>
            5.7737708091735840e-01 -1.2812805175781250e-01</leafValues></_>
        <_>
          <internalNodes>
            0 -1 113 -2.0692492835223675e-03</internalNodes>
          <leafValues>
            4.2421811819076538e-01 -1.7656490206718445e-01</leafValues></_>
        <_>
          <internalNodes>
            0 -1 42 1.4341739937663078e-02</internalNodes>
          <leafValues>
            -1.2027575075626373e-01 4.3157380819320679e-01</leafValues></_>
        <_>
          <internalNodes>
            0 -1 63 2.3766118101775646e-03</internalNodes>
          <leafValues>
            7.5054854154586792e-02 -8.3286064863204956e-01</leafValues></_>
        <_>
          <internalNodes>
            0 -1 60 -1.6013056039810181e-02</internalNodes>
          <leafValues>
            4.9603527784347534e-01 -1.3792040944099426e-01</leafValues></_></weakClassifiers></_>
    <!-- stage 4 -->
    <_>
      <maxWeakCount>24</maxWeakCount>
      <stageThreshold>-1.3707461357116699e+00</stageThreshold>
      <weakClassifiers>
        <_>
          <internalNodes>
            0 -1 22 -4.7963196411728859e-03</internalNodes>
          <leafValues>
            4.9321267008781433e-01 -3.6357909440994263e-01</leafValues></_>
        <_>
          <internalNodes>
            0 -1 57 -1.3136873021721840e-02</internalNodes>
          <leafValues>
            4.7782316803932190e-01 -2.2763955593109131e-01</leafValues></_>
        <_>
          <internalNodes>
            0 -1 120 2.5035683065652847e-03</internalNodes>
          <leafValues>
            -1.6341552138328552e-01 5.6706881523132324e-01</leafValues></_>
        <_>
          <internalNodes>
            0 -1 41 -4.3134009465575218e-03</internalNodes>
          <leafValues>
            4.0056446194648743e-01 -2.4610276520252228e-01</leafValues></_>
        <_>
          <internalNodes>
            0 -1 97 -9.0218626428395510e-04</internalNodes>
          <leafValues>
            2.1565765142440796e-01 -4.3003112077713013e-01</leafValues></_>
        <_>
          <internalNodes>
            0 -1 26 -2.3639439605176449e-03</internalNodes>
          <leafValues>
            2.7381724119186401e-01 -3.5876068472862244e-01</leafValues></_>
        <_>
          <internalNodes>
            0 -1 86 1.8935894593596458e-02</internalNodes>
          <leafValues>
            -1.5896046161651611e-01 6.1531287431716919e-01</leafValues></_>
        <_>
          <internalNodes>
            0 -1 101 -4.4078845530748367e-03</internalNodes>
          <leafValues>
            4.9437519907951355e-01 -1.6294836997985840e-01</leafValues></_>
        <_>
          <internalNodes>
            0 -1 108 9.8536983132362366e-03</internalNodes>
          <leafValues>
            -7.9692751169204712e-02 6.0907876491546631e-01</leafValues></_>
        <_>
          <internalNodes>
            0 -1 43 -1.2569604441523552e-02</internalNodes>
          <leafValues>
            2.7373659610748291e-01 -2.8642579913139343e-01</leafValues></_>
        <_>
          <internalNodes>
            0 -1 20 -1.8663097871467471e-03</internalNodes>
          <leafValues>
            4.0754705667495728e-01 -2.1862851083278656e-01</leafValues></_>
        <_>
          <internalNodes>
            0 -1 11 -1.8965784460306168e-02</internalNodes>
          <leafValues>
            5.8310133218765259e-01 -1.1579481512308121e-01</leafValues></_>
        <_>
          <internalNodes>
            0 -1 121 4.6260574890766293e-05</internalNodes>
          <leafValues>
            -3.2789212465286255e-01 2.3830150067806244e-01</leafValues></_>
        <_>
          <internalNodes>
            0 -1 90 -1.9853711128234863e-03</internalNodes>
          <leafValues>
            3.9831170439720154e-01 -1.7969363927841187e-01</leafValues></_>
        <_>
          <internalNodes>
            0 -1 55 -1.1030787136405706e-03</internalNodes>
          <leafValues>
            -5.4356551170349121e-01 1.1283408850431442e-01</leafValues></_>
        <_>
          <internalNodes>
            0 -1 79 2.3746746592223644e-03</internalNodes>
          <leafValues>
            1.1952944099903107e-01 -5.8164203166961670e-01</leafValues></_>
        <_>
          <internalNodes>
            0 -1 70 -4.9265641719102859e-03</internalNodes>
          <leafValues>
            -7.9311269521713257e-01 8.3220452070236206e-02</leafValues></_>
        <_>
          <internalNodes>
            0 -1 65 -6.5733576193451881e-03</internalNodes>
          <leafValues>
            2.8463554382324219e-01 -2.5539547204971313e-01</leafValues></_>
        <_>
          <internalNodes>
            0 -1 2 7.2965063154697418e-03</internalNodes>
          <leafValues>
            -1.2202988564968109e-01 6.6713327169418335e-01</leafValues></_>
        <_>
          <internalNodes>
            0 -1 44 2.6452790945768356e-02</internalNodes>
          <leafValues>
            -1.0097946226596832e-01 6.9334852695465088e-01</leafValues></_>
        <_>
          <internalNodes>
            0 -1 33 1.0918875224888325e-02</internalNodes>
          <leafValues>
            -1.3117039203643799e-01 5.5591636896133423e-01</leafValues></_>
        <_>
          <internalNodes>
            0 -1 0 -1.2873896956443787e-01</internalNodes>
          <leafValues>
            1.3944032788276672e-01 -5.4138016700744629e-01</leafValues></_>
        <_>
          <internalNodes>
            0 -1 100 4.7879316844046116e-03</internalNodes>
          <leafValues>
            -1.5581503510475159e-01 4.7830232977867126e-01</leafValues></_>
        <_>
          <internalNodes>
            0 -1 49 2.9629705473780632e-02</internalNodes>
          <leafValues>
            -1.2530630826950073e-01 5.8101880550384521e-01</leafValues></_></weakClassifiers></_>
    <!-- stage 5 -->
    <_>
      <maxWeakCount>24</maxWeakCount>
      <stageThreshold>-1.4589562416076660e+00</stageThreshold>
      <weakClassifiers>
        <_>
          <internalNodes>
            0 -1 32 -6.5692458301782608e-03</internalNodes>
          <leafValues>
            5.0731706619262695e-01 -3.4373089671134949e-01</leafValues></_>
        <_>
          <internalNodes>
            0 -1 12 -4.2693428695201874e-03</internalNodes>
          <leafValues>
            6.0032182931900024e-01 -1.8413402140140533e-01</leafValues></_>
        <_>
          <internalNodes>
            0 -1 85 -4.0550909936428070e-02</internalNodes>
          <leafValues>
            8.1213390827178955e-01 -1.4123959839344025e-01</leafValues></_>
        <_>
          <internalNodes>
            0 -1 73 8.5034500807523727e-04</internalNodes>
          <leafValues>
            -2.4565705657005310e-01 4.1054415702819824e-01</leafValues></_>
        <_>
          <internalNodes>
            0 -1 38 1.3988936552777886e-03</internalNodes>
          <leafValues>
            1.7835569381713867e-01 -6.0853910446166992e-01</leafValues></_>
        <_>
          <internalNodes>
            0 -1 114 -1.0952834971249104e-02</internalNodes>
          <leafValues>
            9.2761671543121338e-01 -1.0503187775611877e-01</leafValues></_>
        <_>
          <internalNodes>
            0 -1 27 4.5555388927459717e-01</internalNodes>
          <leafValues>
            -1.3145524263381958e-01 7.7510362863540649e-01</leafValues></_>
        <_>
          <internalNodes>
            0 -1 115 2.0331968553364277e-03</internalNodes>
          <leafValues>
            -9.3470267951488495e-02 8.9776474237442017e-01</leafValues></_>
        <_>
          <internalNodes>
            0 -1 46 -2.3511819541454315e-02</internalNodes>
          <leafValues>
            -4.8324918746948242e-01 2.0567952096462250e-01</leafValues></_>
        <_>
          <internalNodes>
            0 -1 112 -1.9865082576870918e-03</internalNodes>
          <leafValues>
            5.0715214014053345e-01 -2.3785774409770966e-01</leafValues></_>
        <_>
          <internalNodes>
            0 -1 28 -1.0951238218694925e-03</internalNodes>
          <leafValues>
            5.9434199333190918e-01 -1.6494111716747284e-01</leafValues></_>
        <_>
          <internalNodes>
            0 -1 10 2.1130386739969254e-03</internalNodes>
          <leafValues>
            -2.1010176837444305e-01 6.3496327400207520e-01</leafValues></_>
        <_>
          <internalNodes>
            0 -1 47 -8.0484542995691299e-03</internalNodes>
          <leafValues>
            4.9826848506927490e-01 -1.5507028996944427e-01</leafValues></_>
        <_>
          <internalNodes>
            0 -1 40 1.9353765994310379e-02</internalNodes>
          <leafValues>
            -9.1802231967449188e-02 8.8523608446121216e-01</leafValues></_>
        <_>
          <internalNodes>
            0 -1 58 4.5093752443790436e-02</internalNodes>
          <leafValues>
            1.8891850113868713e-01 -5.7185721397399902e-01</leafValues></_>
        <_>
          <internalNodes>
            0 -1 62 1.2015793472528458e-03</internalNodes>
          <leafValues>
            1.2808237969875336e-01 -5.5744612216949463e-01</leafValues></_>
        <_>
          <internalNodes>
            0 -1 102 4.1919179260730743e-02</internalNodes>
          <leafValues>
            -1.1608330160379410e-01 6.7011046409606934e-01</leafValues></_>
        <_>
          <internalNodes>
            0 -1 23 -9.7471214830875397e-03</internalNodes>
          <leafValues>
            5.6088519096374512e-01 -1.5805819630622864e-01</leafValues></_>
        <_>
          <internalNodes>
            0 -1 88 -5.4010655730962753e-02</internalNodes>
          <leafValues>
            2.5189173221588135e-01 -4.0582960844039917e-01</leafValues></_>
        <_>
          <internalNodes>
            0 -1 66 -1.4271532185375690e-02</internalNodes>
          <leafValues>
            3.7220403552055359e-01 -2.2705823183059692e-01</leafValues></_>
        <_>
          <internalNodes>
            0 -1 94 4.3612988665699959e-03</internalNodes>
          <leafValues>
            -1.4653176069259644e-01 5.9354346990585327e-01</leafValues></_>
        <_>
          <internalNodes>
            0 -1 87 -3.5169695038348436e-03</internalNodes>
          <leafValues>
            4.4708144664764404e-01 -2.3897768557071686e-01</leafValues></_>
        <_>
          <internalNodes>
            0 -1 8 -2.2708661854267120e-02</internalNodes>
          <leafValues>
            8.2273304462432861e-01 -1.2005247175693512e-01</leafValues></_>
        <_>
          <internalNodes>
            0 -1 98 -6.7853217478841543e-04</internalNodes>
          <leafValues>
            4.5831495523452759e-01 -2.0718911290168762e-01</leafValues></_></weakClassifiers></_>
    <!-- stage 6 -->
    <_>
      <maxWeakCount>11</maxWeakCount>
      <stageThreshold>-1.3462616205215454e+00</stageThreshold>
      <weakClassifiers>
        <_>
          <internalNodes>
            0 -1 72 -1.4640984591096640e-03</internalNodes>
          <leafValues>
            8.4295612573623657e-01 -3.3847001194953918e-01</leafValues></_>
        <_>
          <internalNodes>
            0 -1 59 -2.1852787584066391e-02</internalNodes>
          <leafValues>
            8.8619756698608398e-01 -2.0100294053554535e-01</leafValues></_>
        <_>
          <internalNodes>
            0 -1 67 -6.9224587641656399e-03</internalNodes>
          <leafValues>
            -5.8275461196899414e-01 3.4750923514366150e-01</leafValues></_>
        <_>
          <internalNodes>
            0 -1 56 -9.1282948851585388e-03</internalNodes>
          <leafValues>
            9.2303210496902466e-01 -2.2781194746494293e-01</leafValues></_>
        <_>
          <internalNodes>
            0 -1 81 -1.7832648009061813e-02</internalNodes>
          <leafValues>
            8.0902832746505737e-01 -1.8470807373523712e-01</leafValues></_>
        <_>
          <internalNodes>
            0 -1 104 -6.8581430241465569e-04</internalNodes>
          <leafValues>
            6.5875262022018433e-01 -2.8533902764320374e-01</leafValues></_>
        <_>
          <internalNodes>
            0 -1 119 6.3611306250095367e-03</internalNodes>
          <leafValues>
            -2.2499763965606689e-01 7.4475288391113281e-01</leafValues></_>
        <_>
          <internalNodes>
            0 -1 18 -1.1664759367704391e-02</internalNodes>
          <leafValues>
            8.9492225646972656e-01 -1.8339298665523529e-01</leafValues></_>
        <_>
          <internalNodes>
            0 -1 16 5.3131789900362492e-03</internalNodes>
          <leafValues>
            -3.2055717706680298e-01 6.1789798736572266e-01</leafValues></_>
        <_>
          <internalNodes>
            0 -1 61 2.2946589160710573e-03</internalNodes>
          <leafValues>
            4.3145233392715454e-01 -4.4894975423812866e-01</leafValues></_>
        <_>
          <internalNodes>
            0 -1 93 -5.8061801828444004e-03</internalNodes>
          <leafValues>
            8.2327800989151001e-01 -2.1699641644954681e-01</leafValues></_></weakClassifiers></_></stages>
  <features>
    <_>
      <rects>
        <_>
          0 0 13 16 -1.</_>
        <_>
          0 8 13 8 2.</_></rects>
      <tilted>0</tilted></_>
    <_>
      <rects>
        <_>
          0 0 16 16 -1.</_>
        <_>
          0 8 16 8 2.</_></rects>
      <tilted>0</tilted></_>
    <_>
      <rects>
        <_>
          0 1 4 2 -1.</_>
        <_>
          1 1 2 2 2.</_></rects>
      <tilted>0</tilted></_>
    <_>
      <rects>
        <_>
          0 1 16 13 -1.</_>
        <_>
          4 1 8 13 2.</_></rects>
      <tilted>0</tilted></_>
    <_>
      <rects>
        <_>
          0 1 15 6 -1.</_>
        <_>
          5 3 5 2 9.</_></rects>
      <tilted>0</tilted></_>
    <_>
      <rects>
        <_>
          0 2 2 8 -1.</_>
        <_>
          0 2 1 4 2.</_>
        <_>
          1 6 1 4 2.</_></rects>
      <tilted>0</tilted></_>
    <_>
      <rects>
        <_>
          0 2 16 5 -1.</_>
        <_>
          4 2 8 5 2.</_></rects>
      <tilted>0</tilted></_>
    <_>
      <rects>
        <_>
          0 2 8 9 -1.</_>
        <_>
          0 5 8 3 3.</_></rects>
      <tilted>0</tilted></_>
    <_>
      <rects>
        <_>
          0 3 8 4 -1.</_>
        <_>
          0 3 4 2 2.</_>
        <_>
          4 5 4 2 2.</_></rects>
      <tilted>0</tilted></_>
    <_>
      <rects>
        <_>
          0 3 16 12 -1.</_>
        <_>
          0 9 16 6 2.</_></rects>
      <tilted>0</tilted></_>
    <_>
      <rects>
        <_>
          0 4 4 1 -1.</_>
        <_>
          1 4 2 1 2.</_></rects>
      <tilted>0</tilted></_>
    <_>
      <rects>
        <_>
          0 5 4 8 -1.</_>
        <_>
          0 5 2 4 2.</_>
        <_>
          2 9 2 4 2.</_></rects>
      <tilted>0</tilted></_>
    <_>
      <rects>
        <_>
          0 6 4 3 -1.</_>
        <_>
          1 6 2 3 2.</_></rects>
      <tilted>0</tilted></_>
    <_>
      <rects>
        <_>
          0 6 16 6 -1.</_>
        <_>
          0 6 8 3 2.</_>
        <_>
          8 9 8 3 2.</_></rects>
      <tilted>0</tilted></_>
    <_>
      <rects>
        <_>
          0 7 4 8 -1.</_>
        <_>
          1 7 2 8 2.</_></rects>
      <tilted>0</tilted></_>
    <_>
      <rects>
        <_>
          0 7 3 9 -1.</_>
        <_>
          1 7 1 9 3.</_></rects>
      <tilted>0</tilted></_>
    <_>
      <rects>
        <_>
          0 7 6 7 -1.</_>
        <_>
          3 7 3 7 2.</_></rects>
      <tilted>0</tilted></_>
    <_>
      <rects>
        <_>
          0 9 3 7 -1.</_>
        <_>
          1 9 1 7 3.</_></rects>
      <tilted>0</tilted></_>
    <_>
      <rects>
        <_>
          0 9 8 5 -1.</_>
        <_>
          2 9 4 5 2.</_></rects>
      <tilted>0</tilted></_>
    <_>
      <rects>
        <_>
          0 10 12 6 -1.</_>
        <_>
          0 12 12 2 3.</_></rects>
      <tilted>0</tilted></_>
    <_>
      <rects>
        <_>
          0 11 3 3 -1.</_>
        <_>
          1 11 1 3 3.</_></rects>
      <tilted>0</tilted></_>
    <_>
      <rects>
        <_>
          0 11 4 5 -1.</_>
        <_>
          1 11 2 5 2.</_></rects>
      <tilted>0</tilted></_>
    <_>
      <rects>
        <_>
          0 12 4 3 -1.</_>
        <_>
          1 12 2 3 2.</_></rects>
      <tilted>0</tilted></_>
    <_>
      <rects>
        <_>
          0 12 6 4 -1.</_>
        <_>
          2 12 2 4 3.</_></rects>
      <tilted>0</tilted></_>
    <_>
      <rects>
        <_>
          0 13 13 3 -1.</_>
        <_>
          0 14 13 1 3.</_></rects>
      <tilted>0</tilted></_>
    <_>
      <rects>
        <_>
          0 15 12 1 -1.</_>
        <_>
          4 15 4 1 3.</_></rects>
      <tilted>0</tilted></_>
    <_>
      <rects>
        <_>
          0 15 16 1 -1.</_>
        <_>
          4 15 8 1 2.</_></rects>
      <tilted>0</tilted></_>
    <_>
      <rects>
        <_>
          1 1 12 15 -1.</_>
        <_>
          1 6 12 5 3.</_></rects>
      <tilted>0</tilted></_>
    <_>
      <rects>
        <_>
          1 3 3 1 -1.</_>
        <_>
          2 3 1 1 3.</_></rects>
      <tilted>0</tilted></_>
    <_>
      <rects>
        <_>
          1 10 15 6 -1.</_>
        <_>
          1 12 15 2 3.</_></rects>
      <tilted>0</tilted></_>
    <_>
      <rects>
        <_>
          1 11 10 3 -1.</_>
        <_>
          1 12 10 1 3.</_></rects>
      <tilted>0</tilted></_>
    <_>
      <rects>
        <_>
          1 11 14 3 -1.</_>
        <_>
          1 12 14 1 3.</_></rects>
      <tilted>0</tilted></_>
    <_>
      <rects>
        <_>
          1 12 3 1 -1.</_>
        <_>
          2 13 1 1 3.</_></rects>
      <tilted>1</tilted></_>
    <_>
      <rects>
        <_>
          1 13 7 3 -1.</_>
        <_>
          1 14 7 1 3.</_></rects>
      <tilted>0</tilted></_>
    <_>
      <rects>
        <_>
          2 10 9 3 -1.</_>
        <_>
          2 11 9 1 3.</_></rects>
      <tilted>0</tilted></_>
    <_>
      <rects>
        <_>
          2 12 8 3 -1.</_>
        <_>
          2 13 8 1 3.</_></rects>
      <tilted>0</tilted></_>
    <_>
      <rects>
        <_>
          2 12 10 3 -1.</_>
        <_>
          2 13 10 1 3.</_></rects>
      <tilted>0</tilted></_>
    <_>
      <rects>
        <_>
          2 13 1 2 -1.</_>
        <_>
          2 13 1 1 2.</_></rects>
      <tilted>1</tilted></_>
    <_>
      <rects>
        <_>
          2 15 12 1 -1.</_>
        <_>
          5 15 6 1 2.</_></rects>
      <tilted>0</tilted></_>
    <_>
      <rects>
        <_>
          2 15 12 1 -1.</_>
        <_>
          6 15 4 1 3.</_></rects>
      <tilted>0</tilted></_>
    <_>
      <rects>
        <_>
          3 0 7 2 -1.</_>
        <_>
          3 1 7 1 2.</_></rects>
      <tilted>0</tilted></_>
    <_>
      <rects>
        <_>
          3 2 3 2 -1.</_>
        <_>
          3 2 3 1 2.</_></rects>
      <tilted>1</tilted></_>
    <_>
      <rects>
        <_>
          3 8 12 7 -1.</_>
        <_>
          6 8 6 7 2.</_></rects>
      <tilted>0</tilted></_>
    <_>
      <rects>
        <_>
          3 10 7 6 -1.</_>
        <_>
          3 12 7 2 3.</_></rects>
      <tilted>0</tilted></_>
    <_>
      <rects>
        <_>
          3 12 9 3 -1.</_>
        <_>
          3 13 9 1 3.</_></rects>
      <tilted>0</tilted></_>
    <_>
      <rects>
        <_>
          4 0 4 3 -1.</_>
        <_>
          5 1 2 3 2.</_></rects>
      <tilted>1</tilted></_>
    <_>
      <rects>
        <_>
          4 0 4 14 -1.</_>
        <_>
          6 0 2 14 2.</_></rects>
      <tilted>0</tilted></_>
    <_>
      <rects>
        <_>
          4 0 4 3 -1.</_>
        <_>
          4 1 4 1 3.</_></rects>
      <tilted>0</tilted></_>
    <_>
      <rects>
        <_>
          4 6 10 10 -1.</_>
        <_>
          4 11 10 5 2.</_></rects>
      <tilted>0</tilted></_>
    <_>
      <rects>
        <_>
          4 7 12 3 -1.</_>
        <_>
          8 7 4 3 3.</_></rects>
      <tilted>0</tilted></_>
    <_>
      <rects>
        <_>
          4 8 2 4 -1.</_>
        <_>
          4 8 1 4 2.</_></rects>
      <tilted>1</tilted></_>
    <_>
      <rects>
        <_>
          4 9 2 3 -1.</_>
        <_>
          5 9 1 3 2.</_></rects>
      <tilted>0</tilted></_>
    <_>
      <rects>
        <_>
          4 9 3 4 -1.</_>
        <_>
          5 10 1 4 3.</_></rects>
      <tilted>1</tilted></_>
    <_>
      <rects>
        <_>
          4 11 6 1 -1.</_>
        <_>
          7 11 3 1 2.</_></rects>
      <tilted>0</tilted></_>
    <_>
      <rects>
        <_>
          5 3 4 9 -1.</_>
        <_>
          5 6 4 3 3.</_></rects>
      <tilted>0</tilted></_>
    <_>
      <rects>
        <_>
          5 10 3 1 -1.</_>
        <_>
          6 10 1 1 3.</_></rects>
      <tilted>0</tilted></_>
    <_>
      <rects>
        <_>
          5 12 3 3 -1.</_>
        <_>
          5 13 3 1 3.</_></rects>
      <tilted>0</tilted></_>
    <_>
      <rects>
        <_>
          5 13 7 3 -1.</_>
        <_>
          5 14 7 1 3.</_></rects>
      <tilted>0</tilted></_>
    <_>
      <rects>
        <_>
          6 0 8 12 -1.</_>
        <_>
          6 0 4 6 2.</_>
        <_>
          10 6 4 6 2.</_></rects>
      <tilted>0</tilted></_>
    <_>
      <rects>
        <_>
          6 0 9 4 -1.</_>
        <_>
          6 1 9 2 2.</_></rects>
      <tilted>0</tilted></_>
    <_>
      <rects>
        <_>
          6 3 4 5 -1.</_>
        <_>
          7 4 2 5 2.</_></rects>
      <tilted>1</tilted></_>
    <_>
      <rects>
        <_>
          6 5 2 10 -1.</_>
        <_>
          7 5 1 10 2.</_></rects>
      <tilted>0</tilted></_>
    <_>
      <rects>
        <_>
          6 8 2 2 -1.</_>
        <_>
          6 8 1 1 2.</_>
        <_>
          7 9 1 1 2.</_></rects>
      <tilted>0</tilted></_>
    <_>
      <rects>
        <_>
          6 9 2 1 -1.</_>
        <_>
          7 9 1 1 2.</_></rects>
      <tilted>0</tilted></_>
    <_>
      <rects>
        <_>
          6 10 4 3 -1.</_>
        <_>
          8 10 2 3 2.</_></rects>
      <tilted>0</tilted></_>
    <_>
      <rects>
        <_>
          6 12 6 4 -1.</_>
        <_>
          6 13 6 2 2.</_></rects>
      <tilted>0</tilted></_>
    <_>
      <rects>
        <_>
          6 12 10 4 -1.</_>
        <_>
          6 13 10 2 2.</_></rects>
      <tilted>0</tilted></_>
    <_>
      <rects>
        <_>
          6 13 10 3 -1.</_>
        <_>
          11 13 5 3 2.</_></rects>
      <tilted>0</tilted></_>
    <_>
      <rects>
        <_>
          6 13 6 3 -1.</_>
        <_>
          6 14 6 1 3.</_></rects>
      <tilted>0</tilted></_>
    <_>
      <rects>
        <_>
          6 15 8 1 -1.</_>
        <_>
          8 15 4 1 2.</_></rects>
      <tilted>0</tilted></_>
    <_>
      <rects>
        <_>
          6 15 6 1 -1.</_>
        <_>
          9 15 3 1 2.</_></rects>
      <tilted>0</tilted></_>
    <_>
      <rects>
        <_>
          7 2 9 5 -1.</_>
        <_>
          10 2 3 5 3.</_></rects>
      <tilted>0</tilted></_>
    <_>
      <rects>
        <_>
          7 13 2 2 -1.</_>
        <_>
          7 14 2 1 2.</_></rects>
      <tilted>0</tilted></_>
    <_>
      <rects>
        <_>
          7 14 2 2 -1.</_>
        <_>
          7 15 2 1 2.</_></rects>
      <tilted>0</tilted></_>
    <_>
      <rects>
        <_>
          7 15 8 1 -1.</_>
        <_>
          9 15 4 1 2.</_></rects>
      <tilted>0</tilted></_>
    <_>
      <rects>
        <_>
          8 0 2 2 -1.</_>
        <_>
          8 1 2 1 2.</_></rects>
      <tilted>0</tilted></_>
    <_>
      <rects>
        <_>
          8 0 7 16 -1.</_>
        <_>
          8 8 7 8 2.</_></rects>
      <tilted>0</tilted></_>
    <_>
      <rects>
        <_>
          8 3 8 12 -1.</_>
        <_>
          10 3 4 12 2.</_></rects>
      <tilted>0</tilted></_>
    <_>
      <rects>
        <_>
          8 15 3 1 -1.</_>
        <_>
          9 15 1 1 3.</_></rects>
      <tilted>0</tilted></_>
    <_>
      <rects>
        <_>
          8 15 8 1 -1.</_>
        <_>
          10 15 4 1 2.</_></rects>
      <tilted>0</tilted></_>
    <_>
      <rects>
        <_>
          8 15 8 1 -1.</_>
        <_>
          12 15 4 1 2.</_></rects>
      <tilted>0</tilted></_>
    <_>
      <rects>
        <_>
          9 4 6 6 -1.</_>
        <_>
          9 4 3 3 2.</_>
        <_>
          12 7 3 3 2.</_></rects>
      <tilted>0</tilted></_>
    <_>
      <rects>
        <_>
          9 5 6 8 -1.</_>
        <_>
          9 9 6 4 2.</_></rects>
      <tilted>0</tilted></_>
    <_>
      <rects>
        <_>
          9 7 6 7 -1.</_>
        <_>
          11 7 2 7 3.</_></rects>
      <tilted>0</tilted></_>
    <_>
      <rects>
        <_>
          9 14 7 2 -1.</_>
        <_>
          9 15 7 1 2.</_></rects>
      <tilted>0</tilted></_>
    <_>
      <rects>
        <_>
          10 1 4 14 -1.</_>
        <_>
          10 1 2 7 2.</_>
        <_>
          12 8 2 7 2.</_></rects>
      <tilted>0</tilted></_>
    <_>
      <rects>
        <_>
          10 2 6 2 -1.</_>
        <_>
          12 2 2 2 3.</_></rects>
      <tilted>0</tilted></_>
    <_>
      <rects>
        <_>
          10 3 6 2 -1.</_>
        <_>
          12 3 2 2 3.</_></rects>
      <tilted>0</tilted></_>
    <_>
      <rects>
        <_>
          10 5 4 10 -1.</_>
        <_>
          10 10 4 5 2.</_></rects>
      <tilted>0</tilted></_>
    <_>
      <rects>
        <_>
          10 6 6 5 -1.</_>
        <_>
          12 6 2 5 3.</_></rects>
      <tilted>0</tilted></_>
    <_>
      <rects>
        <_>
          10 12 6 1 -1.</_>
        <_>
          12 12 2 1 3.</_></rects>
      <tilted>0</tilted></_>
    <_>
      <rects>
        <_>
          10 14 1 2 -1.</_>
        <_>
          10 15 1 1 2.</_></rects>
      <tilted>0</tilted></_>
    <_>
      <rects>
        <_>
          10 14 6 2 -1.</_>
        <_>
          10 15 6 1 2.</_></rects>
      <tilted>0</tilted></_>
    <_>
      <rects>
        <_>
          11 0 2 3 -1.</_>
        <_>
          10 1 2 1 3.</_></rects>
      <tilted>1</tilted></_>
    <_>
      <rects>
        <_>
          11 2 4 2 -1.</_>
        <_>
          12 2 2 2 2.</_></rects>
      <tilted>0</tilted></_>
    <_>
      <rects>
        <_>
          11 5 2 8 -1.</_>
        <_>
          11 9 2 4 2.</_></rects>
      <tilted>0</tilted></_>
    <_>
      <rects>
        <_>
          11 6 4 9 -1.</_>
        <_>
          12 6 2 9 2.</_></rects>
      <tilted>0</tilted></_>
    <_>
      <rects>
        <_>
          11 8 1 8 -1.</_>
        <_>
          11 10 1 4 2.</_></rects>
      <tilted>0</tilted></_>
    <_>
      <rects>
        <_>
          11 11 3 2 -1.</_>
        <_>
          12 11 1 2 3.</_></rects>
      <tilted>0</tilted></_>
    <_>
      <rects>
        <_>
          12 2 4 2 -1.</_>
        <_>
          13 2 2 2 2.</_></rects>
      <tilted>0</tilted></_>
    <_>
      <rects>
        <_>
          12 2 4 1 -1.</_>
        <_>
          14 2 2 1 2.</_></rects>
      <tilted>0</tilted></_>
    <_>
      <rects>
        <_>
          12 3 3 4 -1.</_>
        <_>
          13 3 1 4 3.</_></rects>
      <tilted>0</tilted></_>
    <_>
      <rects>
        <_>
          12 3 4 10 -1.</_>
        <_>
          14 3 2 10 2.</_></rects>
      <tilted>0</tilted></_>
    <_>
      <rects>
        <_>
          12 5 4 5 -1.</_>
        <_>
          14 5 2 5 2.</_></rects>
      <tilted>0</tilted></_>
    <_>
      <rects>
        <_>
          12 11 1 2 -1.</_>
        <_>
          12 12 1 1 2.</_></rects>
      <tilted>0</tilted></_>
    <_>
      <rects>
        <_>
          12 12 4 4 -1.</_>
        <_>
          14 12 2 4 2.</_></rects>
      <tilted>0</tilted></_>
    <_>
      <rects>
        <_>
          12 14 4 2 -1.</_>
        <_>
          14 14 2 2 2.</_></rects>
      <tilted>0</tilted></_>
    <_>
      <rects>
        <_>
          12 15 4 1 -1.</_>
        <_>
          14 15 2 1 2.</_></rects>
      <tilted>0</tilted></_>
    <_>
      <rects>
        <_>
          13 4 3 1 -1.</_>
        <_>
          14 5 1 1 3.</_></rects>
      <tilted>1</tilted></_>
    <_>
      <rects>
        <_>
          13 4 3 11 -1.</_>
        <_>
          14 4 1 11 3.</_></rects>
      <tilted>0</tilted></_>
    <_>
      <rects>
        <_>
          13 6 3 9 -1.</_>
        <_>
          14 6 1 9 3.</_></rects>
      <tilted>0</tilted></_>
    <_>
      <rects>
        <_>
          13 8 3 7 -1.</_>
        <_>
          14 8 1 7 3.</_></rects>
      <tilted>0</tilted></_>
    <_>
      <rects>
        <_>
          13 10 3 4 -1.</_>
        <_>
          14 10 1 4 3.</_></rects>
      <tilted>0</tilted></_>
    <_>
      <rects>
        <_>
          13 11 3 3 -1.</_>
        <_>
          14 11 1 3 3.</_></rects>
      <tilted>0</tilted></_>
    <_>
      <rects>
        <_>
          13 11 3 5 -1.</_>
        <_>
          14 11 1 5 3.</_></rects>
      <tilted>0</tilted></_>
    <_>
      <rects>
        <_>
          13 12 3 1 -1.</_>
        <_>
          14 12 1 1 3.</_></rects>
      <tilted>0</tilted></_>
    <_>
      <rects>
        <_>
          14 1 2 14 -1.</_>
        <_>
          14 1 1 7 2.</_>
        <_>
          15 8 1 7 2.</_></rects>
      <tilted>0</tilted></_>
    <_>
      <rects>
        <_>
          14 2 2 14 -1.</_>
        <_>
          14 2 1 7 2.</_>
        <_>
          15 9 1 7 2.</_></rects>
      <tilted>0</tilted></_>
    <_>
      <rects>
        <_>
          14 3 2 9 -1.</_>
        <_>
          15 3 1 9 2.</_></rects>
      <tilted>0</tilted></_>
    <_>
      <rects>
        <_>
          14 3 2 11 -1.</_>
        <_>
          15 3 1 11 2.</_></rects>
      <tilted>0</tilted></_>
    <_>
      <rects>
        <_>
          14 9 2 2 -1.</_>
        <_>
          15 9 1 2 2.</_></rects>
      <tilted>0</tilted></_>
    <_>
      <rects>
        <_>
          14 14 2 2 -1.</_>
        <_>
          15 14 1 2 2.</_></rects>
      <tilted>0</tilted></_>
    <_>
      <rects>
        <_>
          14 15 2 1 -1.</_>
        <_>
          15 15 1 1 2.</_></rects>
      <tilted>0</tilted></_></features></cascade>
</opencv_storage>
