<?xml version="1.0"?>
<opencv_storage>
<stage1>
  <maxWeakCount>15</maxWeakCount>
  <stageThreshold>-1.7035796642303467e+00</stageThreshold>
  <weakClassifiers>
    <_>
      <internalNodes>
        0 -1 14460 -3.0593860428780317e-03</internalNodes>
      <leafValues>
        5.4415583610534668e-01 -4.5202702283859253e-01</leafValues></_>
    <_>
      <internalNodes>
        0 -1 48577 1.7868161667138338e-03</internalNodes>
      <leafValues>
        -4.3347871303558350e-01 4.3127244710922241e-01</leafValues></_>
    <_>
      <internalNodes>
        0 -1 40684 -1.7616102471947670e-02</internalNodes>
      <leafValues>
        2.3198078572750092e-01 -6.4847093820571899e-01</leafValues></_>
    <_>
      <internalNodes>
        0 -1 44506 2.3326580412685871e-03</internalNodes>
      <leafValues>
        -3.1898331642150879e-01 4.0697687864303589e-01</leafValues></_>
    <_>
      <internalNodes>
        0 -1 1444 -7.5573325157165527e-02</internalNodes>
      <leafValues>
        4.8260855674743652e-01 -2.8349047899246216e-01</leafValues></_>
    <_>
      <internalNodes>
        0 -1 22685 9.7502125427126884e-03</internalNodes>
      <leafValues>
        -2.4441586434841156e-01 3.9345064759254456e-01</leafValues></_>
    <_>
      <internalNodes>
        0 -1 49449 -1.2036589905619621e-02</internalNodes>
      <leafValues>
        6.6434633731842041e-01 -1.5830506384372711e-01</leafValues></_>
    <_>
      <internalNodes>
        0 -1 38838 -1.4060125686228275e-03</internalNodes>
      <leafValues>
        -5.6959033012390137e-01 2.0453192293643951e-01</leafValues></_>
    <_>
      <internalNodes>
        0 -1 43643 -1.5510832890868187e-02</internalNodes>
      <leafValues>
        4.6224346756935120e-01 -2.3055885732173920e-01</leafValues></_>
    <_>
      <internalNodes>
        0 -1 50175 -9.1372253373265266e-03</internalNodes>
      <leafValues>
        6.6064208745956421e-01 -1.1801087856292725e-01</leafValues></_>
    <_>
      <internalNodes>
        0 -1 3552 -9.4072818756103516e-03</internalNodes>
      <leafValues>
        5.7784879207611084e-01 -1.3440392911434174e-01</leafValues></_>
    <_>
      <internalNodes>
        0 -1 14433 -1.6322476789355278e-02</internalNodes>
      <leafValues>
        4.9772945046424866e-01 -1.6299268603324890e-01</leafValues></_>
    <_>
      <internalNodes>
        0 -1 9616 -1.7830271273851395e-02</internalNodes>
      <leafValues>
        4.4987589120864868e-01 -2.0198136568069458e-01</leafValues></_>
    <_>
      <internalNodes>
        0 -1 22942 -1.8510140944272280e-03</internalNodes>
      <leafValues>
        -6.1115145683288574e-01 1.5918569266796112e-01</leafValues></_>
    <_>
      <internalNodes>
        0 -1 1612 4.6311136335134506e-02</internalNodes>
      <leafValues>
        -2.7088955044746399e-01 2.6631739735603333e-01</leafValues></_></weakClassifiers></stage1>
</opencv_storage>
