<?xml version="1.0"?>
<opencv_storage>
<stage6>
  <maxWeakCount>7</maxWeakCount>
  <stageThreshold>-1.3350608348846436e+00</stageThreshold>
  <weakClassifiers>
    <_>
      <internalNodes>
        0 -1 50525 9.4098793342709541e-03</internalNodes>
      <leafValues>
        -5.4838711023330688e-01 6.9230771064758301e-01</leafValues></_>
    <_>
      <internalNodes>
        0 -1 37473 -8.6904196068644524e-03</internalNodes>
      <leafValues>
        4.7888949513435364e-01 -4.5285370945930481e-01</leafValues></_>
    <_>
      <internalNodes>
        0 -1 14175 -3.4640398807823658e-03</internalNodes>
      <leafValues>
        4.7688099741935730e-01 -4.6783649921417236e-01</leafValues></_>
    <_>
      <internalNodes>
        0 -1 39559 -3.6229491233825684e-03</internalNodes>
      <leafValues>
        7.2729212045669556e-01 -3.2972210645675659e-01</leafValues></_>
    <_>
      <internalNodes>
        0 -1 37896 -8.7390765547752380e-03</internalNodes>
      <leafValues>
        4.3453302979469299e-01 -5.0282800197601318e-01</leafValues></_>
    <_>
      <internalNodes>
        0 -1 9915 -1.1357007548213005e-02</internalNodes>
      <leafValues>
        -9.3282753229141235e-01 2.6172506809234619e-01</leafValues></_>
    <_>
      <internalNodes>
        0 -1 6775 -1.2975673889741302e-03</internalNodes>
      <leafValues>
        7.0262193679809570e-01 -3.5217264294624329e-01</leafValues></_></weakClassifiers></stage6>
</opencv_storage>
