<?xml version="1.0"?>
<opencv_storage>
<stage6>
  <maxWeakCount>19</maxWeakCount>
  <stageThreshold>-1.4607076644897461e+00</stageThreshold>
  <weakClassifiers>
    <_>
      <internalNodes>
        0 -1 3885 -3.9198325248435140e-04</internalNodes>
      <leafValues>
        4.8184201121330261e-01 -3.8660258054733276e-01</leafValues></_>
    <_>
      <internalNodes>
        0 -1 24048 -8.7297763675451279e-03</internalNodes>
      <leafValues>
        5.5208969116210938e-01 -2.9438635706901550e-01</leafValues></_>
    <_>
      <internalNodes>
        0 -1 1883 3.6498820409178734e-03</internalNodes>
      <leafValues>
        -2.7319112420082092e-01 4.4343236088752747e-01</leafValues></_>
    <_>
      <internalNodes>
        0 -1 5488 7.7059112489223480e-02</internalNodes>
      <leafValues>
        -1.4922510087490082e-01 9.1632568836212158e-01</leafValues></_>
    <_>
      <internalNodes>
        0 -1 32277 5.9017754392698407e-04</internalNodes>
      <leafValues>
        -2.8661936521530151e-01 4.2248922586441040e-01</leafValues></_>
    <_>
      <internalNodes>
        0 -1 31297 -4.7220245003700256e-02</internalNodes>
      <leafValues>
        -5.2729040384292603e-01 2.6871526241302490e-01</leafValues></_>
    <_>
      <internalNodes>
        0 -1 29577 -1.1422836687415838e-03</internalNodes>
      <leafValues>
        6.2705051898956299e-01 -2.0980708301067352e-01</leafValues></_>
    <_>
      <internalNodes>
        0 -1 30544 -3.4466674551367760e-03</internalNodes>
      <leafValues>
        6.8062049150466919e-01 -1.6333600878715515e-01</leafValues></_>
    <_>
      <internalNodes>
        0 -1 32050 1.3702875003218651e-03</internalNodes>
      <leafValues>
        -1.6963359713554382e-01 6.7628073692321777e-01</leafValues></_>
    <_>
      <internalNodes>
        0 -1 17808 -2.1148528903722763e-03</internalNodes>
      <leafValues>
        -3.2262438535690308e-01 3.5620957612991333e-01</leafValues></_>
    <_>
      <internalNodes>
        0 -1 8395 4.9543729983270168e-03</internalNodes>
      <leafValues>
        -1.4429719746112823e-01 9.1386920213699341e-01</leafValues></_>
    <_>
      <internalNodes>
        0 -1 24 -1.2998252175748348e-02</internalNodes>
      <leafValues>
        8.2377487421035767e-01 -1.3552863895893097e-01</leafValues></_>
    <_>
      <internalNodes>
        0 -1 15185 1.3756679370999336e-02</internalNodes>
      <leafValues>
        -1.0130293667316437e-01 8.3828479051589966e-01</leafValues></_>
    <_>
      <internalNodes>
        0 -1 6690 2.4727508425712585e-03</internalNodes>
      <leafValues>
        -1.4534077048301697e-01 5.8740812540054321e-01</leafValues></_>
    <_>
      <internalNodes>
        0 -1 7356 -2.7803098782896996e-03</internalNodes>
      <leafValues>
        6.7650741338729858e-01 -1.4973630011081696e-01</leafValues></_>
    <_>
      <internalNodes>
        0 -1 31223 -1.4939146349206567e-03</internalNodes>
      <leafValues>
        -6.6883510351181030e-01 2.1392337977886200e-01</leafValues></_>
    <_>
      <internalNodes>
        0 -1 30812 -1.2456167023628950e-03</internalNodes>
      <leafValues>
        6.4607083797454834e-01 -2.2458988428115845e-01</leafValues></_>
    <_>
      <internalNodes>
        0 -1 31794 -2.0837392657995224e-03</internalNodes>
      <leafValues>
        5.7159203290939331e-01 -1.9030536711215973e-01</leafValues></_>
    <_>
      <internalNodes>
        0 -1 27593 -1.6371212899684906e-02</internalNodes>
      <leafValues>
        8.8380944728851318e-01 -1.1961004883050919e-01</leafValues></_></weakClassifiers></stage6>
</opencv_storage>
