<?xml version="1.0"?>
<opencv_storage>
<stage4>
  <maxWeakCount>5</maxWeakCount>
  <stageThreshold>-8.0256581306457520e-02</stageThreshold>
  <weakClassifiers>
    <_>
      <internalNodes>
        0 -1 37591 -2.0022574812173843e-02</internalNodes>
      <leafValues>
        7.3333334922790527e-01 -6.0000002384185791e-01</leafValues></_>
    <_>
      <internalNodes>
        0 -1 14544 1.5041485312394798e-04</internalNodes>
      <leafValues>
        -5.6428372859954834e-01 7.1120196580886841e-01</leafValues></_>
    <_>
      <internalNodes>
        0 -1 3232 -9.0845488011837006e-03</internalNodes>
      <leafValues>
        7.7821803092956543e-01 -4.7271493077278137e-01</leafValues></_>
    <_>
      <internalNodes>
        0 -1 38366 -9.0772248804569244e-03</internalNodes>
      <leafValues>
        7.7541810274124146e-01 -4.1328057646751404e-01</leafValues></_>
    <_>
      <internalNodes>
        0 -1 13279 1.3185598654672503e-03</internalNodes>
      <leafValues>
        -4.3871554732322693e-01 6.9453698396682739e-01</leafValues></_></weakClassifiers></stage4>
</opencv_storage>
