<?xml version="1.0"?>
<opencv_storage>
<cascade>
  <stageType>BOOST</stageType>
  <featureType>HAAR</featureType>
  <height>16</height>
  <width>16</width>
  <stageParams>
    <boostType>GAB</boostType>
    <minHitRate>9.9500000476837158e-01</minHitRate>
    <maxFalseAlarm>5.0000000000000000e-01</maxFalseAlarm>
    <weightTrimRate>9.4999999999999996e-01</weightTrimRate>
    <maxDepth>1</maxDepth>
    <maxWeakCount>100</maxWeakCount></stageParams>
  <featureParams>
    <maxCatCount>0</maxCatCount>
    <featSize>1</featSize>
    <mode>ALL</mode></featureParams>
  <stageNum>10</stageNum>
  <stages>
    <!-- stage 0 -->
    <_>
      <maxWeakCount>4</maxWeakCount>
      <stageThreshold>1.0438098572194576e-02</stageThreshold>
      <weakClassifiers>
        <_>
          <internalNodes>
            0 -1 3 6.8540871143341064e-03</internalNodes>
          <leafValues>
            7.5700932741165161e-01 -7.2093021869659424e-01</leafValues></_>
        <_>
          <internalNodes>
            0 -1 1 -1.5658412128686905e-02</internalNodes>
          <leafValues>
            8.9720326662063599e-01 -3.6135515570640564e-01</leafValues></_>
        <_>
          <internalNodes>
            0 -1 31 -4.9311863258481026e-03</internalNodes>
          <leafValues>
            7.0463252067565918e-01 -5.6141477823257446e-01</leafValues></_>
        <_>
          <internalNodes>
            0 -1 47 -6.5876878798007965e-03</internalNodes>
          <leafValues>
            -8.7046748399734497e-01 5.2154642343521118e-01</leafValues></_></weakClassifiers></_>
    <!-- stage 1 -->
    <_>
      <maxWeakCount>5</maxWeakCount>
      <stageThreshold>-5.8483406901359558e-02</stageThreshold>
      <weakClassifiers>
        <_>
          <internalNodes>
            0 -1 46 7.4704858707264066e-04</internalNodes>
          <leafValues>
            -2.5373134016990662e-01 8.0722892284393311e-01</leafValues></_>
        <_>
          <internalNodes>
            0 -1 2 -9.2990268021821976e-03</internalNodes>
          <leafValues>
            7.6943004131317139e-01 -4.2131158709526062e-01</leafValues></_>
        <_>
          <internalNodes>
            0 -1 24 1.7771145794540644e-03</internalNodes>
          <leafValues>
            5.0444006919860840e-01 -6.8285077810287476e-01</leafValues></_>
        <_>
          <internalNodes>
            0 -1 19 5.5845389142632484e-03</internalNodes>
          <leafValues>
            -4.6822926402091980e-01 7.5461691617965698e-01</leafValues></_>
        <_>
          <internalNodes>
            0 -1 4 -2.2155977785587311e-03</internalNodes>
          <leafValues>
            7.3976314067840576e-01 -4.8061156272888184e-01</leafValues></_></weakClassifiers></_>
    <!-- stage 2 -->
    <_>
      <maxWeakCount>6</maxWeakCount>
      <stageThreshold>-4.8315292596817017e-01</stageThreshold>
      <weakClassifiers>
        <_>
          <internalNodes>
            0 -1 43 3.8367498200386763e-03</internalNodes>
          <leafValues>
            -1.0112359374761581e-01 9.6721309423446655e-01</leafValues></_>
        <_>
          <internalNodes>
            0 -1 7 -5.0155349075794220e-02</internalNodes>
          <leafValues>
            -1. 4.1065537929534912e-01</leafValues></_>
        <_>
          <internalNodes>
            0 -1 21 -3.1208517029881477e-03</internalNodes>
          <leafValues>
            5.9619820117950439e-01 -4.9915757775306702e-01</leafValues></_>
        <_>
          <internalNodes>
            0 -1 34 -1.0310372337698936e-02</internalNodes>
          <leafValues>
            8.9327985048294067e-01 -3.6078360676765442e-01</leafValues></_>
        <_>
          <internalNodes>
            0 -1 11 7.6270298450253904e-05</internalNodes>
          <leafValues>
            4.7609761357307434e-01 -6.7733782529830933e-01</leafValues></_>
        <_>
          <internalNodes>
            0 -1 20 -3.5119140520691872e-03</internalNodes>
          <leafValues>
            8.4649288654327393e-01 -4.0884119272232056e-01</leafValues></_></weakClassifiers></_>
    <!-- stage 3 -->
    <_>
      <maxWeakCount>5</maxWeakCount>
      <stageThreshold>1.3359849154949188e-01</stageThreshold>
      <weakClassifiers>
        <_>
          <internalNodes>
            0 -1 6 -1.3207158073782921e-02</internalNodes>
          <leafValues>
            1. -8.6956523358821869e-02</leafValues></_>
        <_>
          <internalNodes>
            0 -1 44 4.5346384868025780e-03</internalNodes>
          <leafValues>
            -2.1228595077991486e-01 9.5284622907638550e-01</leafValues></_>
        <_>
          <internalNodes>
            0 -1 40 4.5194355770945549e-03</internalNodes>
          <leafValues>
            -2.4366147816181183e-01 8.9973658323287964e-01</leafValues></_>
        <_>
          <internalNodes>
            0 -1 13 -3.6062285304069519e-02</internalNodes>
          <leafValues>
            -7.0280706882476807e-01 4.0958276391029358e-01</leafValues></_>
        <_>
          <internalNodes>
            0 -1 25 6.2999129295349121e-03</internalNodes>
          <leafValues>
            3.7602686882019043e-01 -8.2003688812255859e-01</leafValues></_></weakClassifiers></_>
    <!-- stage 4 -->
    <_>
      <maxWeakCount>5</maxWeakCount>
      <stageThreshold>-8.0256581306457520e-02</stageThreshold>
      <weakClassifiers>
        <_>
          <internalNodes>
            0 -1 32 -2.0022574812173843e-02</internalNodes>
          <leafValues>
            7.3333334922790527e-01 -6.0000002384185791e-01</leafValues></_>
        <_>
          <internalNodes>
            0 -1 18 1.5041485312394798e-04</internalNodes>
          <leafValues>
            -5.6428372859954834e-01 7.1120196580886841e-01</leafValues></_>
        <_>
          <internalNodes>
            0 -1 5 -9.0845488011837006e-03</internalNodes>
          <leafValues>
            7.7821803092956543e-01 -4.7271493077278137e-01</leafValues></_>
        <_>
          <internalNodes>
            0 -1 33 -9.0772248804569244e-03</internalNodes>
          <leafValues>
            7.7541810274124146e-01 -4.1328057646751404e-01</leafValues></_>
        <_>
          <internalNodes>
            0 -1 16 1.3185598654672503e-03</internalNodes>
          <leafValues>
            -4.3871554732322693e-01 6.9453698396682739e-01</leafValues></_></weakClassifiers></_>
    <!-- stage 5 -->
    <_>
      <maxWeakCount>4</maxWeakCount>
      <stageThreshold>1.3986523449420929e-01</stageThreshold>
      <weakClassifiers>
        <_>
          <internalNodes>
            0 -1 12 1.3441765913739800e-03</internalNodes>
          <leafValues>
            6.6071426868438721e-01 -6.3157892227172852e-01</leafValues></_>
        <_>
          <internalNodes>
            0 -1 0 -5.5431589484214783e-02</internalNodes>
          <leafValues>
            7.3052251338958740e-01 -4.1646209359169006e-01</leafValues></_>
        <_>
          <internalNodes>
            0 -1 38 -4.6999575570225716e-03</internalNodes>
          <leafValues>
            7.3771798610687256e-01 -4.4517102837562561e-01</leafValues></_>
        <_>
          <internalNodes>
            0 -1 9 3.8366902619600296e-02</internalNodes>
          <leafValues>
            4.8480671644210815e-01 -8.0620056390762329e-01</leafValues></_></weakClassifiers></_>
    <!-- stage 6 -->
    <_>
      <maxWeakCount>2</maxWeakCount>
      <stageThreshold>3.8575729727745056e-01</stageThreshold>
      <weakClassifiers>
        <_>
          <internalNodes>
            0 -1 23 1.9828036602120847e-04</internalNodes>
          <leafValues>
            -3.5211268067359924e-01 9.4936710596084595e-01</leafValues></_>
        <_>
          <internalNodes>
            0 -1 29 1.1016368865966797e-02</internalNodes>
          <leafValues>
            7.3786997795104980e-01 -4.7074699401855469e-01</leafValues></_></weakClassifiers></_>
    <!-- stage 7 -->
    <_>
      <maxWeakCount>6</maxWeakCount>
      <stageThreshold>-2.6233100891113281e-01</stageThreshold>
      <weakClassifiers>
        <_>
          <internalNodes>
            0 -1 17 -7.1238521486520767e-03</internalNodes>
          <leafValues>
            -3.6170211434364319e-01 6.5048545598983765e-01</leafValues></_>
        <_>
          <internalNodes>
            0 -1 42 5.2112362027401105e-05</internalNodes>
          <leafValues>
            -3.9901071786880493e-01 6.5763479471206665e-01</leafValues></_>
        <_>
          <internalNodes>
            0 -1 37 1.2235820759087801e-03</internalNodes>
          <leafValues>
            -4.9164888262748718e-01 5.8425205945968628e-01</leafValues></_>
        <_>
          <internalNodes>
            0 -1 15 -1.3206144794821739e-02</internalNodes>
          <leafValues>
            6.7973905801773071e-01 -4.4553884863853455e-01</leafValues></_>
        <_>
          <internalNodes>
            0 -1 8 1.3112802058458328e-02</internalNodes>
          <leafValues>
            -2.5861620903015137e-01 9.3486458063125610e-01</leafValues></_>
        <_>
          <internalNodes>
            0 -1 35 -4.7211651690304279e-03</internalNodes>
          <leafValues>
            7.9485344886779785e-01 -3.7464725971221924e-01</leafValues></_></weakClassifiers></_>
    <!-- stage 8 -->
    <_>
      <maxWeakCount>7</maxWeakCount>
      <stageThreshold>-3.2213822007179260e-01</stageThreshold>
      <weakClassifiers>
        <_>
          <internalNodes>
            0 -1 45 -1.9201453542336822e-03</internalNodes>
          <leafValues>
            8.6111110448837280e-01 -1.5384615957736969e-01</leafValues></_>
        <_>
          <internalNodes>
            0 -1 28 -9.5417881384491920e-03</internalNodes>
          <leafValues>
            8.6553436517715454e-01 -2.1171215176582336e-01</leafValues></_>
        <_>
          <internalNodes>
            0 -1 22 -1.8890612409450114e-04</internalNodes>
          <leafValues>
            -4.9905470013618469e-01 5.2993273735046387e-01</leafValues></_>
        <_>
          <internalNodes>
            0 -1 41 -3.6919252015650272e-03</internalNodes>
          <leafValues>
            6.8260997533798218e-01 -3.6178874969482422e-01</leafValues></_>
        <_>
          <internalNodes>
            0 -1 39 1.8904383759945631e-03</internalNodes>
          <leafValues>
            -3.1024703383445740e-01 8.8055962324142456e-01</leafValues></_>
        <_>
          <internalNodes>
            0 -1 10 -7.3916148394346237e-03</internalNodes>
          <leafValues>
            7.4019289016723633e-01 -3.7261191010475159e-01</leafValues></_>
        <_>
          <internalNodes>
            0 -1 30 -7.5354212895035744e-03</internalNodes>
          <leafValues>
            6.6013365983963013e-01 -4.8626366257667542e-01</leafValues></_></weakClassifiers></_>
    <!-- stage 9 -->
    <_>
      <maxWeakCount>4</maxWeakCount>
      <stageThreshold>2.1860361099243164e-01</stageThreshold>
      <weakClassifiers>
        <_>
          <internalNodes>
            0 -1 36 2.6589404791593552e-02</internalNodes>
          <leafValues>
            6.8807339668273926e-01 -6.0975611209869385e-01</leafValues></_>
        <_>
          <internalNodes>
            0 -1 26 -2.7826295699924231e-03</internalNodes>
          <leafValues>
            -8.1437188386917114e-01 6.0326480865478516e-01</leafValues></_>
        <_>
          <internalNodes>
            0 -1 27 -1.0187041014432907e-02</internalNodes>
          <leafValues>
            -5.9612846374511719e-01 7.9274350404739380e-01</leafValues></_>
        <_>
          <internalNodes>
            0 -1 14 -1.0163673141505569e-04</internalNodes>
          <leafValues>
            1. -4.4784140586853027e-01</leafValues></_></weakClassifiers></_></stages>
  <features>
    <_>
      <rects>
        <_>
          0 1 16 6 -1.</_>
        <_>
          4 1 8 6 2.</_></rects>
      <tilted>0</tilted></_>
    <_>
      <rects>
        <_>
          0 2 4 9 -1.</_>
        <_>
          2 2 2 9 2.</_></rects>
      <tilted>0</tilted></_>
    <_>
      <rects>
        <_>
          0 4 16 1 -1.</_>
        <_>
          4 4 8 1 2.</_></rects>
      <tilted>0</tilted></_>
    <_>
      <rects>
        <_>
          0 4 5 10 -1.</_>
        <_>
          0 9 5 5 2.</_></rects>
      <tilted>0</tilted></_>
    <_>
      <rects>
        <_>
          0 6 3 7 -1.</_>
        <_>
          1 6 1 7 3.</_></rects>
      <tilted>0</tilted></_>
    <_>
      <rects>
        <_>
          0 6 9 2 -1.</_>
        <_>
          3 6 3 2 3.</_></rects>
      <tilted>0</tilted></_>
    <_>
      <rects>
        <_>
          0 9 6 5 -1.</_>
        <_>
          2 9 2 5 3.</_></rects>
      <tilted>0</tilted></_>
    <_>
      <rects>
        <_>
          0 10 12 6 -1.</_>
        <_>
          0 10 6 3 2.</_>
        <_>
          6 13 6 3 2.</_></rects>
      <tilted>0</tilted></_>
    <_>
      <rects>
        <_>
          0 11 15 3 -1.</_>
        <_>
          0 12 15 1 3.</_></rects>
      <tilted>0</tilted></_>
    <_>
      <rects>
        <_>
          0 13 16 3 -1.</_>
        <_>
          8 13 8 3 2.</_></rects>
      <tilted>0</tilted></_>
    <_>
      <rects>
        <_>
          0 13 10 2 -1.</_>
        <_>
          0 14 10 1 2.</_></rects>
      <tilted>0</tilted></_>
    <_>
      <rects>
        <_>
          0 15 2 1 -1.</_>
        <_>
          1 15 1 1 2.</_></rects>
      <tilted>0</tilted></_>
    <_>
      <rects>
        <_>
          0 15 4 1 -1.</_>
        <_>
          2 15 2 1 2.</_></rects>
      <tilted>0</tilted></_>
    <_>
      <rects>
        <_>
          1 3 12 10 -1.</_>
        <_>
          1 3 6 5 2.</_>
        <_>
          7 8 6 5 2.</_></rects>
      <tilted>0</tilted></_>
    <_>
      <rects>
        <_>
          1 6 3 1 -1.</_>
        <_>
          2 6 1 1 3.</_></rects>
      <tilted>0</tilted></_>
    <_>
      <rects>
        <_>
          1 9 6 1 -1.</_>
        <_>
          3 11 2 1 3.</_></rects>
      <tilted>1</tilted></_>
    <_>
      <rects>
        <_>
          2 7 12 8 -1.</_>
        <_>
          5 7 6 8 2.</_></rects>
      <tilted>0</tilted></_>
    <_>
      <rects>
        <_>
          2 12 10 2 -1.</_>
        <_>
          7 12 5 2 2.</_></rects>
      <tilted>0</tilted></_>
    <_>
      <rects>
        <_>
          2 14 2 2 -1.</_>
        <_>
          2 15 2 1 2.</_></rects>
      <tilted>0</tilted></_>
    <_>
      <rects>
        <_>
          2 14 8 2 -1.</_>
        <_>
          2 15 8 1 2.</_></rects>
      <tilted>0</tilted></_>
    <_>
      <rects>
        <_>
          3 3 4 11 -1.</_>
        <_>
          4 3 2 11 2.</_></rects>
      <tilted>0</tilted></_>
    <_>
      <rects>
        <_>
          3 10 3 2 -1.</_>
        <_>
          4 11 1 2 3.</_></rects>
      <tilted>1</tilted></_>
    <_>
      <rects>
        <_>
          3 11 9 5 -1.</_>
        <_>
          6 11 3 5 3.</_></rects>
      <tilted>0</tilted></_>
    <_>
      <rects>
        <_>
          4 10 1 6 -1.</_>
        <_>
          4 13 1 3 2.</_></rects>
      <tilted>0</tilted></_>
    <_>
      <rects>
        <_>
          4 15 12 1 -1.</_>
        <_>
          7 15 6 1 2.</_></rects>
      <tilted>0</tilted></_>
    <_>
      <rects>
        <_>
          5 2 4 8 -1.</_>
        <_>
          5 2 2 4 2.</_>
        <_>
          7 6 2 4 2.</_></rects>
      <tilted>0</tilted></_>
    <_>
      <rects>
        <_>
          5 8 4 3 -1.</_>
        <_>
          6 8 2 3 2.</_></rects>
      <tilted>0</tilted></_>
    <_>
      <rects>
        <_>
          5 8 9 8 -1.</_>
        <_>
          8 8 3 8 3.</_></rects>
      <tilted>0</tilted></_>
    <_>
      <rects>
        <_>
          5 13 3 3 -1.</_>
        <_>
          6 14 1 1 9.</_></rects>
      <tilted>0</tilted></_>
    <_>
      <rects>
        <_>
          6 1 2 6 -1.</_>
        <_>
          6 1 2 3 2.</_></rects>
      <tilted>1</tilted></_>
    <_>
      <rects>
        <_>
          6 4 9 3 -1.</_>
        <_>
          9 4 3 3 3.</_></rects>
      <tilted>0</tilted></_>
    <_>
      <rects>
        <_>
          7 0 4 4 -1.</_>
        <_>
          7 2 4 2 2.</_></rects>
      <tilted>0</tilted></_>
    <_>
      <rects>
        <_>
          8 5 7 8 -1.</_>
        <_>
          8 9 7 4 2.</_></rects>
      <tilted>0</tilted></_>
    <_>
      <rects>
        <_>
          8 9 8 3 -1.</_>
        <_>
          10 9 4 3 2.</_></rects>
      <tilted>0</tilted></_>
    <_>
      <rects>
        <_>
          8 10 8 6 -1.</_>
        <_>
          10 10 4 6 2.</_></rects>
      <tilted>0</tilted></_>
    <_>
      <rects>
        <_>
          8 11 2 3 -1.</_>
        <_>
          8 12 2 1 3.</_></rects>
      <tilted>0</tilted></_>
    <_>
      <rects>
        <_>
          10 1 5 4 -1.</_>
        <_>
          10 2 5 2 2.</_></rects>
      <tilted>0</tilted></_>
    <_>
      <rects>
        <_>
          10 14 6 2 -1.</_>
        <_>
          13 14 3 2 2.</_></rects>
      <tilted>0</tilted></_>
    <_>
      <rects>
        <_>
          11 8 3 4 -1.</_>
        <_>
          10 9 3 2 2.</_></rects>
      <tilted>1</tilted></_>
    <_>
      <rects>
        <_>
          11 13 2 2 -1.</_>
        <_>
          11 14 2 1 2.</_></rects>
      <tilted>0</tilted></_>
    <_>
      <rects>
        <_>
          11 14 2 2 -1.</_>
        <_>
          11 15 2 1 2.</_></rects>
      <tilted>0</tilted></_>
    <_>
      <rects>
        <_>
          12 6 4 3 -1.</_>
        <_>
          13 6 2 3 2.</_></rects>
      <tilted>0</tilted></_>
    <_>
      <rects>
        <_>
          14 5 2 4 -1.</_>
        <_>
          14 5 1 2 2.</_>
        <_>
          15 7 1 2 2.</_></rects>
      <tilted>0</tilted></_>
    <_>
      <rects>
        <_>
          14 9 2 6 -1.</_>
        <_>
          15 9 1 6 2.</_></rects>
      <tilted>0</tilted></_>
    <_>
      <rects>
        <_>
          14 9 2 7 -1.</_>
        <_>
          15 9 1 7 2.</_></rects>
      <tilted>0</tilted></_>
    <_>
      <rects>
        <_>
          14 11 1 4 -1.</_>
        <_>
          14 11 1 2 2.</_></rects>
      <tilted>1</tilted></_>
    <_>
      <rects>
        <_>
          14 14 1 2 -1.</_>
        <_>
          14 15 1 1 2.</_></rects>
      <tilted>0</tilted></_>
    <_>
      <rects>
        <_>
          15 2 1 12 -1.</_>
        <_>
          15 2 1 6 2.</_></rects>
      <tilted>1</tilted></_></features></cascade>
</opencv_storage>
